#include <stdint.h>

static const   float bias_2[84] = {0.06394916, 0.062230427, 0.1480649, 0.077037655, -0.0011682163, 0.074120454, -0.022195797, -0.041455977, -0.000117722986, 0.048759196, 0.04429319, 0.014101754, -0.11111388, 0.17050335, -0.044054125, -0.0050192582, 0.047349386, -0.06914764, -0.076869145, -0.11096315, 0.09153215, -0.0020477914, 0.08834557, -0.07781814, -0.08645, 0.10833477, -0.07204238, 0.023001052, 0.110971056, -0.11955886, -0.032721184, 0.0083044125, 0.02859956, 0.03161541, 0.07183248, 0.10880597, 0.0634705, -0.04561698, 0.05283369, -0.0151279345, -0.043408524, -0.08434318, -0.08139215, -0.069181025, 0.031154124, -0.08440366, 0.10471159, -0.08508005, -0.028688524, 0.103154585, -0.08143066, 0.016946703, -0.07509046, 0.08048608, -0.00853039, -0.06926346, 0.022802263, -0.10354774, -0.054359313, -0.05756109, 0.033247434, -0.026313383, 0.031555016, 0.07151009, 0.0062051797, 0.13879053, 0.029482013, -0.074556954, 0.0011262306, -0.06404155, 0.01328477, 0.12447027, -0.034321386, -0.041309297, -0.17181069, -0.12922738, 0.0051203663, 0.069486395, 0.090145186, 0.031306107, -0.09251015, -0.022908999, 0.110780455, -0.0010295361};


static const float weights_2[84][120] = {{0.12550406, 0.0777241, -0.1002244, 0.0075117266, -0.037313722, -0.13554603, -0.04113029, -0.07146697, 0.017145028, 0.16598186, -0.2800433, -0.06805274, -0.10092091, -0.107737176, 0.0039289347, 0.16464604, 0.23145665, -0.023571776, -0.014202798, 0.08790658, -0.053715, -0.0859792, 0.098991185, -0.060870625, -0.053044707, 0.022057872, 0.07300268, 0.063280955, 0.015146325, 0.002012557, 0.11761716, 0.1224344, 0.18173797, 0.04331226, 0.0034619018, -0.008460009, -0.12808599, 0.10240871, -0.10653015, 0.030326266, -0.024726216, -0.35796025, -0.10678106, 0.08337039, -0.09961629, -0.059060816, -0.116607696, 0.026042417, -0.23240204, -0.03658967, 0.084961966, 0.02783156, -0.049419854, 0.17390428, -0.05081152, -0.09690611, 0.18093872, 0.02955364, 0.07754369, 0.11970708, -0.039011724, -0.0545711, 0.012552248, -0.16842104, -0.08887207, -0.09106458, 0.11976019, 0.06454024, -0.0096233385, -0.039418943, 0.13278657, -0.04262514, -0.3053243, 0.14771926, 0.12064321, -0.12077543, 0.07934193, 0.010005618, -0.13716757, -0.07993199, 0.09869344, 0.09988899, 0.0005911233, 0.16254535, -0.0035379566, 0.03866015, -0.0011429094, -0.116398685, 0.09882376, 0.0048135417, 0.0873205, 0.0022812858, 0.1240972, 0.032964613, -0.05587323, -0.02025408, 0.21104856, -0.05601836, 0.14542736, -0.15144445, -0.12255514, 0.0933985, -0.0346721, -0.044510696, 0.09171036, -0.011093114, 0.0058297515, -0.08138393, -0.06852023, -0.010028805, -0.009193558, -0.07469914, 0.15061511, 0.038790435, 0.021898929, -0.039734874, 0.0212164, -0.08286981, 0.028854793, 0.041742697}, {-0.03087358, 0.011574812, 0.08733327, -0.326169, 0.08897897, 0.052443985, 0.02226113, 0.009901654, -0.02630069, -0.067147925, -0.06235641, 0.10965046, -0.21482491, -0.07173276, 0.03514411, 0.004942784, -0.09685088, 0.028002432, -0.025935803, -0.009484321, 0.2364187, 0.008109652, 0.05305874, 0.1767147, 0.0585423, 0.069476314, -0.020999419, -2.9720948e-05, 0.0010138081, -0.02947369, 0.027380658, -0.11194603, 0.036430232, 0.045154486, -0.05170776, 0.005732247, -0.15199488, -0.023273828, 0.05359848, 0.19299354, 0.02148944, 0.07547565, 0.072073, 0.13261674, 0.10890753, -0.066145904, 0.17554279, 0.01368667, 0.002869248, 0.08799147, 0.025098111, -0.031560946, 0.04381754, 0.03363494, 0.006574852, -0.06647262, -0.0940451, 0.014666466, 0.07511065, 0.124631956, 0.023353664, -0.1553467, 0.084057964, 0.21462715, -0.09676273, -0.00908588, 0.1534324, 0.032280486, 0.018715663, 0.06516635, -0.266649, -0.04393989, -0.06431499, 0.03570664, -0.037849925, -0.10013482, 0.16548969, -0.111830525, 0.048143912, -0.123249836, -0.10759961, -0.056707807, -0.04724188, 0.04633878, -0.05147804, -0.10398385, -0.14491284, 0.06579114, -0.04441042, 0.03491976, 0.09644098, 0.1015484, 0.08509564, 0.0045845555, -0.0019732183, 0.10733491, -0.0038966602, 0.18731174, -0.1347065, -0.16171911, -0.3262615, 0.078583114, 0.12454863, 0.14671153, 0.011656308, -0.020537578, -0.020092526, 0.15050568, 0.10908212, 0.0067697614, -0.10158613, 0.061040014, 0.13251504, -0.00020327623, 0.17924081, -0.03578962, 0.07572953, 0.02433579, -0.03726409, -0.061282378}, {-0.14480285, -0.024936292, -0.09140032, -0.10005678, -0.025675965, 0.048338734, 0.07580181, -0.019180726, -0.0017281964, -0.07989093, 0.05706322, -0.2780768, 0.10163439, -0.00030003715, 0.03373915, -0.15575692, 0.026562156, 0.04605431, 0.0048165172, -0.075098485, -0.012044741, 0.08552549, -0.076337256, 0.10603438, 0.020335725, 0.05550186, 0.0793736, 0.05700043, -0.048774257, -0.13469268, 0.07571833, -0.037936203, -0.100051716, -0.1547354, 0.12521335, 0.03424661, -0.09736072, 0.045289777, 0.23898385, 0.06577412, -0.031608913, 0.1301206, 0.1374495, -0.05972879, 0.08146925, 0.16260453, -0.010453168, 0.054404106, 0.07033701, 0.03230459, -0.10160785, -0.06250577, 0.08279611, 0.015765635, -0.030621443, 0.12171441, 0.079641424, -0.012175337, -0.025032831, 0.030074885, -0.13646083, 0.06234248, 0.038581688, 0.23624286, 0.12731281, -0.08229787, 0.14142969, 0.12194081, -0.07784293, 0.18987948, 0.14464872, -0.1339938, 0.3074255, -0.2404547, -0.017455112, 0.051769547, 0.08967157, 0.12685941, 0.09121698, 0.05774529, -0.1246963, -0.15901595, -0.07533089, 0.011103322, 0.030639583, 0.09875877, 0.077958286, 0.15415305, 0.075954236, 0.1790934, 0.040237293, -0.061758485, -0.13225254, -0.0073904763, -0.023733843, 0.01127401, -0.19770534, 0.0662422, -0.1486467, 0.11611497, 0.06716595, 0.10866968, 0.1787171, -0.0031779401, -0.030797787, 0.057839073, -0.034538668, -0.04196416, -0.0713785, -0.17512368, 0.08886756, -0.037154812, -0.1783164, 0.14815809, 0.006106649, 0.123439096, -0.051607065, 0.12291102, -0.036765695, 0.067600034}, {-0.113594316, -0.040963825, 0.05705004, -0.019498045, -0.07159544, -0.06257826, 0.09454686, -0.009229535, 0.024029652, 0.13763273, -0.057792857, 0.12672424, 0.009946814, 0.0010979228, -0.004604216, 0.106754445, -0.011669867, 0.0049664387, -0.031173864, -0.018504376, 0.059140377, -0.051228043, 0.104216605, 0.16108137, 0.017143346, 0.08173452, 0.0848635, 0.035927117, -0.06580703, 0.11888088, 0.043372605, -0.11827267, 0.10711219, 0.120148994, -0.16218545, 0.012049416, -0.07066676, 0.011714257, -0.03521369, -0.04111948, 0.085387625, 0.16322936, 0.011949113, 0.029442428, 0.026529249, -0.17477803, 0.17521209, -0.058254376, 0.030710325, -0.08092573, -0.086202756, -0.053080782, 0.03581622, -0.12737681, -0.10214013, 0.13720146, -0.07306006, 0.13625644, 0.1519402, -0.04992769, 0.06371422, -0.2576261, 0.081293084, -0.15269236, -0.24913536, -0.00032685813, -0.017694946, 0.056262676, 0.008291987, 0.017627409, -0.054722484, 0.024141133, -0.051241755, 0.13538654, -0.014921775, 0.0863391, 0.11834783, -0.21262005, 0.15513149, -0.088378884, -0.050079357, 0.11143166, -0.020506231, 0.11774084, -0.04859578, -0.097825184, 0.043208353, 0.0149848005, -0.030491153, -0.12996991, 0.059768178, 0.048653297, 0.09984406, -0.11967789, -0.0005863206, -0.024935182, 0.040117428, -0.07551606, -0.117698595, -0.0132409325, -0.22027133, 0.09473801, -0.0025101993, 0.15232502, -0.088725604, 0.062495556, 0.13729885, 0.24246849, 0.20413199, -0.045542695, 0.0094943745, -0.043561228, 0.11503812, 0.07262432, 0.019586924, -0.047960706, 0.056995597, -0.08684007, 0.055305485, -0.00010065402}, {0.1395079, 0.08086429, -0.012909493, 0.081448965, -0.23889016, -0.10961137, -0.07950807, -0.0009953576, -0.19724707, 0.09211681, -0.10568832, -0.10688616, 0.16915248, 0.101480074, 0.08059054, -0.13414262, -0.00865593, 0.06222828, 0.037783723, -0.019922914, -0.024338253, -0.06265775, -0.014095067, 0.15751773, -0.0019066305, -0.031092923, -0.0062746247, -0.061910693, -0.03283573, -0.039655868, -0.09601585, -0.019932158, -0.00074987026, 0.039954204, -0.04947968, -0.1216451, 0.2821203, 0.112834886, 0.03500771, -0.00159258, 0.05601494, 0.06632768, -0.0034834205, -0.26026216, -0.093230926, 0.1344107, -0.06038946, -0.013350694, 0.027712384, 0.021921827, -0.035935033, 0.032751333, -0.1151094, 0.12864712, 0.17363688, 0.038781174, -0.071713425, -0.006527742, -0.024721831, -0.09629575, -0.07907783, 0.12501077, -0.046724793, 0.074920416, -0.079558864, 0.023107432, -0.02550755, 0.004379733, -0.026292024, 0.036630448, -0.017965445, -0.13495956, 0.17476745, -0.06310172, 0.056046966, -0.10853786, -0.05569342, -0.005154171, 0.16174236, 0.091573685, 0.25159895, 0.08953254, -0.07874082, -0.030223826, 0.038769044, 0.050492175, 0.08948683, 0.19841737, -0.044939995, -0.027147323, -0.07827365, 0.005158765, -0.031613458, -0.16537231, -0.009515913, 0.0084026735, -0.051865056, -0.03575424, -0.13566959, 0.054125085, 0.1752387, -0.020551521, -0.11758572, -0.071369074, 0.004219471, -0.0023082208, -0.15312876, 0.11772242, -0.1917651, 0.00016932955, 0.091700226, 0.0054176934, -0.12645338, 0.10288817, -0.16412099, 0.07050073, 0.07158614, 0.083447225, 0.037981555, 0.09397828}, {0.015991228, 0.15741114, 0.010226414, 0.08953218, 0.0441497, 0.15385169, -0.016327545, 0.03953083, 0.03686959, 0.12715694, -0.10581767, -0.06213706, 0.09843804, 0.034121037, 0.023200171, -0.0689798, 0.035659086, -0.038582925, -0.080308095, 0.1233753, -0.046265047, 0.06349565, 0.113485806, -0.067563534, -0.1083429, 0.10056583, 0.022087196, -0.03861447, -0.010810665, -0.084964685, -0.021906408, 0.17183045, -0.02938748, 0.01845199, 0.093396686, -0.05311616, 0.0268638, -0.011277756, -0.06505428, -0.050326277, 0.06639853, -0.38545966, -0.044003468, -0.03261857, 0.034324788, -0.07556364, -0.14079425, 0.065202616, -0.030239422, 0.055477865, 0.028288236, 0.0045812633, -0.026651505, -0.06219886, -0.019056486, -0.03279649, 0.055259507, -0.01970378, -0.032235283, -0.011755728, 0.19008552, 0.123576835, -0.08703804, -0.07862147, 0.007265358, -0.05973722, 0.056622572, -0.010260978, 0.010375822, -0.18450104, 0.24522375, 0.009894556, -0.17314026, 0.100862175, 0.14844096, 0.12190068, 0.037883174, -0.020778347, 0.09128039, 0.00071775395, -0.06947473, -0.12385111, -0.07128936, -0.15977809, 0.027076202, 0.1212391, -0.13856217, 0.07615543, 0.053722672, -0.0044210064, -0.12336113, -0.055888783, 0.022878239, 0.17270306, 0.015689591, 0.03898901, 0.12841605, -0.19218445, 0.094498955, -0.10432761, -0.1323049, 0.0119253965, 0.08492157, 0.012491716, -0.039369978, 0.030446233, 0.106827505, -0.15424417, -0.14970793, -0.07266873, -0.034133453, 0.106033005, -0.22397624, -0.10843647, 0.021766732, 0.053322688, 0.09141417, 0.11198888, 0.12565273, 0.18558395}, {0.0023115878, -0.021983866, -0.14225635, -0.089313425, -0.102534406, -0.22481126, -0.015232072, -0.06266187, -0.08186537, 0.018301953, -0.036159053, -0.14649558, 0.126478, 0.04149924, -0.02287164, -0.054010987, 0.24442361, -0.08592285, 0.026103418, -0.11968025, -0.052883897, -0.048301484, 0.09310546, -0.05449358, -0.11399184, 0.14607882, 0.01594715, 0.108704485, -0.065311536, 0.09090435, -0.07878554, 0.11230422, 0.053046156, -0.03913792, 0.046430476, -0.07525587, 0.12146841, 0.017204223, 0.043472342, 0.17085671, -0.15971428, -0.021616092, 0.079222895, -0.05711839, 0.0109513905, 0.012000139, 0.0469136, -0.01917679, 0.057398997, 0.07191003, 0.112505354, 0.016258571, -0.06935933, -0.08566057, 0.20202488, -0.10890468, 0.070912935, -0.002042239, -0.02571029, 0.050044727, -0.104634225, 0.016474782, -0.06766996, 0.23980346, 0.10505738, -0.0052412436, -0.04769624, -0.019688083, 0.082506776, 0.14743659, -0.10134187, -0.07667633, 0.32742098, -0.21535091, -0.04257253, 0.02214787, -0.0282737, -0.15723607, 0.15266706, 0.08088861, 0.32368043, 0.17410661, 0.030850377, 0.17330736, -0.09406556, 0.033188596, -0.10389885, -0.094326146, 0.13731009, -0.0754732, 0.02197706, -0.020031042, -0.04408547, -0.12601268, 0.12039807, -0.22372685, -0.08362333, 0.065968536, 0.0771285, -0.12022291, 0.04355842, -0.0447705, -0.026364127, -0.16864878, 0.0061253407, -0.02900442, 0.022383673, 0.0046040947, -0.011052514, -0.1807804, -0.014421307, -0.09448792, 0.029261114, 0.027284868, -0.035547692, 0.098194376, 0.08340251, 0.07362653, 0.10288569, -0.01159028}, {-0.041217312, -0.011646133, -0.14778575, -0.089757174, 0.19499558, -0.04449097, 0.07805923, -0.04450792, -0.025110116, -0.072835535, -0.16015615, -0.19568984, -0.011048198, -0.083021924, -0.031788245, -0.026453631, 0.13661155, -0.011507972, 0.045888476, -0.11199434, -0.12190741, -0.13013457, 0.13709097, -0.066873, -0.09118823, 0.03723254, 0.03970664, 0.13234818, -0.00060642196, -0.093270436, -0.0074659726, 0.056576792, 0.1121161, 0.023201158, 0.00455033, -0.026672281, -0.11156382, -0.18489787, 0.15040222, 0.061337538, -0.19356494, -0.016165271, 0.04233022, 0.096723184, -0.10740585, -0.13024785, -0.043899342, 0.07126474, -0.029925134, -0.093734026, 0.06311169, 0.026498169, -0.024801912, 0.116077125, -0.21285084, 0.1657607, -0.08252598, -0.14587101, -0.092250235, 0.046084452, 0.11759107, -0.08172477, -0.019980667, -0.10918199, -0.1076804, -0.074509576, 0.020778162, 0.057577282, -0.04642859, -0.038955167, -0.05707809, -0.057153154, -0.02002555, -0.14264259, -0.031814445, -0.044309817, 0.068966165, -0.001965374, -0.010003181, -0.0494229, -0.022038063, 0.09363322, 0.029703425, 0.06341658, -0.04565754, -0.10053477, -0.26979485, -0.0028433404, -0.1254163, 0.020920735, -0.019310914, -0.014870313, -0.07335797, -0.16188256, 0.018411085, -0.14673728, 0.007254435, -0.043656312, -0.18409762, -0.20733419, 0.062448908, -0.008957125, -0.045578774, 0.15987591, -0.10640052, 0.15218747, -0.018936275, 0.13986367, 0.0070556914, -0.111881875, -0.03937924, -0.07884401, 0.027332358, 0.046769094, -0.22054291, -0.07238494, 0.026936654, -0.116057806, 0.02354367, 0.034186225}, {0.21830387, -0.08477624, 0.087846376, 0.03622843, -0.10394637, -0.058292508, 0.03223333, -0.0076623242, -0.13645145, 0.06639981, 0.088759035, 0.019803353, -0.034478996, 0.13160752, -0.07486284, 0.0287198, -0.20503592, -0.05208879, 0.033361882, 0.17065378, 0.09165462, 0.069060415, -0.056980196, 0.20615387, -0.072287776, 0.0386228, -0.061641898, 0.0772167, -0.050893024, 0.013983179, -0.021680735, 0.07056764, -0.06258435, -0.17862526, -0.02292451, -0.11653116, -0.14577973, -0.019091433, -0.24543618, 0.13026166, 0.14376058, -0.17219393, -0.013181636, 0.09709125, 0.021523627, -0.06295075, -0.058981072, -0.04208751, 0.027823338, -0.05831077, -0.039272726, 0.08936572, -0.0932394, -0.20105036, 0.12150043, -0.10105986, 0.07917659, -0.0014592896, 0.093914315, 0.06002442, 0.15948582, -0.24520332, 0.018211663, -0.06171813, -0.27469012, -0.069047384, 0.10879458, -0.029383875, 0.08842269, -0.022631258, -0.114089295, 0.17279105, -0.22271627, 0.07662547, 0.09303455, -0.089768976, 0.028327813, 0.01928352, 0.1564365, -0.15818238, 0.16148502, -0.201087, -0.013197655, -0.04324694, -0.0026404285, -0.0844692, -0.10899218, 0.24896006, -0.11096537, 0.040075306, 0.05003772, 0.034975436, 0.05393911, 0.17122471, 0.015309042, 0.11567305, -0.061689734, -0.15011227, -0.012754316, -0.1506165, 0.03153589, -0.021406842, -0.053928215, 0.06975105, 0.010786303, -0.119991444, -0.036905054, 0.079037994, -0.0845604, 0.24266581, -0.39048564, 0.047856573, -0.18620792, -0.007889185, 0.10353988, -0.17560157, -0.001136759, 0.07862962, -0.06363216, -0.13238396}, {0.096225075, 0.11139245, 0.13129297, 0.028209861, 0.15218014, -0.020445906, -0.022963127, -0.015719682, 0.01209912, 0.07811191, -0.02843483, 0.10011892, -0.12207748, 0.07440928, 0.039667048, 0.09538218, 0.06608563, 0.018714944, -0.049278207, 0.08497893, 0.2462729, 0.03965239, -0.10382596, 0.120189786, -0.02792227, 0.070386186, -0.058620498, -0.13648559, 0.04049588, -0.3025486, 0.01768293, 0.002656057, 0.023641145, 0.011844843, -0.25298265, -0.029731443, -0.16678175, 0.071186036, -0.16494122, -0.032019783, 0.11179003, 0.090030834, 0.0019563995, 0.09981968, 0.028971678, -0.004069657, 0.18572539, -0.02717916, -0.27090618, -0.074040845, -0.08156393, 0.061020095, 0.01640199, -0.009651172, 0.031003956, -0.05588886, -0.016712444, 0.027405262, 0.09008518, -0.015275173, -0.21013026, -0.026893118, -0.10267643, 0.13353275, 0.048055947, -0.08768471, 0.12450188, 0.08187775, -0.02503971, 0.015117082, -0.096392676, -0.09058256, -0.3396455, -0.005375783, -0.08164067, -0.09936394, 0.26121753, 0.03773086, -0.033333417, -0.16026379, -0.066206425, 0.0024814662, -0.019958297, 0.109080635, 0.09796558, 5.324398e-05, -0.028069662, 0.021367814, -0.0027719287, 0.11871027, 0.0075949496, -0.016663289, -0.044341154, 0.005998612, -0.016715802, 0.06325471, -0.02964882, 0.09120871, 0.17025419, 0.027836582, -0.41605172, -0.032823183, 0.028363828, 0.067373745, 0.097354986, -0.08964572, 0.023189796, -0.067273416, 0.04578051, -0.041401446, -0.18216093, 0.04024552, 0.36545444, 0.10648413, -9.980559e-05, 0.06997376, -0.049301382, 0.0021010898, -0.0816544, -0.01186325}, {-0.16936992, 0.10174715, -0.010552856, -0.012591412, -0.009538779, 0.12641206, -0.08208017, -0.07557088, 0.06558921, 0.06369322, 0.008091556, -0.04220332, 0.05689373, 0.15722772, 0.010584655, 0.02083591, -0.035427302, -0.045819223, 0.04312051, 0.0153855495, -0.06746727, 0.030630061, -0.04751069, -0.054708917, 0.054310463, 0.043190632, 0.04712812, -0.11209494, 0.04841888, -0.0938023, 0.09602927, 0.018895485, -0.21103948, 0.02963807, 0.030838074, -0.06447835, -0.0068457844, 0.0435472, 0.13021295, 0.032701112, 0.067543715, -0.15107061, -0.08896224, -0.18627141, -0.055981986, -0.044601735, -0.09090354, 0.04070792, 0.03302664, 0.13188553, -0.04724036, -0.060647987, -0.06624435, 0.2265165, 0.070757195, 0.054176316, 0.027301326, 0.021447662, -0.036918234, 0.02638521, -0.04461195, 0.28283277, -0.022155719, -0.006637254, 0.12373307, -0.025247846, 0.0036419367, 0.015164182, -0.032325633, 0.016720828, 0.11602467, 0.012261449, 0.22103596, -0.013436707, 0.06644343, 0.12944461, 0.04002608, 0.24039389, 0.041810352, 0.07284536, -0.09843027, -0.1480279, 0.010069718, -0.13342348, -0.045299113, -0.026507389, -0.038136292, 0.104868606, 0.1274376, 0.04265251, -0.17634954, -0.012389033, 0.008239254, -0.017469944, -0.00051001523, -0.117495365, 0.15632479, -0.19557159, 0.035868585, 0.03948082, -0.008942185, -0.025766997, 0.011822637, -0.08490704, -0.045146644, -0.07595101, -0.13182302, -0.10218048, -0.08033912, 0.016017806, 0.060872354, -0.004856837, -0.11726618, -0.06280549, 0.04922421, 0.15405633, 0.0029115744, 0.0012254547, -0.08789941, -0.04152415}, {0.045083586, -0.0025045169, -0.11276773, -0.11458464, 0.0023015016, -0.054167803, 0.02865047, 0.035361595, -0.09883415, -0.11887927, -0.117283754, -0.28888655, 0.1003254, -0.049030244, 0.008436137, 0.10100895, 0.11389563, 0.04282613, 0.044965692, -0.057359174, 0.08504214, -0.060177274, 0.018160617, -0.10078472, -0.103237174, 0.12470123, 0.087047, 0.11817138, -0.07299419, 0.095295936, -0.087019704, 0.09155121, 0.055078883, -0.07339391, 0.049569353, -0.011028025, 0.10301971, 0.07524085, 0.08548243, 0.2301697, -0.08014267, -0.062393308, 0.1776607, 0.037932817, 0.021003753, 0.04859235, -0.10333046, -0.04641883, 0.17775038, 0.03521146, 0.050864536, 0.062127918, 0.17956106, 0.07566266, 0.045868, -0.1592341, -0.0026726485, -0.017198293, -0.06441866, 0.013395281, -0.032232907, 0.12821671, -0.01679879, 0.12551312, 0.042547904, -0.040692728, 0.10922755, -0.024841322, -0.0836128, -0.02805037, -0.04792295, 0.122426644, 0.32647794, 0.06679254, -0.030989313, -0.13784353, -0.11168586, -0.084000945, 0.16648914, 0.08200212, 0.1614273, 0.11746795, -0.011946427, -0.011305511, -0.03930252, -0.062845096, 0.134129, -0.14514226, -0.041072734, -0.10034778, 0.012320497, 0.06374303, 0.059447438, -0.10164958, -0.012434354, -0.064310454, 0.06426824, 0.009385743, 0.040932685, -0.0075158277, 0.2855852, -0.018009728, 0.034819413, -0.05402176, 0.14469008, 0.2225918, 0.10235671, -0.14078045, -0.12269694, -0.16918239, 0.078927256, 0.067609645, -0.07571615, -0.053161494, 0.09335534, -0.0054902555, -0.060622092, -0.002570596, 0.11172555, 0.031865448}, {0.118168525, 0.08031703, 0.14248513, -0.052986037, -0.02865346, -0.14937508, -0.066162966, 0.015969455, 0.0012588919, 0.19559044, 0.02268119, 0.009689662, -0.0501897, 0.12961547, 0.005767191, -0.022044484, 0.08307477, -0.09522524, -0.017490132, -0.10735033, 0.14236037, -0.086195074, -0.068556696, -0.042054802, -0.04452813, -0.06907651, -0.030448811, -0.10212626, 0.1111673, -0.122978725, -0.020296527, 0.035136376, 0.029661996, 0.13884966, -0.071478665, -0.0979676, 0.08304895, 0.08664802, -0.20821217, -0.03374751, 0.07149832, 0.13307978, -0.061011124, -0.004123514, -0.08756469, -0.02974626, 0.08297464, 0.021512887, -0.23018125, -0.02987479, -0.08208408, -0.010561377, -0.009961502, 0.11531463, -0.089633614, 0.06579648, 0.07502013, 0.2227556, -0.020675432, -0.043409906, -0.22571822, 0.02249678, -0.075178236, -0.038633443, 0.012815255, 0.027169622, -0.043037653, -0.034374755, -0.023449814, 0.014131332, 0.07991189, -0.17398663, -0.118969485, -0.00077875314, -0.06652703, -0.16943775, 0.18830477, -0.10231091, -0.02693294, -0.021699592, 0.022390183, 0.14034049, 0.07836669, 0.12182309, -0.06244334, 0.090370476, 0.22163785, 0.080832325, -0.00043564488, -0.025109435, -0.040713586, -0.067021765, 0.00038990722, -0.028729636, -0.096588686, 0.06631384, -0.04399149, 0.087776735, 0.07967313, 0.038136996, -0.11869565, 0.04585082, 0.07584263, -0.09090847, 0.072966434, -0.16501129, -0.10327164, -0.0020154773, 0.030699117, 0.049698334, -0.034912348, 0.0033929867, 0.15497242, 0.04421548, -0.042917307, 0.103955716, -0.06110209, -0.11153889, -0.08426951, -0.1574114}, {-0.17173566, 0.06467737, 0.008556981, -0.27065507, 0.15732573, 0.14466918, 0.07197151, 0.09727702, 0.17675339, 0.01981901, -0.10758934, 0.0059262407, -0.24179779, -0.11616095, 0.06823791, -0.00817001, -0.10538248, -0.048138414, 0.059599373, -0.19436665, 0.07061226, -0.06495894, 0.12083616, 0.026660696, 0.12072107, 0.068918966, -0.03933774, 0.08043086, -0.060035538, 0.13467391, -0.11693346, 0.009980915, 0.007893533, -0.038393963, 0.057694886, 0.10446179, -0.14564809, -0.20051302, 0.1662218, -0.14338525, -0.070320986, -0.11180362, -0.013002143, -0.019944428, 0.007911517, 0.005919041, -0.018266391, -0.06989228, 0.12207625, 0.11012047, 0.0064992826, -0.02520673, 0.07152163, 0.013567013, -0.12773375, 0.06992011, -0.07183391, -0.2921855, 0.081757955, -0.043169245, -0.015291214, -0.033875585, 0.020438116, 0.04573652, -0.08844395, 0.0039320546, 0.009120269, 0.050847244, 0.025330393, -0.007638583, 0.12445074, -0.030129002, 0.15012372, -0.0009144434, 0.016962117, 0.11646741, -0.010972496, 0.057594594, -0.041835047, -0.0049196323, -0.1620719, -0.19037968, -0.029423188, -0.04674274, -0.023729745, -0.17234989, -0.1927033, -0.09101529, 0.02399054, -0.08002286, 0.103012584, -0.06888806, 0.11306452, -0.115265526, -0.11878441, 0.052954055, -0.037913866, -0.12326414, -0.15216374, -0.13848189, -0.22170539, 0.055210628, 0.1118914, 0.18010359, 0.009204021, 0.17840171, 0.09271456, -0.07452232, 0.093704745, -0.10688788, 0.10076613, -0.005561511, 0.031819742, -0.08360369, -0.009424716, 0.120788336, 0.04042377, -0.07058797, 0.012378226, 0.08661218}, {-0.15423779, 0.050126094, -0.034651957, 0.11157667, 0.05681246, 0.13094002, 0.09185325, -0.014765876, 0.039116275, -0.123576894, 0.10559961, 0.145123, 0.02747237, 0.04875832, 0.07765595, -0.09054536, -0.041482303, -0.054691333, -0.022358865, -0.05064165, 0.10268354, 0.01913889, -0.10440744, 0.1520016, 0.19739822, -0.064584434, 0.10926025, -0.03860936, -0.13036934, 0.053819623, 0.04321771, -0.2857284, -0.10028263, -0.05711713, -0.12656027, -0.00031284816, 0.046724513, 0.0117231915, -0.041901987, 0.035064425, -0.00047880644, 0.059060887, -0.045240898, 0.090877466, 0.032718692, 0.019415004, 0.12914482, 0.013352494, 0.094732694, 0.044419162, 0.019998826, 0.014415432, 0.13829547, -0.110663466, 0.045761548, 0.20798594, -0.0013468076, -0.123521686, -0.010794768, -0.040064935, 0.002214801, 0.005511012, 0.028666088, 0.013518948, -0.23083302, -0.059803538, -0.121531986, 0.070849456, -0.07130958, 0.017566703, -0.078721635, 0.12965229, -0.06536878, -0.007940848, -0.06770349, 0.1387658, -0.08644757, 0.022401607, 0.10860437, -0.012980301, -0.026964441, -0.010199267, -0.07286942, -0.034198806, 0.056130625, -0.070940286, -0.1830973, -0.026609836, -0.13926664, -0.10553925, -0.026050579, 0.024711778, 0.03100335, -0.028065655, 0.09881662, -0.028760035, -0.15073492, 0.044695638, -0.3222343, -0.022343118, -0.03831894, 0.090089805, 0.14384194, 0.12046267, -0.044335034, -0.12508531, 0.11500602, -0.026252106, 0.16155262, -0.015074413, 0.09177681, 0.023364369, -0.017269462, -0.07488761, 0.045639988, 0.1931568, 0.057543512, 0.09075239, -0.000954232, 0.045804076}, {-0.12500057, -0.051092394, -0.041968122, -0.030551516, 0.114779614, 0.022747448, 0.028153973, 0.080390565, -0.06514535, -0.044096418, -0.09694555, -0.24722861, -0.07467931, 0.0073657394, -0.018216476, -0.008157022, -0.093421996, 0.054204475, 0.008273711, -0.005183824, -0.12697674, 0.02213755, -0.10991433, -0.03939681, -0.022899332, 0.018204106, 0.02032774, -0.08149332, -0.056693673, 0.05403801, 0.025019567, 0.058115736, 0.060069177, -0.016219588, -0.06625048, -0.15215532, 0.06585522, 0.004677902, 0.078157365, -0.05745252, -0.12261436, 0.016515413, 0.01841168, -0.030757057, -0.0905881, -0.0029354768, -0.043297965, -0.043024674, -0.09869466, -0.14086139, -0.026812652, -0.030571036, -0.20118906, 0.013002807, 0.045581587, 0.021721115, 0.04529634, -0.028720614, -0.062255405, -0.015360496, -0.056467343, -0.04810618, 0.0110312365, 0.059949767, -0.03863625, -0.008504744, -0.001760358, -0.06503011, -0.026635215, -0.052598707, 0.036862355, -0.08274659, -0.034750655, -0.083390184, 0.037964184, 0.0029179244, -0.012886488, 0.049428314, -0.015164246, -0.032775383, -0.13489787, -0.016605528, -0.048957724, -0.078476414, 0.08771891, 0.003297594, -0.03516362, -0.022886781, 0.009459694, -0.056932624, -0.0797577, -0.056438264, -0.11178688, -0.052050054, 0.086481296, -0.08108192, -0.18022665, 0.025178934, -0.013907515, -0.111802734, 0.01692664, 0.049092997, -0.1230749, -0.039680935, 0.04061245, -0.19025429, -0.076522574, -0.16204467, -0.011622857, -0.08441252, -0.05397746, 0.035380315, -0.043890137, -0.08712572, -0.0798585, -0.14189027, 0.021771267, -0.026427887, -0.048869006, 0.04265349}, {-0.1102595, 0.08142925, -0.057445303, -0.004350682, 0.0571494, -0.114421755, 0.09352153, -0.037970062, 0.08715619, 0.11630374, -0.2844981, 0.013326453, -0.062877566, 0.17960986, 0.0031730738, 0.060240366, 0.19196798, -0.0048565366, -0.0035453953, -0.12341708, -0.012271968, 0.035891708, 0.112724826, 0.08977194, -0.041177366, 0.027999112, 0.056031644, 0.09990534, 0.14333159, -0.13397026, 0.07610697, 0.110593796, 0.10603691, 0.04681749, 0.043964766, -0.16789913, -0.15517923, -0.05617972, -0.08195574, -0.08359143, -0.11093197, 0.068282016, -0.13840759, 0.012956553, 0.069515735, 0.049873166, -0.088371724, 0.015180005, -0.13121006, -0.06049175, 0.002535389, 0.02956893, 0.02466149, 0.1653657, -0.17502952, -0.013928376, 0.035646085, -0.08060866, 0.024645505, 0.09390021, 0.118007, 0.09107574, 0.06493513, -0.12769221, -0.028716948, 0.06543426, 0.14241259, 0.121260844, 0.06709546, 0.1271221, 0.1267246, -0.13263586, 0.09133554, -0.09421512, 0.09320261, -0.042176727, 0.10750405, 0.18407126, 0.12013517, -0.13420679, -0.16793355, -0.04909893, 0.08774612, -0.042688645, -0.030996338, 0.041177217, -0.04590144, 0.04508916, 0.21247907, -0.010351797, -0.05217906, -0.02738186, 0.07582119, -0.037971456, -0.04632651, -0.07535665, 0.19902739, -0.13554095, 0.14569707, -0.07602719, -0.06432458, -0.086500354, 0.11408433, 0.038307235, -0.061455026, 0.048612613, 0.07071014, 0.045980293, -0.16759577, -0.10763836, 0.073492214, 0.050370462, 0.23645765, -0.03611752, -0.030883655, 0.0917017, 0.04524222, -0.1505915, -0.039690442, 0.053589597}, {-0.0064214827, -0.09378162, 0.09782024, 0.008739738, 0.045845613, -0.039520223, -0.063792326, -0.012237753, 0.15084156, 0.08679198, -0.09887656, -0.034289367, -0.06713933, -0.01447488, 0.06296578, 0.09326016, 0.03406465, 0.075191095, 0.06551436, 0.0072584394, 0.11443286, -0.019856185, 0.03553499, -0.068065, -0.02806509, 0.010633425, 0.011701349, -0.046107817, 0.0038131461, -0.06767963, 0.11603682, -0.012883213, -0.02655479, 0.018388478, -0.09818252, -0.08538896, -0.038101066, -0.025836108, 0.0707448, -0.095880084, 0.044498, -0.16217388, 0.010556998, -0.0075943605, -0.0729115, -0.086808555, 0.072532766, 0.0715504, -0.19445358, -0.15861802, -0.009309404, -0.032758832, -0.10822863, 0.30317295, -0.19744529, -0.111168355, -0.06130081, 0.017628156, 0.028016351, 0.049033288, -0.16321272, 0.13187544, 0.043802045, -0.05285712, 0.106134705, 0.093294695, 0.050984506, 0.008618394, -0.09997894, -0.09470854, 0.19303046, -0.026035309, -0.13397242, -0.035175506, 0.00997893, 0.08091826, 0.071996756, 0.19187565, -0.015985351, -0.14910163, -0.0888, 0.16492566, 0.0063569075, 0.1508794, 0.00947339, -0.068154395, 0.13229886, 0.18527678, 0.049290586, -0.02798217, 0.020246632, -0.008215299, -0.06615665, -0.07020881, 0.017295592, -0.045072798, 0.23880698, -0.026947074, 0.07130643, 0.059793346, 0.02762294, 0.12146169, -0.017257715, 0.035438977, 0.04245033, 0.027339837, -0.18981993, 0.07153089, 0.07099934, 0.08956981, -0.059334893, 0.052548245, 0.15207683, 0.066983454, -0.024042362, 0.04817493, -0.025743594, -0.10096119, 0.031356543, 0.17184289}, {0.008709797, -0.053810153, 0.035445396, 0.19014381, -0.012482349, 0.18722552, -0.13174137, 0.05062065, 0.13274775, -0.16544932, 0.058904517, 0.079963505, -0.03270635, -0.037165776, -0.042507187, -0.025350299, -0.036829382, 0.064415894, -0.02018056, 0.038245212, 0.026972877, -0.088087745, -0.032191567, 0.030925836, 0.003522544, -0.13392943, 0.043156285, 0.0018688622, -0.049351566, 0.12322332, -0.04405946, -0.1867407, -0.10418632, 0.04124543, -0.013171975, 0.07302106, -0.10054979, 0.15082438, -0.075999305, -0.12737553, 0.0048158783, 0.057082657, 0.13206533, 0.09310407, -0.078297295, -0.08309988, -0.036163576, -0.07653886, -0.032261174, -0.04652999, 0.034498096, -0.039335836, 0.0267192, 0.034993663, -0.018992951, 0.07964419, -0.042121433, -0.072001554, -0.002401557, -0.13298033, 0.0792968, -0.073408775, 0.017947158, -0.068718344, -0.06944145, 0.038657315, -0.019746162, -0.10458885, -0.05334036, 0.0048294994, -0.115787864, 0.018322911, -0.10095073, -0.03733249, -0.09204739, -0.0047037057, -0.15683763, 0.1437151, -0.111276485, -0.021063356, 0.027052684, 0.07833688, -0.058702197, 0.05626695, 0.03628964, -0.18008974, -0.022880089, -0.062475737, 0.0041455533, -0.03711344, -0.14410868, 0.056576602, -0.10587659, -0.072084315, 0.06226192, -0.023364162, 0.12542754, 0.030796802, -0.037381105, -0.111084424, 0.1710944, -0.051643435, -0.10857878, -0.103792295, 0.045209836, 0.06210816, -0.08622064, 0.08041617, 0.0429683, -0.0081258565, 0.026555078, 0.034009583, -0.092066124, -0.14363104, -0.10986513, 0.047693823, 0.007638439, -0.029492991, 0.035602503, 0.091388546}, {0.06905232, -0.10663819, 0.0015696324, 0.16871855, -0.1646467, 0.10292563, 0.04749323, -0.08423313, -0.039590854, -0.043075226, 0.17206442, 0.09875247, 0.037657175, -0.030253291, 0.008481869, -0.019611888, -0.15224664, 0.029536052, -0.06492972, -0.18090738, -0.04138843, 0.045722533, -0.09012345, 0.0018939119, -0.03986008, -0.17189334, -0.024437241, -0.025130624, -0.21228336, -0.012823438, -0.06767387, 0.024645077, 0.123925716, 0.015611027, 0.026530018, 0.021610199, -0.049435116, 0.054114323, -0.07637283, -0.1955584, 0.16854714, -0.059200726, 0.00744568, 0.08637368, 0.09513735, -0.16843638, -0.1934438, 0.04359397, 0.07287879, -0.11649891, -0.06241469, -0.08861683, 0.084824204, -0.025556717, 0.10667991, 0.21602586, -0.123715945, -0.12714742, -0.039820306, -0.116309755, 0.14312962, -0.13393041, -0.05463956, -0.10502397, -0.19302645, 0.070261344, -0.10688168, -0.15178826, 0.0039830883, -0.052680284, 0.022930754, -0.035600305, -0.086660445, 0.13490097, 0.028549911, 0.055664238, -0.23260029, 0.2924398, -0.1096277, -0.0064993026, 0.1730863, 0.060257662, 0.057181485, -0.05407372, 0.07912535, 0.024087004, 0.045695238, -0.040744968, -0.08075395, 0.095775716, 0.05454002, 0.058894504, 0.13841164, 0.03857661, -0.04927372, -0.10619561, 0.13649845, 0.041460674, -0.14139646, -0.08650955, 0.18471175, 0.014882681, -0.019491397, 0.008831559, -0.036254175, 0.059803065, 0.05139582, -8.542989e-05, 0.0028019098, 0.03711396, -0.019397557, 0.021583559, -0.29644865, -0.03869778, -0.014088535, -0.0076336474, 0.015660383, -0.069867924, -0.022596072, 0.13507374}, {-0.086756304, 0.112410374, 0.013339724, 0.15851095, -0.070237696, 0.1693993, 0.009132965, -0.014710728, -0.028699348, -0.0060801636, 0.106122576, -0.05015987, 0.029020196, 0.16811806, 0.041943204, -0.059159935, -0.029637637, 0.022577552, -0.088672355, -0.05553252, 0.047368646, -0.085675485, -0.12464316, -0.17096305, 0.06922371, 0.08576204, 0.083873905, 0.007573183, 0.041075926, -0.117199644, 0.0670949, -0.006115881, 0.02745895, 0.011296632, 0.054989338, 0.10337037, -0.121262394, -0.070181675, 0.012247416, -0.009224696, 0.04749113, 0.32024288, 0.14577061, 0.054788146, -0.013788759, 0.0994789, -0.042013835, -0.035047226, -0.062565655, 0.11592766, -0.018014591, -0.019333402, 0.046755448, -0.19148211, -0.16937213, -0.05917851, -0.04350484, 0.1025562, 0.05665828, 0.10507747, -0.06450157, -0.12358012, -0.038872816, 0.26280755, 0.16502778, 0.040678445, -0.06723271, 0.083129555, 0.10479715, 0.14764172, 0.05799559, -0.06651727, 0.16279286, -0.084766716, -0.056301862, 0.026982067, 0.14339161, 0.119586326, 0.0013582674, 0.05886744, -0.05465626, 0.031958174, 0.07146062, 0.1227911, 0.007856906, 0.091031514, 0.13742073, -0.1371131, 0.024775473, 0.15623866, -0.053866774, -0.046518687, -0.08230372, 0.05991762, 0.018417485, 0.08609405, -0.11077163, -0.086133465, 0.09418177, 0.23669025, 0.17404656, 0.04266538, -0.044713832, -0.065225445, 0.024828414, -0.0155455535, -0.045560997, 0.1480498, 0.21441214, -0.15748465, -0.019810122, 0.012357527, -0.14716561, 0.16334456, 0.118866794, 0.13077788, -0.060890283, 0.046862055, 0.08269644, 0.1511727}, {0.00039477146, -0.07819917, 0.03436854, -0.17916523, -0.06525326, -0.15146866, 0.070414625, -0.067043014, -0.083265364, -0.16064633, -0.028058639, -0.05941096, 0.030360142, -0.13441975, 0.07204454, 0.10995701, 0.02240703, 0.027426891, 0.055050667, -0.09251547, -0.10059892, -0.0044243536, 0.093664154, -0.035935406, -0.051843293, 0.012366741, 0.071481116, 0.055361945, 0.009961098, 0.013861507, -0.089496545, -0.04779047, 0.019800892, -0.0074536935, 0.014788625, -0.099765815, -0.07289832, -0.03927928, 0.10454964, 0.052418683, -0.27118677, -0.027936263, 0.057654478, -0.1439573, -0.094233304, 0.044000436, 0.075147025, 0.064647056, 0.06873728, -0.024723954, 0.14258485, -0.05078301, -0.02798702, 0.064991035, 0.04499641, 0.11996691, -0.02299827, -0.084451444, -0.04889276, 0.09787831, -0.033121653, 0.18667167, 0.035161573, 0.0463627, 0.04072052, -0.054636553, -0.06842669, -0.03112251, -0.017602628, 0.0039991736, -0.19620796, -0.12297211, 0.21009609, -0.22738223, -0.036825154, 0.0629852, -0.03594853, -0.03215041, 0.111363314, 0.09533737, 0.053592954, -0.09520555, -0.037169963, 0.16985106, -0.06422051, 0.11650379, 0.13440765, 0.08096453, 0.08122226, -0.1331345, 0.09682907, -0.052622564, -0.08665186, -0.012647084, 0.1477247, -0.18200207, -0.1508808, 0.16778737, -0.12510078, 0.057229873, 0.060316734, 0.042697936, 0.020238113, 0.025838485, 0.02862304, 0.11701858, 0.08241243, 0.023867372, 0.043139838, -0.0001388479, 0.03957362, -0.031243125, -0.020432625, 0.14681426, -0.32881212, 0.013742217, 0.08690642, 0.06913067, -0.06943216, -0.017367616}, {0.16583611, 0.10851416, -0.020181578, -0.04091933, 0.11011033, 0.1875158, 0.12778772, 0.08290184, 0.14012364, 0.012952157, -0.15166576, -0.018247275, -0.09020616, -0.03302151, 0.04743099, 0.116528355, -0.013131477, -0.057518322, -0.032708928, -0.2424128, -0.089288466, -0.09238501, 0.07462023, -0.19765097, 0.037723, -0.05149878, 0.012628014, 0.036559667, -0.16754451, 0.19544937, 0.09562274, 0.083218925, 0.11907034, 0.02482798, 0.12686555, 0.09817871, -0.1405253, -0.0058636037, 0.08399689, -0.0826319, -0.040724147, -0.03076368, -0.048279088, 0.020884214, 0.13028324, 0.036233496, 0.0022208039, -0.036544412, 0.0691383, -0.071999036, -0.022751303, 0.09266152, 0.053893283, -0.08546671, 0.040642686, 0.16911842, 0.024282672, -0.037476797, 0.040260874, -0.08333224, 0.031828076, -0.088110805, 0.09627479, 0.025795875, 0.026542366, -0.020879548, -0.04866805, -0.08349633, -0.060800575, -0.025484558, 0.103729375, -0.13753726, 0.013586883, 0.020929132, -0.024944449, 0.07433372, 0.026249567, -0.06391176, -0.078260496, 0.03672708, -0.017426845, 0.119106956, 0.06265289, -0.022621257, -0.022241777, -0.068099424, 0.07123903, -0.1652674, 0.033964936, 0.062112834, -0.05054027, 0.00957624, 0.031623278, -0.13076031, -0.0164849, 0.055135604, 0.108990595, 0.0393468, 0.094658844, 0.15386488, -0.073789544, -0.03501965, 0.039827038, 0.012830589, 0.0049408204, 0.2604528, 0.025855985, 0.11422186, -0.02511855, -0.06471024, 0.089773424, 0.03290875, -0.05127293, -0.10805708, -0.0005385836, -0.014431706, -0.010738256, -0.09807417, 0.0043806382, 0.008833544}, {-0.09178165, -0.07291669, -0.0014623286, 0.019257098, -0.123292744, 0.0008018749, -0.09235035, -0.080108434, 0.0022280246, -0.043573555, 0.006587957, -0.08838423, 0.034433, -0.061744366, -0.039700005, -0.117397495, -0.06834145, 0.074142694, -0.012419709, -0.13857773, -0.13406444, -0.021156125, -0.06557187, 0.023053229, 0.008855589, -0.0913727, -0.07112887, -0.15129672, -0.025867635, -0.03586128, 0.034227878, -0.12299694, -0.08525862, -0.033885717, 0.031965293, 0.06122029, -0.0660102, 0.008604002, -0.06594826, -0.020638222, 0.0113531, 0.012199288, -0.055107623, -0.11660781, 0.060434844, 0.008384689, 0.06509374, -0.07503455, -0.042482216, -0.1362154, -0.0035286169, -0.052423276, 0.03078614, 0.02197486, -0.08881475, 0.048041478, -0.06536129, 0.06730581, -0.011835694, -0.049502, -0.041458208, 0.064621575, -0.04089151, -0.09609221, -0.06396805, -0.07482547, 0.00026369703, -0.086476065, -0.058950003, -0.06462302, 0.08102198, 0.03311781, -0.012557056, -0.13460967, 0.016594276, 0.044333942, 0.029590687, -0.12544864, -0.087767564, -0.10244793, 0.03272713, 0.025408546, 0.03212037, -0.062343277, 0.022213796, -0.101774335, -0.062229868, 0.03853253, 0.013375369, 0.03299106, -0.049323037, -0.06141115, -0.08840129, -0.024555888, -0.028774813, 0.010061171, 0.064173296, -0.1438018, 0.018952595, -0.004124177, -0.0036970861, -0.062102117, -0.13426377, -0.1104169, -0.03299354, -0.18970008, -0.066705495, -0.060789585, -0.0553146, -0.008607856, -0.11472474, -0.038031474, -0.06319983, -0.026214736, -0.14162934, -0.14786111, 0.010844748, -0.12196262, -0.023019098, -0.056551572}, {-0.031183934, 0.03523012, 0.0016075593, -0.0058125565, -0.08336297, -0.10575088, 0.02938841, 0.001957383, 0.0044802665, -0.10909584, -0.03659398, -0.06080909, 0.0039641815, -0.09883294, 0.011348054, -0.09266037, -0.010076007, -0.07059941, 0.013139758, 0.08385581, -0.015601324, -0.046523876, -0.059172146, -0.10094499, 0.070536606, -0.06324706, 0.031465895, -0.123842984, -0.028333513, 0.0129313925, -0.031871337, 0.024100566, 0.026294915, -0.06339283, -0.0254348, -0.100028105, 0.043645684, -0.07372051, -0.02193745, 0.02597606, 0.0044610705, 0.009049143, 0.025762321, -0.019605473, 0.032916915, 0.056888774, 0.04010932, -0.05705666, 0.0032311103, -0.10117443, 0.033092607, 0.05324736, 0.0024672323, 0.006234559, -0.09653086, -0.073868886, 0.00054270704, 0.05778273, -0.041391436, -0.0537211, 0.002370023, -0.039762255, 0.015545268, -0.04962181, -0.084014185, 0.04850488, -0.05771932, 0.026154976, 0.015916137, -0.02339554, -0.0222498, -0.06404314, 0.018640885, 0.03416872, -0.07561689, -0.15403682, -0.08005649, -0.026376989, 0.010699213, -0.045722596, 0.044503834, -0.017969154, -0.020743502, 0.002365876, -0.07311689, -0.058130406, 0.043076664, -0.01794602, -0.0934046, 0.0377852, -0.01663374, -0.07554496, -0.020733574, -0.08378765, 0.00058210274, -0.095361404, -0.13710555, -0.06257972, -0.028406188, 0.022551121, 0.011885698, -0.037806336, -0.13427754, -0.068434775, 0.026465924, -0.058484882, 0.031676825, -0.11502904, -0.12660567, -0.038419817, -0.0656373, 0.0088130925, -0.047153, -0.047424786, -0.007187515, 0.024226142, -0.028607048, -0.06285578, -0.11997491, 0.035097044}, {-0.037619554, 0.15322103, 0.06086902, 0.1996049, -0.0074613634, 0.09748425, -0.033515554, 0.047326952, 0.0035104533, 0.17598327, -0.11344105, -0.25058636, 0.10766797, 0.10558392, 0.047235493, -0.0429024, -0.016522598, 0.0559662, -0.0027131047, -0.21595159, -0.1255769, -0.038283315, -0.030296303, -0.25830606, -0.01901567, -0.0012246877, 0.026852293, -0.009170304, 0.019546596, -0.07875507, 0.13084164, 0.03774128, 0.13825308, 0.07649796, 0.066911645, -0.031157237, -0.11497698, 0.09972179, -0.077408776, -0.22765757, 0.16439058, -0.12857586, -0.043237075, 0.013102431, 0.14184876, 0.04571099, -0.049186584, -0.00399894, -0.025034029, -0.04135913, -0.16079757, 0.04938474, 0.008686432, -0.08597969, 0.116826214, 0.16121191, 0.15037291, 0.011439405, 0.0021012255, -0.121938944, 0.076109625, -0.13762316, 0.028033298, -0.12113494, 0.13187131, -0.007311497, 0.07244122, -0.027116736, 0.07820915, -0.01214471, 0.2865168, -0.10386846, -0.049112793, 0.11934799, 0.08782734, -0.030964145, 0.00723592, 0.21145958, 0.08964235, 0.05873846, -0.06720319, 0.20839587, 0.012047785, 0.057545517, 0.019383114, 0.06649287, -0.022657704, -0.120910525, -0.07745155, 0.13047886, -0.109679714, -0.0712694, 0.18087901, -0.07596039, 0.00774995, 0.11931179, 0.1061624, -0.2641627, 0.07142848, 0.042515595, -0.02880966, 0.078083046, 0.09278868, -0.09613878, -0.07780806, -0.053995803, -0.03668403, -0.06368892, -0.0028027892, 0.018544583, -0.10721614, 0.019756787, -0.04327019, -0.067181185, 0.08207408, 0.1493433, -0.005863235, -0.08664282, 0.06546887, 0.0296172}, {0.1772559, -0.016548174, 0.06524128, -0.08089282, 0.07685929, -0.103041485, -0.017120052, 0.04745277, 0.021904696, -0.034064148, 0.02253562, -0.06985719, -0.14263, 0.051488288, -0.01867846, -0.071432054, -0.034952946, 0.041956484, 0.09965085, 0.12602088, 0.07073847, -0.06017997, -0.07109737, -0.036075473, 0.09218909, -0.052898977, -0.075946964, -0.046906173, 0.06699204, -0.16829476, 0.025431234, 0.102462776, -0.04155451, 0.09564034, -0.061369035, 0.12058902, -0.24791901, 0.21661292, -0.103946306, 0.08825855, 0.08870855, -0.1520589, -0.012138675, 0.16529837, -0.086438686, 0.055126864, 0.0771032, -0.03400887, 0.079414785, 0.058951378, 0.024339408, 0.063887075, -0.060864374, -0.0194078, -0.10622966, -0.04752799, 0.0565301, 0.017656513, 0.13450335, 0.09360908, -0.07965282, -0.05384241, -0.067615904, 0.1504098, 0.12834378, -0.031540573, 0.1299105, -0.06159827, 0.11169233, -0.018434446, -0.14845735, -0.0014873695, -0.15708427, -0.02480511, 0.002462823, -0.18967876, 0.04389892, 0.015256317, -0.0069414065, 0.02002411, -0.042480636, -0.073969334, -0.05431566, 0.07553552, 0.033967536, -0.07566318, 0.11623296, 0.04183261, -0.18150331, 0.08448331, 0.09897181, -0.06551404, 0.014668415, 0.17042808, -0.0051797954, 0.13389541, -0.06606188, 0.036951885, 0.19973463, -0.005979415, 0.06660156, -0.021636577, 0.005931267, -0.14292394, 0.12799467, -0.0058873165, -0.16039176, -0.14274523, 0.035527773, 0.043396898, -0.20311226, 0.058514103, 0.032284413, 0.115299284, 0.08510566, -0.12033228, 0.06463311, 0.055332538, 0.039463714, -0.046740707}, {-0.17257506, -0.1058553, 0.10257518, -0.05561872, -0.0039785034, -0.13306786, 0.09433305, -0.0022977756, -0.041609388, -0.058726106, -0.12904571, -0.04042756, -0.069302574, 0.060864795, 0.02079795, -0.012307636, -0.017612232, 0.08807248, 0.04310117, -0.09225169, -0.022139601, 0.019420307, 0.035843093, 0.20698473, -0.00750608, 0.0035302283, -0.043645803, 0.0045877993, 0.052687913, 0.20857938, 0.09721548, 0.07719693, 0.02532091, 0.053948645, 0.06907565, -0.13562363, -0.09785783, 0.048848312, 0.021887247, 0.012381722, -0.039273597, 0.019452106, -0.12681596, -0.05504955, 0.09977484, -0.11541119, -0.06902491, 0.030064996, 0.044639908, -0.0736486, -0.09122041, -0.03286592, 0.04050284, -0.10207169, 0.051986948, 0.19167072, -0.023483146, 0.065508254, 0.018636923, -0.0105937105, 9.025035e-05, -0.32143855, 0.08089288, -0.14891957, -0.111162096, -0.08768219, 0.03842222, -0.029561823, -0.044952516, 0.12778342, -0.06311499, 0.070687674, 0.061051432, 0.079032585, 0.18740727, 0.049154796, -0.013170672, -0.077363595, 0.08044736, -0.14079596, -0.13860212, 0.18441395, 0.07592778, -0.006500727, 0.022980675, -0.04707393, -0.14779094, -0.05426422, 0.08888154, -0.100808844, 0.08407957, 0.04720434, 0.2216722, -0.033282228, -0.056638934, -0.072246075, 0.06502315, -0.12133639, -0.14825842, -0.16978459, -0.049352854, -0.028478624, 0.06770227, 0.19405203, -0.0031141753, -0.045781966, -0.0061706253, 0.23100233, 0.0393046, 0.082248665, 0.08049368, 0.023178706, -0.0962835, -0.055094004, 0.021502616, 0.06221405, 0.045617033, 0.018628085, -0.040802248, -0.024518522}, {-0.1036822, 0.13129559, -0.10279208, 0.005392324, -0.019694708, 0.11995093, -0.07206999, 0.076702274, -0.06157378, 0.0897299, 0.037762657, -0.035468858, -0.116257034, -0.03539908, -0.055854235, -0.009002344, 0.04025767, -0.04953422, -0.0047067227, -0.069302894, -0.2864255, -0.05503359, 0.10932854, -0.22953986, 0.009985698, 0.07110426, -0.024368992, 0.14355572, -0.06674641, 0.07588147, -0.093241826, 0.25433755, 0.0042266618, -0.12656197, 0.15280434, 0.070312075, -0.0806383, 0.014686824, 0.23700066, -0.12329196, -0.1177454, -0.16191916, -0.17615697, -0.08106339, 0.056063283, -0.12841704, -0.06503716, -0.020269945, 0.009800672, 0.07802058, 0.024368132, -0.027437193, -0.11120824, 0.06893325, 0.17584531, 0.10043447, 0.10923568, -0.062409084, 0.033713233, -0.0666224, 0.070850685, 0.09906639, 0.026435416, 0.06841291, 0.2153946, 0.060815845, 0.033025358, 0.03523795, -0.02923854, 0.074778154, 0.29420435, 0.03502443, 0.13801485, -0.023284674, 0.09093381, 0.027558235, -0.055114634, 0.043544814, 0.100145735, 0.12189482, -0.22210814, -0.08180658, 0.056443796, -0.077685885, 0.09889032, 0.13221844, -0.20699404, -0.06866719, 0.106186904, 0.014831615, -0.1987759, 0.055610977, 0.038067646, -0.057497088, 0.072791405, -0.17122667, -0.06543743, 0.037661847, 0.054226737, -0.09965901, -0.23538335, 0.026524806, 0.0564084, 0.10632777, 0.119921304, 0.12946685, -0.013522771, -0.2348562, 0.073808536, -0.016526025, 0.018949239, 0.11236059, -0.10415368, -0.044072296, 0.037677456, 0.026340256, 0.060253665, 0.14978631, 0.1163081, -0.032674883}, {0.112881124, -0.047077093, -0.104424424, 0.08647402, -0.060833212, 0.02464584, -0.080658115, -0.05449108, -0.10213853, -0.085354745, -0.247373, -0.053015485, 0.07408118, -0.015678182, 0.08821565, 0.02430863, -0.118031584, -0.027356748, -0.01385618, -0.08791257, -0.12238313, 0.08841425, -0.0034099717, -0.017110407, -0.09123753, -0.052831315, 0.063037865, 0.04125929, -0.09758183, 0.07864978, -0.15206203, 0.04202028, 0.1639605, -0.09244014, -0.025435317, -0.11542286, 0.30447686, 0.0569562, 0.0043396, -0.10149231, 0.027694969, -0.13855936, 0.121049725, -0.15923144, 0.007939445, -0.03243311, -0.10386412, -0.03319484, -0.09918916, 0.02252628, 0.075695895, 0.051612385, -0.064903975, -0.09110563, 0.1445698, 0.008674014, 0.047328815, -0.17643453, -0.039194997, -0.126744, 0.19800834, -0.06592999, -0.0823532, 0.050382722, -0.102689825, 0.08502503, 0.04079182, 0.049797248, 0.017157616, 0.121076256, -0.08295643, -0.023164773, -0.13006496, 0.1304371, 0.09795373, -0.12670667, -0.10665491, -0.17283398, -0.020575894, -0.12640263, 0.1172335, 0.13323727, -0.042212278, -0.10398387, -0.06682838, -0.12168017, -0.19268769, -0.24891794, 0.031964984, -0.20157008, 0.010017253, 0.008388412, -0.024661012, -0.11387613, 0.032093965, -0.14854561, -0.045079693, -0.10500374, 0.10386252, -0.090995975, -0.07360383, -0.049533576, 0.09362461, -0.032181773, -0.042274386, 0.08174812, -0.0141226025, 0.022822658, -0.16787216, -0.05441433, -0.07341146, -0.037174243, 0.00626415, -0.06311465, 0.05531093, -0.1623145, 0.030548446, -0.12518318, -0.033490486, -0.026040578}, {-0.119935215, -0.059019726, -0.06095954, -0.05078789, -0.06277747, -0.02648127, -0.126344, 0.048868768, 0.052554674, -0.022346465, -0.061860643, 0.12100426, -0.045273382, -0.0027519874, -0.07653055, -0.0719227, -0.011450791, -0.068458915, -0.076392986, 0.18952039, 0.03586142, 0.016692216, -0.21142492, 0.110042885, 0.0062620468, 0.064678974, 0.07433328, -0.22692426, -0.08967696, -0.09663804, 0.13046218, -0.024663266, -0.022133794, -0.15915978, 0.0061231805, -0.32842606, 0.0633051, -0.13430043, -0.26333287, 0.012611013, 0.0493856, 0.13484398, 0.05868969, -0.11931333, -0.049230378, -0.02498043, 0.0064906287, 0.017558089, -0.1492605, 0.09219657, 0.0037573976, -0.069750294, -0.15639842, 0.12890986, 0.07493138, -0.080768496, -0.007974962, 0.16330808, 0.08680213, -0.15623371, -0.29793888, 0.14839849, 0.08820818, 0.049281705, 0.18135282, -0.08328438, -0.11093923, 0.032909475, 0.011013339, -0.04198461, -0.11555292, 0.13768834, 0.13420825, -0.06915732, 0.053034857, -0.08476628, 0.058905784, 0.09821159, 0.010469162, -0.077434406, -0.09028623, -0.16600533, -0.07764664, -0.069733635, 0.0999208, 0.07548204, 0.22034842, 0.23436685, 0.096213184, 0.059164304, -0.12931202, -0.06262796, -0.060536414, 0.05765716, 0.07375542, 0.035161935, 0.082178056, -0.066254325, 0.062688306, 0.02485459, -0.015262248, 0.04877169, -0.016452372, -0.1379933, 0.034724478, -0.27482164, -0.17320532, -0.016861195, -0.059871532, 0.051929906, 0.038210016, 0.027903918, 0.14581116, 0.10084697, -0.055421114, 0.059526134, -0.0015170956, 0.040655598, -0.15605749, -0.102648064}, {-0.02398213, -0.018614274, 0.08680154, -0.025664302, 0.1386531, 0.06797081, 0.08728558, -0.025805984, 0.052967023, 0.13886711, 0.009919489, 0.05265449, -0.14639567, 0.15215597, 0.011408775, 0.10816662, -0.07305754, -0.059431218, 0.0341869, 0.14661986, -0.004034238, -0.056667414, -0.03826254, 0.043098364, 0.067834854, -0.0160818, -0.035712317, 0.086347975, 0.13929495, -0.30162588, 0.04305784, 0.010454132, -0.09970868, -0.11149704, -0.02513644, -0.09550373, 0.058934674, 0.09753823, 0.16545014, 0.012600044, -0.004279671, 0.0049521048, 0.0070396448, 0.12127292, 0.011295982, 0.08328454, 0.028968383, -0.011658142, -0.06375455, 0.08973078, -0.0076477434, -0.010734875, -0.020249926, 0.0128687695, -0.21480685, -0.13409431, 0.08528041, -0.07729151, 0.10309923, 0.102815546, -0.08699903, -0.063621625, 0.079305924, -0.06375603, 0.12498769, -0.027031684, 0.08759251, 0.14651705, -0.013453137, 0.16226378, 0.18925582, 0.056914184, -0.111627206, -0.043134317, 0.023286795, -0.07782051, 0.090367295, 0.14165153, 0.045142904, -0.07569721, -0.1881165, -0.30507913, 0.057546344, -0.1270087, -0.019069554, -0.02919212, 0.041893102, 0.12586798, -0.023868604, 0.23272938, -0.1205548, 0.03543374, 0.027465923, 0.11936054, 0.018408017, 0.0081439335, 0.068936214, -0.03541352, -0.0115683945, 0.05337289, -0.18030962, -0.13126011, 0.06268994, -0.016861428, 0.002165705, -0.15018745, -0.056657843, -0.08370685, -0.030428393, -0.05340678, 0.025613936, -0.009068051, 0.0664042, -0.080515504, 0.06513696, 0.012513431, 0.0075316993, -0.004285586, -0.01120748, 0.0100942645}, {0.02596118, 0.11502326, -0.20148668, -0.22159879, 0.0149123445, -0.13323952, 0.030883593, 0.047182865, -0.1118935, -0.13721107, 0.046954088, -0.09150083, 0.10648355, -0.0763453, 0.06361586, 0.12433875, 0.08860829, -0.03967953, -0.077162586, -0.05223544, 0.059792195, -0.030897781, -0.08501503, -0.06793522, 0.030337786, 0.004794514, -0.058147162, 0.12393069, -0.013155551, 0.009702427, 0.024022907, 0.15767455, 0.034728777, -0.06155289, 0.102701314, 0.18018411, 0.18592688, 0.043945506, 0.042775877, 0.21115635, -0.19538586, -0.14512984, 0.16243328, 0.02014117, -0.050271593, 0.050754722, -0.12038977, 0.012386961, 0.1763163, 0.15689173, 0.12697545, 0.059727028, 0.15382227, -0.001866763, 0.14666747, -0.13676147, 0.021415535, -0.05945609, 0.08236627, 0.10449639, 0.10617954, 0.22798558, -0.042562228, 0.27668104, 0.11231, 0.024923688, -0.05199636, -0.00082262617, -0.11370397, 0.22820172, -0.109232664, -0.016664183, 0.4234701, -0.025532454, -0.028691553, -0.021005554, -0.106487095, -0.23583068, -0.057311695, 0.17437787, 0.11745219, -0.050697777, -0.0072089233, 0.12632251, 0.0219346, 0.10733084, -0.06741388, -0.038790368, -0.089542046, 0.0016401418, 0.08899108, 0.036282487, -0.035326973, -0.06427776, -0.10814249, -0.008430582, 0.05637434, 0.11004748, 0.05102583, 0.09635626, 0.07753396, -0.034669526, -0.027854055, -0.08875175, -0.039029256, -0.025982626, -0.059034806, -0.27508238, -0.029310022, -0.15567279, 0.06151438, -0.01721494, -0.1398301, 0.061396956, 0.032943703, 0.031156672, 0.10182936, 0.016361991, 0.0756382, 0.06809077}, {0.07061079, 0.1583692, -0.051634327, -0.10694854, 0.06957987, 0.058714263, -0.044154253, -0.09273808, 0.103268795, -0.022932298, 0.056083266, -0.29812422, -0.09724534, 0.07985544, 0.08458659, -0.074329816, -0.06258515, 0.0049246857, 0.06868693, -0.12969863, -0.020723877, -0.011314437, -0.032461047, -0.2526024, -0.053252153, 0.06277089, -0.059356626, 0.084721506, -0.03760689, -0.06902819, -0.030430902, 0.119768776, 0.05066187, -0.020668205, 0.12253919, 0.029405553, -0.09013362, -0.042550802, 0.063863054, -0.1860241, 0.048429467, -0.09659999, 0.008478939, -0.11261321, 0.041740876, 0.0145149, 0.07745817, 0.07613438, -0.062226947, 0.0065183686, -0.15732047, -0.022370646, 0.10411414, 0.05207256, 0.022119313, 0.036272034, 0.12523654, -0.036596563, 0.037927642, 0.042881727, -0.10679729, -0.054307003, -0.07657248, -0.10825903, 0.08134966, -0.051759534, 0.15788768, -0.039361734, -0.05500017, -0.0035615854, 0.1479465, -0.0003357148, -0.135948, 0.0648957, -0.00927618, -0.111882485, 0.014589014, 0.05318408, 0.055708766, -0.065700494, -0.096623056, 0.036449727, -0.04774902, -0.04247059, -0.101976395, 0.04323546, 0.031098844, -0.015701305, 0.0074956655, 0.06831709, -0.0345265, 0.015804058, 0.086505584, 0.12117517, -0.031787723, 0.10324222, -0.12811355, -0.105498336, 0.11610326, -0.11026682, -0.031609736, -0.0045450157, 0.06403634, -0.14111179, 0.04661801, -0.01690921, -0.08771933, -0.18708433, 0.10867328, -0.027619021, -0.11422339, -0.07463087, -0.09881339, 0.070652306, 0.1561516, 0.03149379, -0.016204255, 0.047887605, -0.019170258, 0.01802862}, {-0.2505343, 0.024506642, -0.07032251, -0.1021082, -0.10002106, -0.16770007, 0.079179734, -0.06019558, 0.10213858, -0.13101076, 0.14972602, 0.13600272, -0.014247374, 0.06530213, -0.047057305, 0.013305686, 0.0064766402, -0.00036023633, 0.020090114, 0.16067144, 0.033150673, 0.025846379, -0.08031986, 0.18326344, -0.039636787, -0.05090968, 0.06843903, -0.099696465, 0.00027472732, -0.09192892, 0.13733114, -0.14539886, -0.096670315, -0.030274883, -0.009767921, -0.13410267, 0.085756876, -0.0038351002, 0.024050558, 0.061158683, -0.100138746, 0.01505431, 0.0695126, 0.16538154, -0.03993591, 0.051769134, 0.14717874, 0.026515374, -0.095966466, -0.013396937, 0.03432819, -0.05484298, -0.026457684, 0.011773193, -0.14578392, -0.00072041753, 0.065487996, 0.096777596, 0.09535836, 0.022915522, -0.0069227763, -0.018163303, -0.0034200035, 0.12034712, -0.0057552345, 0.0744651, 0.062818095, 0.031083997, -0.09942284, 0.021952603, -0.29898039, 0.07266987, -0.006432825, -0.09088825, -0.045861028, -0.03268147, 0.06251546, -0.057423037, 0.08523263, -0.053115975, 0.028598368, -0.28218898, -0.026193107, -0.04207534, -0.050742216, 0.05763063, 0.12654065, 0.13291523, -0.09753503, -0.035445545, 0.1194513, -0.004457366, -0.07404188, 0.06750392, 0.08093042, 0.04252979, -0.032969322, 0.0456908, -0.057890028, -0.02671549, 0.021912893, -0.029136015, 0.07414128, 0.06663792, 0.06723799, -0.10024759, -0.018984, 0.036383916, -0.058745928, -0.10388331, 0.05984311, -0.07033918, -0.03445746, 0.05734021, -0.08888871, -0.03864007, 0.06533083, -0.046924442, -0.04938589, 0.11438919}, {-0.20010279, 0.15697466, 0.03988463, -0.13081896, 0.064954445, 0.07483565, 0.079369724, 0.05743587, 0.07781617, -0.104089685, 0.060911726, -0.08676513, -0.055466205, 0.06905922, -0.054088194, -0.0053178193, -0.29115388, 0.027020678, 0.066349894, 0.0064322203, -0.09067069, -0.032512836, -0.025315845, 0.20546524, 0.011698976, 0.13773772, -0.040249866, -0.0005732269, -0.03760824, -0.012661504, 0.05566298, -0.023014424, -0.0022136816, 0.017774917, -0.063805364, 0.1149768, -0.040671546, -0.047541656, 0.18841173, 0.07604092, 0.011369836, 0.08369107, -0.07106109, 0.08994242, 0.10017502, -0.04334356, 0.07381078, 0.07266853, 0.1291074, -0.014839743, -0.12625551, -0.05686707, 0.19871737, -0.058243368, -0.044640895, 0.016706869, 0.04882037, -0.1136696, 0.0502574, 0.01510135, -0.037360664, -0.17394827, 0.031576265, 0.0005359459, -0.14323366, 0.041749865, 0.0987128, 0.071753845, -0.09693456, 0.097535044, 0.0048070415, 0.115065694, 0.08459861, -0.0520254, -0.0062476406, 0.072730534, 0.056948993, -0.019829925, 0.15837412, -0.108056314, -0.21896775, -0.112016484, -0.030558208, -0.07219887, 0.003407515, 0.05451183, -0.1314723, -0.016158879, 0.021214312, -0.05686094, 0.0040254877, 0.050582737, 0.06141455, -0.05748405, 0.03646104, 0.024569664, -0.096478, -0.03300026, -0.17585519, -0.065416805, -0.17882338, 0.04822706, 0.1781945, 0.12183937, 0.033661827, 0.10692393, 0.10745504, 0.050889958, -0.048509974, 0.009687313, -0.055068232, -0.053187568, -0.16583489, -0.012600644, 0.024674298, 0.15523547, 0.09483782, 0.12909219, 0.029602097, -0.019538522}, {-0.114679284, -0.04621175, -0.04464658, 0.3403937, -0.020109931, 0.16423163, 0.06909621, -0.051885117, 0.10417953, -0.011289344, 0.09533127, 0.03545624, 0.1802642, 0.1519471, -0.08335636, -0.07831278, -0.1954017, -0.010327812, 0.06300695, -0.059515957, 0.0017448647, 0.010798791, 0.03546238, -0.01635482, -0.05173345, -0.10830702, -0.006528287, -0.005521085, -0.024087306, 0.13860609, -0.027527096, 0.04860812, -0.03953539, -0.10815541, -0.07731836, 0.10833534, -0.08112794, 0.1422513, -0.099655375, -0.13625191, 0.23377694, 0.050489996, 0.15575887, 0.06724852, 0.116518825, -0.0095287915, -0.045940176, -0.07698475, 0.028133318, -0.04325527, -0.041587617, -0.06168391, 0.0019359795, -0.06335536, 0.06932926, 0.123990245, 0.050094996, -0.12344834, 0.033998396, -0.024463398, 0.065265276, -0.23474869, 0.092763044, -0.028648775, -0.2265632, -0.031045284, -0.10662283, 0.053791173, -0.023361843, 0.09872579, 0.22089866, -0.012082826, 0.014105302, 0.12683313, -0.04399792, 0.061015308, 0.010222735, 0.24168287, -0.14468431, 0.052576147, -0.014619068, 0.12729394, 0.030442027, 0.035697926, -0.023316419, -0.09484684, 0.017020432, -0.03713259, -0.13208628, 0.065910935, -0.117125906, 0.065664634, 0.1490103, 0.13011248, 0.08319108, 0.020500155, 0.13322388, -0.18308952, 0.0018636778, 0.04950878, 0.08499355, -0.058196716, -0.037584696, 0.06610045, -0.0009052411, -0.10268379, 0.0827741, 0.045593362, -0.040829364, 0.15246005, -0.06591975, -0.083416894, -0.12155467, -0.19788723, 0.08493619, 0.10544544, -0.060348503, 0.056548655, -0.023295136, 0.019544221}, {0.0068815704, -0.08686684, 0.042185977, -0.041420713, -0.039592914, -0.13496757, 0.084533736, -0.04240876, -0.033762645, -0.09117264, -0.03555548, -0.07298669, 0.07911547, -0.047131833, 0.008158284, 0.13429977, -0.0977092, -0.015938519, 0.06461441, -0.00924894, -0.0294131, -0.032883033, 0.011206987, 0.19865027, 0.062145967, -0.0023938809, 0.024754329, 0.027089048, -0.031304836, 0.11944821, 0.016610738, 0.08346207, -0.0154834585, -0.087884896, -0.0040249676, -0.071865655, 0.04525026, -0.09244928, -0.14167264, 0.0854768, 0.036954537, -0.07687378, -0.08305821, 0.113657884, 0.0691393, -0.23866855, -0.062322687, -0.08773134, 0.077143714, -0.072341904, -0.064826354, -0.03119667, -0.012940425, 0.07102997, 0.14326075, -0.049168956, -0.030401405, 0.11815193, 0.013033008, -0.037762098, 0.21698079, -0.29029787, 0.0054809777, -0.13756114, -0.27376577, 0.050315756, 0.037549365, -0.0012874235, 0.08701353, -0.09425827, -0.16735452, 0.15163039, -0.17563368, 0.029203178, 0.12802961, 0.039983645, -0.06404025, -0.07519017, 0.017494623, -0.17273308, 0.08798023, -0.077593714, -0.035672657, -0.06934489, -0.02563567, -0.11412204, -0.13429913, -0.15633829, -0.038676184, -0.014001427, -0.05909928, 0.0034722707, 0.10333027, -0.1437346, -0.06797777, -0.017628802, 0.10517446, -0.032837033, -0.017817557, -0.10323762, 0.00958587, -0.017602555, 0.020985406, 0.22916304, 0.063725635, -0.0019373731, 0.0067656697, 0.089762084, 0.0026685558, 0.14727978, -0.01201156, 0.058974966, -0.059569813, -0.23055702, 0.04842366, -0.11353794, -0.03745021, 0.011772924, 0.093527235, 0.07353647}, {-0.21337226, 0.02529283, 0.13587753, 0.01166774, -0.108037636, 0.14994466, 0.054723836, 0.07410801, 0.014261655, 0.13168867, 0.15371615, 0.07454508, 0.06882977, 0.05683392, 0.08251268, -0.052930713, -0.18251857, 0.04317654, -0.04814952, -0.056688298, -0.07239201, 0.007288258, -0.052907538, 0.18069606, 0.09363316, 0.057149313, 0.03820002, -0.14561798, 0.12557118, -0.08600149, -0.016238624, 0.006508923, -0.02564057, -0.012907672, -0.10409883, 0.025983917, 0.15833047, -0.032805905, 0.079520725, -0.12710136, 0.1797944, 0.28334555, 0.03020168, 0.0034172446, 0.042609658, 0.041674297, 0.040485762, 0.039340004, -0.049050707, -0.008923038, -0.14742464, -0.03265669, 0.031739593, -0.0001201587, 0.058330365, 0.25829273, -0.0901508, 0.03321356, 0.08454115, -0.080733076, -0.027686914, -0.17626312, 0.08526647, 0.003396811, -0.22332448, 0.061667483, -0.13358423, 0.069480404, 0.047358636, 0.15934797, 0.04585313, -0.0006463671, 0.25357988, 0.024118982, 0.008706843, 0.0070019313, 0.06898657, 0.10299183, 0.038411446, 0.0077501056, -0.12223368, -0.06340132, -0.04640157, -0.12505078, -0.069842555, -0.022168461, 0.053939413, 0.18363914, 0.01156281, 0.08069667, -0.18085167, -0.031750146, -0.019710608, 0.048990376, 0.028856505, 0.009598997, -0.0040848684, -0.22055559, -0.009456862, 0.056889478, -0.03572628, 0.10053662, 0.09875667, 0.1755894, 0.019756135, -0.09589527, 0.0030207133, 0.14519005, 0.04110756, -0.022707555, -0.12019308, -0.04622547, -0.09417648, -0.02263397, 0.052759692, 0.14428274, -0.025435453, 0.03062991, -0.17300068, 0.0309167}, {0.049947497, -0.1289284, -0.07366648, -0.14422181, 0.117790684, 0.026458085, -0.1029784, 0.08420017, -0.044595245, -0.023361197, -0.032290883, -0.0004402285, -0.030961737, -0.13044234, 0.0065365112, -0.14845426, -0.03144567, -0.077410765, 0.037029393, -0.107113265, 0.007522844, -0.06426428, -0.013292544, 0.0089783445, -0.06648273, -0.042918615, 0.0044506956, -0.12019319, -0.10693869, -0.083260104, 0.1654386, -0.2435297, -0.023453813, 0.023760948, -0.010702955, 0.26719397, -0.067786746, -0.021904157, 6.698663e-05, 0.112209536, -0.1923751, 0.12777166, -0.06423025, -0.0136073455, -0.10734674, -0.12969677, 0.010728175, -0.049847692, 0.03994164, -0.054428365, -0.11241736, 0.04352776, -0.009936807, 0.1599636, -0.0048036133, 0.0277852, -0.13792606, 0.06339697, 0.083245814, 0.028032912, -0.07381709, 0.1848361, 0.020680262, -0.064821616, -0.0076865717, 0.024200894, -0.14143555, -0.040769614, 0.025114384, -0.07033116, -0.1184463, -0.1052545, 0.043763302, 0.11955908, -0.25889388, -0.11217757, 0.04287294, 0.0073997667, -0.068416074, 0.0035848715, -0.11011511, -0.060811426, -0.05559898, -0.120844215, 0.06880453, -0.032949794, 0.021657526, 0.10945787, -0.09293861, -0.15322226, -0.122403786, 0.03033019, -0.13467155, -0.04434332, 0.13887224, 0.010098457, 0.153937, 0.07261681, -0.02547345, 0.11497671, 0.03564274, -0.08696963, -0.09518249, -0.03646917, 0.034013078, 0.026307672, 0.07620083, 0.11697772, -0.100068755, -0.0872786, -0.040720694, 0.032591905, 0.01983166, -0.090189375, -0.09677582, 0.055182584, 0.029319206, -0.17546722, -0.06596042, 0.034552906}, {0.15398312, -0.07079286, -0.01688229, 0.018811971, -0.15145347, 0.018259725, 0.003918865, 0.033193834, -0.09317888, 0.044609208, -0.18231755, -0.11366981, -0.0066117016, 0.06488912, -0.029880075, 0.09473272, -0.021334559, -0.044133816, 0.05837725, -0.0997863, -0.05333833, 0.09851094, -0.10918653, -0.19523263, -0.06760753, -0.04373663, 0.10428256, 0.03516371, -0.13485454, 0.3037332, -0.01574954, 0.09161053, -0.0044381544, -0.017165912, 0.14155264, 0.088259466, -0.014373397, 0.0055891196, -0.07140161, 0.059479564, 0.08322312, 0.03632108, 0.16524437, -0.12943712, 0.07671249, 0.03225971, 0.0661213, -0.047652297, 0.08896778, 0.052976836, 0.041819118, 0.015091012, 0.032283075, -0.04275365, 0.097747244, 0.0052145002, -0.026577475, 0.008810192, -0.012092523, 0.010820738, -0.00841173, 0.09377928, -0.06560599, 0.1604402, 0.10048566, -0.034257192, -0.10465558, -0.018520892, 0.018401671, 0.040772654, 0.033762414, -0.10927985, 0.31630957, 0.031825677, -0.047118597, 0.057540268, -0.09526443, -0.030694732, -0.011240515, -0.027421856, 0.03085156, 0.14701654, 0.077095374, 0.12866308, -0.05661258, 0.13701472, 0.0556167, -0.10463915, 0.054418504, -0.0898337, -0.099540375, 0.068187445, -0.004236025, 0.03558855, 0.07653329, -0.093136705, -0.0155897355, 0.071906276, -0.014862858, -0.0067691067, 0.22196257, -0.045412805, 0.03861638, -0.038243957, -0.054049313, -0.023138946, 0.013762165, 0.03871505, 0.080310464, -0.056497205, 0.014193074, 0.020184547, -0.09552263, -0.016927501, -0.027934024, 0.07888321, -0.0048476467, -0.12548858, 0.05366981, 0.06619137}, {0.010215611, -0.08811798, 0.032243136, -0.23100121, 0.031226816, -0.042976417, 0.09644362, 0.003353273, 0.06840612, 0.07754219, -0.04516635, -0.019578323, -0.0452366, 0.015592046, 0.057311483, 0.07191338, 0.045113057, -0.008721971, -0.091899894, -0.15021265, 0.094005294, -0.053694, 0.104385175, 0.1289417, -0.04546411, 0.13619332, -0.05763199, -0.00043111795, -0.005251802, -0.0071036643, 0.04954964, -0.032538872, 0.02213294, 0.05310064, 0.029404158, 0.1029781, -0.11814973, 0.01783971, -0.016522137, -0.0411202, 0.019845748, 0.10803387, 0.038757194, 0.08574444, 0.05666385, 0.10152763, 0.11523297, -0.05760002, -0.08869369, -0.046756383, -0.17104733, -0.02285212, 0.11207851, -0.046436872, -0.037127025, -0.043254696, -0.16221154, 0.056116503, 0.007846314, 0.091996245, -0.06829264, -0.24074873, -0.023018222, 0.14095232, -0.1481353, -0.037376285, 0.04712573, 0.13146193, 0.06348053, 0.021710768, -0.11050153, -0.121605, -0.09316485, 0.001765262, -0.047127858, -0.0529803, 0.16734709, -0.23970392, 0.055685762, 0.002241618, -0.1441424, 0.08203477, -0.056674886, 0.17974754, -0.07721693, -0.10668617, -0.016850878, 0.03365289, -0.0069427704, -0.068544306, 0.18955427, 0.07633268, -0.0058608283, -0.25791088, 0.082371056, 0.004660632, -0.004262345, 0.072201714, -0.07184292, -0.117896415, -0.1761773, 0.13131143, 0.099007085, 0.1009606, -0.032597944, 0.109248, 0.07955761, 0.27556676, 0.1847425, -0.12943898, 0.19559118, -0.07384589, 0.29697105, 0.06563575, -0.09845816, 0.07459435, 0.06558852, -0.069418415, -0.06515357, 0.10790739}, {0.11994407, -0.013950905, 0.12020727, -0.07915588, 0.010555832, -0.19169815, 0.009578871, -0.07527323, -0.00795848, 0.14965041, 0.052484818, 0.1701131, -0.0524553, -0.049478743, -0.021857092, -0.054800794, 0.016463414, 0.04844237, -0.018813744, 0.22707559, 0.14666949, -0.08437347, -0.06283655, 0.10442134, -0.02142615, -0.024438838, 0.006666294, -0.16264749, 0.136036, -0.13761894, 0.056266245, -0.16554761, -0.052208304, 0.05361387, -0.32365707, -0.03709428, -0.08176485, 0.041876215, -0.09324603, 0.012672502, 0.075561, -0.040946044, -0.047318608, 0.11326125, -0.10371925, -0.0047514434, 0.1736206, -0.019162852, -0.20408128, -0.05846486, -0.06316359, 0.010772905, -0.024605202, 0.08494937, 0.036980692, 0.034968898, 0.053967535, 0.07806988, 0.011498815, -0.025235211, -0.1379546, 0.054550394, 0.018835435, 0.104816034, 0.011877196, -0.014411254, -0.05960515, -0.09745172, -0.016189495, 0.047251157, -0.17555204, 0.110575706, -0.3199832, -0.038189005, -0.0594986, -0.13802204, 0.07788089, -0.020891253, 0.15388119, -0.118235506, -0.12137311, 0.0032003918, -0.016715823, 0.02189196, 0.062800005, 0.1501425, 0.09195164, 0.14937541, -0.012402276, 0.06612893, 0.02868722, -0.0074621555, -0.10729415, -0.0032262735, 0.092809774, 0.12591545, -0.07177517, -0.038307138, -0.022183038, 0.09582853, -0.11945943, -0.009778728, 0.029549634, 0.011915026, -0.015116075, -0.13750666, -0.119892456, -0.13301997, -0.04564004, 0.076916866, -0.2311768, -0.004289276, 0.2593212, 0.07928182, 0.11286008, -0.004111967, 0.03278411, 0.14266473, -0.14096838, 0.08134488}, {0.10087095, -0.016033186, 0.0025023657, 0.15037312, 0.08029302, 0.009212626, -0.057720367, -0.06542823, 0.09202037, 0.10083803, 0.007295964, 0.28872722, 0.04929772, -0.18941025, -0.037106484, 0.1818861, 0.027178435, 0.02809081, 0.042764205, -0.015284241, -0.08428764, 0.00823201, 0.038017187, -0.06765061, -0.011962126, -0.24779756, 0.07680135, 0.07621902, -0.21171802, 0.16797099, 0.020499362, -0.05158289, 0.0163793, 0.05364098, -0.06487707, 0.05852064, 0.12210966, -0.034180626, -0.07047213, -0.0073586353, -0.036849767, -0.12379536, -0.06574356, -0.08129272, -0.06260451, -0.19697475, 0.012578022, 0.02423045, 0.07972941, -0.022272365, 0.11283216, 0.01720391, -0.106972285, 0.071633965, 0.15641105, 0.11614656, 0.016728483, 0.0868585, -0.0741446, -0.11941545, 0.11633074, 0.1819952, -0.014053371, -0.091407746, 0.092824, -0.022721402, -0.2451094, -0.07288128, -0.08340174, 0.044559877, -0.094684646, 0.1522018, -0.08595478, 0.16390988, 0.08038629, 0.16105232, -0.23415717, -0.057727285, 0.06555077, 0.04136819, 0.1829761, 0.032263514, 0.051834367, 0.018273838, -0.016595073, 0.03729945, -0.046290066, -0.18104471, -0.0047883047, -0.3662432, -0.1704216, -0.058564473, 0.016341465, 0.040889926, 0.089843206, -0.074663736, -0.0151314875, 0.23084605, -0.054689683, -0.04827286, -0.050678384, -0.046945564, -0.05529495, -0.020981658, -0.0039003098, 0.084634155, 0.15320954, 0.03006386, 0.06513171, 0.14638263, 0.14159732, -0.0060394867, -0.2540655, -0.11766291, -0.13837183, -0.010969408, 0.08296789, 0.0665304, 0.1119225, 0.033876095}, {-0.19821954, 0.03592835, -0.097875275, -0.1445179, -0.008715252, 0.11500641, -0.022810511, -0.06513617, 0.05678437, -0.030635469, -0.09571535, -0.092445776, 0.106121704, 0.054794703, 0.08325646, -0.06938246, 0.0074909506, 0.057589535, -0.08107459, -0.0063169203, -0.0049011265, 0.008647681, -0.056855857, -0.06320127, 0.026793934, -0.031007856, 0.016624643, -0.0024248506, 0.16089697, -0.14901471, -0.06614615, 0.04865258, 0.11043775, -0.044933878, 0.051046122, -0.027741589, 0.0061728517, -0.01330344, 0.10408324, 0.084921375, -0.090637974, 0.19651996, -0.01886064, 0.047449477, -0.052814685, -0.0123888925, -0.07642878, 0.024582023, 0.06902635, 0.073788345, -0.122322895, -0.114957176, 0.058800012, 0.09116389, -0.07267458, -0.05044629, -0.115526326, 0.057141434, 0.048509505, 0.076665275, -0.14403746, 0.15505423, 0.05705692, -0.035112042, 0.13403189, -0.007299203, 0.097412676, 0.034671158, 0.026852207, 0.14854619, -0.10450083, -0.0521303, 0.23446172, -0.20826223, 0.006724009, -0.04547985, -0.026455343, 0.15871805, 0.1906985, -0.06839543, 0.0276963, -0.016454006, 0.07815555, 0.13959895, -0.014760967, 0.09074943, 0.026123647, 0.06876753, -0.08859384, -0.054194927, 0.09213295, -0.04751325, -0.030786129, -0.08106611, -0.007483243, -0.015280551, 0.055465166, -0.057508193, -0.046003863, 0.015821831, 0.060184654, -0.07575587, 0.10878674, -0.029906595, 0.047933728, 0.051865503, -0.12754875, -0.05008293, -0.04659702, -0.21994354, 0.082679465, -0.045498062, -0.088858664, -0.004498309, -0.031731606, 0.1425857, -0.061579514, -0.026433961, -0.065403745, 0.03513944}, {0.12801328, -0.06837611, 0.02000274, -0.13601376, 0.13630517, -0.004433726, 0.056901675, -0.044291656, 0.014922695, -0.17846532, -0.0012923187, 0.008476453, -0.15927568, -0.16380557, -0.06315184, 0.06878824, 0.15197204, -0.051014427, -0.064725704, 0.055493813, 0.13579467, -0.020332994, 0.04843241, 0.11229605, -0.026643896, 0.07761729, -0.019729348, 0.009838444, 0.04539087, 0.085544795, 0.15103467, -0.04674417, -0.012091371, -0.055667832, 0.095990084, 0.09810685, -0.09287176, -0.17017211, 0.14523946, 0.13195574, -0.18947765, -0.064941406, -0.037259102, 0.12728027, -0.025957976, -0.06467038, 0.056181755, 0.019332988, -0.0892531, 0.07043473, 0.13353449, 0.09864374, 0.14481963, -0.07328811, -0.058079246, -0.17601773, -0.061579395, -0.1921254, -0.060537517, -0.055346716, -0.08343034, 0.006493199, 0.10071162, 0.13947257, 0.10439279, -0.03895758, 0.060660254, 0.031038383, 0.005217, -0.17803484, -0.016626429, 0.07636628, -0.05544091, -0.055901725, -0.087626085, -0.088560835, -0.023369992, -0.17685163, -0.045087755, -0.06894117, -0.07856953, -0.121999025, 0.0038659354, 0.101197086, -0.048224527, -0.17384297, -0.06733017, -0.09746249, -0.08636427, 0.06636215, 0.089300714, -0.014870478, 0.0039002427, 0.00812893, -0.021015333, 0.10550471, 0.08903314, 0.060364466, 0.19767833, 0.061640717, -0.20245057, -0.06289651, -0.06297155, 0.014661054, -0.030626705, 0.02338323, 0.0038136845, 0.014900685, -0.07654836, -0.20012853, 0.15153465, 0.026297167, 0.13991794, -0.054576218, 0.03953019, 0.03210368, -0.05383499, -0.053585142, -0.026936788, 0.046118204}, {-0.032755274, 0.084341176, -0.1869272, -0.17498016, 0.104565084, -0.11909776, 0.09388532, -0.042353354, -0.054447394, -0.10388854, -0.12000182, -0.17332049, -0.08258316, -0.100668095, -0.049205933, -0.013305824, 0.12187971, -0.058483876, -0.056065068, -0.2386877, 0.02977794, 0.0035243824, 0.044606272, 0.11660629, 0.06859622, 0.03377439, 0.07082464, 0.06943283, 0.1096, -0.06457732, 0.021072058, -0.02718317, 0.02879429, -0.12332478, -0.038145922, 0.011690752, -0.14842166, -0.011932577, 0.18182229, 0.053837303, -0.14009783, -0.0050394596, 0.02556467, 0.03277461, 0.098548666, 0.00428492, -0.053383928, 0.053224888, 0.015272326, 0.019770723, -0.019896353, 0.008746632, 0.066202305, 0.14064558, -0.20279777, 0.14279746, -0.037799396, -0.23343493, -0.15166263, 0.110084414, -0.05738858, 0.11638822, -0.08125395, -0.107757516, -0.066059016, 0.028865693, 0.0050391597, 0.11597575, -0.054105952, -0.02213092, 0.03842534, -0.096428655, 0.0056855665, -0.05304886, 0.03512138, 0.014652379, -0.036772437, 0.027823085, 0.017953187, 0.0758176, -0.121614635, -0.058244795, 0.033036828, 0.069998585, -0.05482936, -0.043988254, -0.16493317, -0.04535933, 0.0237541, -0.046600148, 0.13345517, -0.06574251, 0.09284443, -0.14034158, 0.06304872, -0.08125463, 0.05077637, -0.0030434842, -0.08455484, -0.06262066, -0.056550823, -0.0034926292, 0.07120082, 0.011710339, -0.013287579, 0.1894371, 0.046232436, 0.122678585, -0.1425975, -0.16197722, 0.121746086, -0.05366268, 0.16329274, -0.095017366, -0.087050304, 0.10604268, 0.043747026, -0.036848325, 0.04921193, 0.048634537}, {-0.09896631, 0.053476814, -0.039381284, -0.08242887, 0.012389238, -0.09487743, -0.20165147, 0.044443123, -0.03686162, 0.095679335, 0.07670604, 0.013725302, -0.14036956, 0.006446513, 0.077638984, -0.16015774, -0.014954414, -0.066665486, -0.057367418, -0.03489028, -0.11809705, 0.06792634, -0.107893795, -0.15859877, -0.061197855, -0.06787394, -0.076479, -0.15850835, -0.18906143, 0.07769467, -0.056938026, -0.03205023, -0.020860203, -0.15917973, 0.061115526, -0.15002589, 0.3398827, -0.10271391, -0.03325344, 0.05168965, -0.09898484, 0.047033872, 0.023001308, -0.22982411, 0.10005192, 0.21070215, -0.02688721, 0.09098075, -0.005859369, 0.08401038, -0.03930596, 0.0762052, -0.079344995, 0.16476353, 0.025439529, -0.006971094, -0.036683396, -0.13790628, 0.22993425, -0.15369661, -0.11752882, 0.2556617, 0.034126487, -0.05127567, 0.07383633, 0.03575007, -0.0007354132, -0.13749093, 0.075771786, 0.20936987, 0.04741561, -0.2657835, 0.1464311, -0.046998274, -0.050503507, 0.02965841, -0.17148101, 0.17300719, -0.02926978, -0.051747967, -0.05399373, 0.08484695, -0.005524226, -0.0003313772, -0.057810348, -0.10106097, 0.06907487, 0.17917818, 0.020834586, -0.017319616, -0.063042074, -0.043233745, 0.02561298, -0.1889718, -0.024196107, -0.1586853, -0.013897301, -0.008861853, -0.100142814, 0.11315113, 0.09160048, -0.090650186, -0.083650045, -0.014805319, -0.06505679, -0.03182039, -0.05753896, -0.014976257, -0.030224098, -0.0049991603, 0.004965784, 0.03975339, -0.048093185, -0.11196545, -0.06864776, 0.082550555, -0.06572344, -0.17827342, -0.19968288, -0.0006254822}, {-0.1934087, -0.0102056265, -0.07022368, -0.04578281, 0.008692857, -0.063768364, 0.06637015, -0.06022064, 0.07352689, -0.0056396867, 0.17164245, 0.12980112, -0.2070413, 0.069968104, -0.06237455, 0.06317339, 0.08535499, 0.052950144, -0.03348858, 0.21866907, 0.025619853, 0.025656035, -0.15726082, 0.12921228, 0.08592003, -0.020634813, -0.05271613, 0.007953626, -0.042302527, -0.17102945, 0.104734555, -0.017525418, -0.10172505, -0.020048378, -0.10648835, -0.023765856, -0.022786198, 0.016221184, 0.025466328, 0.008157551, -0.039194897, -0.0650452, 0.060771365, 0.14910378, -0.062166464, -0.038600046, 0.07438105, -0.012657026, -0.00850168, 0.1760702, 0.0026317213, 0.03990453, -0.17782031, 0.02831843, 0.21008517, 0.020611212, 0.100821495, 0.018956086, 0.008134147, -0.06232743, -0.15128182, 0.18902372, 0.067690924, -0.09167904, 0.004138225, -0.092153616, -0.035050128, 0.07298894, -0.024728198, 0.03666791, -0.09238407, 0.20411974, -0.1542927, -0.0041330005, -0.057158086, -0.030198023, 0.039000656, 0.011263706, -0.012198048, -0.029849263, -0.19001128, -0.27172354, 0.025360715, -0.06159612, 0.02226574, 0.07157622, 0.004229288, 0.10251405, 0.0023461203, 0.060205325, -0.013844334, 0.004320751, -0.06701955, 0.15321425, 0.16977106, 0.07191418, 0.025868542, -0.037201703, 0.08376321, 0.045141958, -0.2925089, -0.020033041, 0.12234023, -0.10203935, 0.09176563, -0.041928805, -0.10838021, -0.24358964, -0.14269882, -0.02212027, -0.00027030462, 0.0051573766, 0.038018573, 0.023658046, 0.02465683, -0.022300769, 0.019668985, 0.109616265, -0.04245437, -0.064325675}, {0.12881373, 0.018269517, -0.03663694, -0.020106861, -0.12910946, -0.116397664, 0.027516305, -0.04520187, -0.21878354, 0.023602482, -0.0990873, -0.13033324, 0.19308986, 0.068648085, -0.06845193, 0.03963172, 0.16979752, -0.08047645, -0.036150776, -0.16514835, -0.009718057, -0.038717408, 0.14818864, 0.020725388, -0.010508219, 0.048642278, -0.022525446, 0.024583502, -0.134569, 0.019281896, -0.01489689, 0.13295323, 0.17069075, -0.027010286, 0.06342389, -0.08218958, 0.13609794, -0.0562881, -0.13095152, -0.08691173, 0.12686466, -0.20622322, -0.025166271, -0.07106685, 0.083346814, -0.057462752, -0.19152898, 0.093063004, -0.055062093, -0.07289567, -0.015284075, 8.510811e-05, -0.096938215, -0.008043965, 0.07653488, -0.1336878, 0.15632339, 0.143801, 0.047731064, 0.12846127, -0.07122217, 0.097207956, 0.0066789817, -0.014234146, -0.06710782, 0.068429604, -0.038910143, 0.1125438, -0.011283973, 0.007503908, 0.058871064, 0.07285367, 0.16254428, 0.11420791, 0.044493947, -0.0062806653, -0.025949078, -0.015248244, 0.15287769, -0.021829601, 0.29976344, 0.018421328, -0.07864637, 0.10789576, 0.08102484, 0.1865531, -0.093224235, -0.08955021, -0.039324466, 0.022557218, 0.07563021, -0.009842817, 0.22410452, -0.08120002, 0.03438302, -0.10424718, 0.076868854, -0.0782724, -0.1182639, -0.08953079, 0.048146106, -0.027917601, 0.037536833, -0.044356875, 0.0030066555, -0.11105809, 0.067841396, -0.046400543, -0.100411616, 0.20178153, -0.029824402, 0.01081357, -0.11700069, 0.021019377, 0.09950784, -0.07964472, -0.012925245, -0.026843868, -0.0252988, 0.06079538}, {0.07318113, 0.04087072, 0.085875235, 0.15889485, -0.1624481, 0.06564817, -0.19202024, -0.037651565, -0.017386883, -0.15031886, -0.12757899, -0.0365835, -0.0575694, 0.020989336, 0.05910157, -0.13536355, -0.25105196, 0.075793475, -0.08826002, -0.1538522, -0.21233854, -0.085695185, -0.059826262, -0.10470771, -0.019790528, -0.1433409, -0.024082024, -0.2603271, -0.1769333, -0.11491392, -0.053373747, -0.17746052, -0.14337105, 0.019910155, 0.13389522, -0.048718013, 0.10920327, -0.010067211, -0.40411487, -0.045448944, -0.008233294, -0.0062420825, 0.03085213, -0.052506663, -0.012690355, 0.038117208, 0.12918675, -0.066341385, -0.038506057, -0.25403276, -0.15906812, 0.029814545, -0.13495298, -0.19499946, 0.2725159, 0.075561576, 0.058903053, 0.012484663, 0.09559626, -0.23210417, -0.22495382, -0.107947096, -0.06810147, 0.08353208, -0.08723782, -0.03614521, -0.018792214, -0.19176218, 0.072891824, -0.13573468, 0.100281134, 0.10281789, -0.1699908, 0.07447995, -0.051912967, 0.14049636, 0.06928245, -0.12736483, -0.16494796, -0.11195298, -0.09740794, 0.05926892, -0.0012351839, -0.2376296, 0.013508901, -0.0003652255, 0.055047978, -0.0437588, 0.045839865, 0.20194952, -0.17639244, -0.061506923, -0.022690501, -0.13256091, -0.08393888, 0.04057502, 0.13362348, -0.061257526, -0.03170096, -0.0032598055, -0.22749613, 0.027098218, 0.017801298, -0.17072448, -0.07477448, -0.056680553, -0.14243644, -0.09074702, 0.11623834, -0.021038376, -0.22928031, 0.07895121, -0.12971517, 0.04731945, -0.016575105, -0.030637294, -0.025868407, 0.012716746, -0.19587794, -0.14409864}, {-0.25841266, 0.1165351, 0.033100642, 0.014048528, -0.10351165, -0.26200655, -0.090336986, -0.059696488, -0.050239984, -0.014916382, -0.10260753, -0.03730135, -0.0065313517, 0.051652577, -0.087120004, 0.09298776, 0.22641076, 0.041128874, -0.02286048, 0.2375497, 0.06664478, 0.04092706, -0.02552112, -0.00028683135, -0.049654543, 0.002758142, -0.03243632, -0.00817941, 0.052030943, -0.022030065, -0.10624037, 0.015001163, -0.13311552, 0.002227304, 0.06496966, -0.09446137, 0.19167382, -0.013596037, -0.105126, 0.17173581, -0.09416806, 0.018574178, 0.010780063, -0.07786575, -0.06783815, 0.028778324, -0.010582235, 0.008268796, 0.016343057, 0.14349918, 0.23941782, 0.08878551, -0.16090542, 0.14745858, 0.06389237, -0.070486434, -0.02793168, 0.19180974, 0.07818968, 0.091774754, 0.047275655, 0.34583452, 0.070715174, -0.00719053, 0.24466747, -0.06874628, 0.013763289, -0.046273157, -0.062326502, -0.059548598, -0.22708358, 0.012029999, 0.013242063, 0.06604794, 0.13180692, 0.04132635, 0.004061257, 0.12831333, -0.13113008, 0.08734999, -0.0144074885, -0.115539104, 0.03455244, 0.0064918757, 0.044248786, 0.10689147, 0.107946336, 0.13250892, -0.07984753, -0.06672128, 0.10720379, -0.050511196, -0.06641256, 0.14103064, 0.123660386, 0.036760867, 0.21886471, -0.04141446, 0.015739746, 0.010583145, 0.18360274, 0.019329658, -0.13786738, -0.19697236, 0.060218718, -0.344046, -0.07286455, -0.10091688, -0.123259515, -0.078743294, 0.020447742, -0.068517044, 0.04505417, 0.15903689, 0.0011276826, -0.086132586, 0.040753163, -0.0063632973, -0.12773508, -0.07493439}, {0.009172733, 0.017270627, -0.10357693, -0.10464445, -0.011970883, -0.09032704, 0.006549646, -0.074340634, -0.007860408, 0.0075075803, -0.04525602, -0.0005807959, -0.05889697, -0.077514514, 0.026392505, -0.03857646, -0.017254721, -0.011291043, -0.08232424, -0.022886317, 0.027748825, -0.0052303886, -0.045997348, -0.052480455, 0.07022877, -0.12073654, -0.005631716, -0.08338338, -0.0027402511, 0.009063124, 0.010413733, -0.051992044, -0.08177028, -0.07675077, 0.028294712, 0.0026880188, -0.008874197, 0.015660172, -0.06670643, 0.032490756, -0.078891985, -0.032426666, -0.065663554, 0.045761015, -0.014572576, -0.043589566, -0.057819348, -0.009816199, -0.041079987, -0.071535304, 0.0068720444, 0.086080275, -0.022749765, 0.019574547, -0.0035704665, -0.114738196, 0.050357323, -0.0045896387, 0.04616985, -0.06340272, -0.10878851, -0.08235585, 0.034127504, -0.05389407, -0.05213157, -0.00574154, -0.055506073, -0.077604726, 0.06311091, 0.028792677, 0.052968327, 0.043954376, 0.0040618507, -0.064851046, 3.4816642e-06, -0.03567362, -0.114264004, 0.021837112, -0.08490263, 0.071523845, -0.017107014, -0.0071609737, 0.033985622, -0.010058334, -0.017718216, -0.06726977, 0.010738359, -0.033584848, -0.010372733, -0.0081538195, -0.09615788, -0.08489115, -0.13233459, -0.10637412, -0.07229861, 0.044244707, 0.017235266, -0.1123992, -0.062131777, -0.0312186, 0.013672284, 0.07278418, 0.02909814, -0.039492242, -0.038669176, -0.08983111, -0.08771151, 0.052939117, -0.06971056, -0.054295827, 0.02325222, -0.02654402, -0.07338496, -0.061350986, -0.0761475, 0.021658374, 0.013327396, -0.064483285, -0.01090838, -0.021652147}, {-0.11951527, 0.15454225, -0.041768253, -0.28217208, 0.08204, 0.17228453, 0.079999216, -0.060153306, 0.0767982, -0.103886455, 0.15462099, -0.05584612, -0.060655434, 0.073798716, -0.05823716, -0.074069634, -0.07900875, 0.025859827, 0.03259067, -0.008830149, -0.04830439, 0.049383413, 0.08215277, 0.120025605, 0.14163065, 0.015049439, -0.079204485, -0.037108522, 0.0041364133, -0.028241925, -0.042222124, -0.07039283, -0.13826123, -0.13196409, 0.12715381, 0.26025426, -0.06317735, -0.03832459, 0.24352367, -0.08829266, -0.07449428, 0.023123674, 0.13972181, -0.003274129, 0.08847454, 0.031967018, 0.1553469, -0.066613756, 0.1568793, 0.022521013, -0.06314592, -0.0038450179, 0.15819244, -0.07864562, 0.062270507, -0.008206756, 0.06369817, -0.22340788, -0.005745047, 0.029070515, 0.03832376, -0.14103901, 0.052978672, 0.105868116, -0.09644257, -0.0015103348, 0.06852929, 0.06347947, 0.0773772, -0.022155194, 0.15029758, -0.08788218, 0.024097975, -0.030373687, 0.010163998, 0.124942385, -0.02995695, -0.010085096, 0.15223978, 0.04855983, -0.16231029, -0.11017383, -0.07736031, 0.0038769725, 0.028735004, -0.106899634, -0.16710143, -0.108148545, 0.033252705, 0.026932003, -0.1439726, -0.020792173, -0.10979982, 0.05346673, 0.06918567, 0.004295166, -0.18778563, 0.14101778, -0.096707076, 0.07325789, -0.26000562, -0.050880022, 0.19170246, 0.15093504, 0.04410119, 0.18331657, 0.15628883, -0.022570042, 0.14605731, -0.115448594, 0.0017893583, 0.039958794, -0.15514642, 0.077926785, 0.08225995, 0.1601027, 0.03615245, -0.011225198, -0.020693498, 0.099445604}, {0.069428146, -0.0101865325, 0.06362328, -0.014472488, -0.026014334, -0.094915465, -0.0018826597, 0.018697562, -0.021563768, 0.07731536, 0.13970497, 0.036027916, -0.06739502, -0.0828375, -0.06912532, -0.088729724, -0.025231723, 0.02396436, -0.069415346, -0.010591583, 0.1150845, 0.076031774, -0.06231431, -0.0994345, -0.05690255, -0.084196374, 0.015302639, -0.044945758, 0.033068236, -0.04623477, 0.04974505, 0.014276762, -0.043732323, 0.1831131, -0.21406868, 0.08925765, 0.02140322, 0.22166571, -0.104015395, 0.013305249, 0.076946735, 0.028668558, 0.12718128, 0.118119836, 0.03938267, 0.020741316, -0.094845206, 0.055407804, 0.004216677, 0.012531834, 0.06257097, 0.019299272, 0.05586797, -0.0940816, -0.12364508, -0.15551426, -0.10554565, 0.055412382, -0.016373536, 0.0031126223, -0.13406353, 0.060706563, -0.042244423, 0.27450207, 0.08152856, 0.07883141, -0.04194381, 0.03991986, 0.09584849, 0.059971824, 0.015666338, 0.021349102, -0.120475665, 0.07713187, -0.11053039, -0.21236907, 0.102517016, -0.121360786, -0.0945309, 0.023656435, -0.16388829, 0.11178188, -0.06564505, 0.07132617, 0.005963947, -0.004734106, 0.12770808, -0.1192875, -0.19909258, 0.053688496, -0.006209913, -0.06706809, 0.014303656, 0.1090822, -0.002515523, 0.09150604, -0.1736004, 0.05580531, 0.05899015, 0.1210452, 0.098377705, -0.007272591, -0.007178248, -0.1476841, -0.0009874691, -0.061890338, -0.08279974, -0.047735568, 0.15233894, -0.001917257, -0.05312971, -0.02387188, 0.012389102, 0.055009346, 0.11210202, 0.06982394, -0.0016476819, 0.01902375, -0.105755925, 0.07854954}, {-0.109809734, -0.070753574, 0.106483445, -0.21476606, 0.06647209, 0.016905688, 0.11599236, -0.04885045, -0.115523495, -0.019935261, -0.08167027, -0.10379586, 0.008516472, 0.036107216, 0.054602526, 0.043998316, 0.01604622, -0.026275322, -0.032199573, -0.0026074816, 0.16960466, -0.0047135814, 0.13835149, 0.25097254, 0.011063174, 0.09172385, 0.043404993, 0.03430335, 0.06484868, -0.14239094, 0.1484947, 0.10052384, 0.022662431, -0.103301816, -0.057074405, -0.18398441, -0.0040246304, 0.06819888, -0.01568924, 0.113874294, -0.046315514, -0.0026657218, -0.018124668, 0.02512381, -0.03086728, 0.0075686947, 0.025224442, -0.022896783, -0.17864375, -0.06414217, 0.016598385, 0.005424282, -0.023224749, 0.050546627, 0.023381334, -0.18924151, 0.108024985, 0.003991004, -0.083979614, -0.026669424, 0.06811291, -0.20489804, -0.013587908, -0.09597462, -0.265685, -0.0017577535, 0.09280873, 0.02107187, 0.019612253, -0.017369084, -0.1614693, 0.11207343, -0.24062803, -0.08074255, -0.02968967, -0.07650396, 0.14094473, -0.056910127, 0.04295696, -0.094268374, 0.069445014, -0.17689689, -0.099308714, -0.10688901, -0.04598643, -0.14579128, -0.1944435, 0.17274942, -0.014044398, 0.089532085, -0.03848925, 0.07523332, 0.03612109, -0.034191042, 0.07118101, 0.043352146, -0.017563507, -0.1481684, -0.09384482, -0.33348393, -0.337781, 0.015875937, 0.058187116, 0.0111866435, 0.013566279, -0.023480866, -0.02399775, 0.08748566, -0.13694316, 0.10525512, 0.017492699, -0.034283966, 0.26928043, -0.053024735, 0.07235058, -0.025430629, 0.015122893, -0.10361674, -0.07789974, 0.128042}, {-0.31905374, 0.052171748, 0.06862642, -0.14318718, 0.0033034761, 0.025601141, 0.004364941, 0.043290023, 0.012100565, -0.046412464, 0.031141924, 0.12558222, -0.07842789, 0.21249565, 0.060790766, 0.03418951, -0.140993, -0.048042417, -0.044470213, 0.22672945, -0.03248101, -0.046397578, -0.11448269, 0.29702482, 0.022455936, -0.009304903, 0.043270353, -0.12941366, 0.020468144, -0.066835456, 0.11881491, -0.10340499, -0.0604733, -0.131152, 0.013138223, -0.078492016, 0.115149446, 0.087542675, 0.0014089392, 0.0334118, 0.041242316, 0.0023255676, 0.018431002, -0.031775914, 0.09775258, 0.046216805, 0.09636145, -0.0019895197, 0.102185465, 0.10490688, 0.05578996, 0.02740975, -0.1613102, 0.12834673, -0.009612806, -0.005116853, 0.014822191, 0.15785652, -0.018093005, 0.08695553, 0.14882027, -0.058985468, 0.05744001, 0.042887423, -0.114088535, -0.06434722, 0.032600705, 0.12637433, 0.051002488, 0.062413707, -0.015647588, 0.13661039, 0.043975364, 0.061696354, 0.18768708, -0.08003044, -0.004016018, 0.29364344, -0.048521604, -0.05254992, -0.050442047, -0.11059791, -0.07827397, -0.23161285, 0.10292849, -0.07067069, -0.0133394925, 0.3178119, 0.08525415, 0.12641568, -0.046345804, -0.012272922, 0.0064528193, 0.059808385, 0.13702084, 0.0017037458, 0.028885432, -0.08473321, -0.08215095, 0.06529731, -0.066554986, 0.14977156, 0.011308406, 0.14081553, 0.07074126, -0.0667566, 0.05239739, 0.06054732, -0.10514458, 0.14630194, -0.13882814, -0.00808642, -0.1314384, -0.1331309, -0.09971511, -0.035120536, -0.042167187, 0.041529212, -0.09624144, -0.06950993}, {0.09350327, -0.081984065, -0.053174317, -0.011264478, 0.111503005, -0.050929766, -0.06795221, -0.007939994, -0.022263683, 0.014380787, 0.23339258, -0.045222457, 0.0067259516, -0.13911211, 0.0006424095, 0.022061348, -0.26308224, 0.046941083, -0.058795575, -0.09228283, 0.10268357, -0.06019863, -0.05927962, 0.059756834, 0.038296744, -0.069149256, 0.001542193, 0.01759337, -0.13141403, 0.17213665, 0.043336805, -0.047880445, -0.08240793, 0.022207601, -0.14352767, 0.07479275, -0.028958792, 0.12571165, 0.099352516, 0.10495278, 0.11033304, 0.13863881, 0.09508523, 0.09431435, 0.030429542, 0.02177077, -0.058344033, 0.047465842, 0.18233582, 0.09062443, -0.052050367, -0.09401325, 0.12879704, -0.17507458, -0.21167739, 0.03273128, -0.10427718, 0.03828203, 0.03534928, 0.080785654, -0.023360977, -0.17876826, -0.05869691, 0.16744591, -0.119916745, 0.012984094, 0.12874912, 0.0014049616, -0.08799787, -0.009849351, -0.19009632, -0.1301797, 0.07280498, 0.062042676, -0.15831023, 0.04829032, 0.08843179, -0.07176197, -0.07565275, 0.17424902, -0.049258742, -0.0075404267, 0.01387454, 0.10338013, 0.048503973, -0.07193008, 0.055745073, 0.021561598, -0.25509128, -0.021704458, -0.017182214, -0.07341536, -0.011864001, 0.024068004, 0.018525751, 0.10397656, -0.18537125, 0.1838894, -0.00065321726, 0.15757024, 0.14744225, -0.00947673, 0.06773587, 0.045693975, 0.04202876, 0.067087084, 0.009345875, -0.0068379096, 0.16034947, 0.07676563, -0.0140430955, 0.003546599, -0.036860034, 0.05166465, 0.19595802, 0.081116624, -0.052995715, 0.13674825, 0.09850916, -0.0015266093}, {-0.024023054, -0.07585699, -0.11030904, 0.040765405, -0.047013786, -0.06640162, -0.068832435, -0.01651071, -0.10466713, 0.026884826, -0.006127757, -0.010806877, -0.053478252, -0.074261405, -0.03654123, -0.0002901395, -0.077985704, 0.053118173, -0.04043779, -0.059490133, -0.012642539, -0.09338392, 0.08600608, 0.078196086, -0.08875396, -0.07391955, 0.09460257, -0.100251056, -0.03219936, -0.029138517, -0.049823526, 0.019914439, 0.033090472, 0.040925402, -0.020596799, 0.04482815, -0.060918983, -0.025678247, 0.018705085, 0.056131102, -0.05187803, -0.09155769, 0.043134946, 0.01774033, -0.082713455, -0.07843625, -0.07204896, -0.0007632171, -0.041560996, -0.08798711, -0.076060854, -0.04851123, -0.0025819081, -0.04036387, -0.040884346, 0.109721825, -0.046517875, -0.03204174, 0.0523147, -0.08353625, -0.108687334, -0.0018552919, -0.00050678727, -0.06389819, 0.08116266, -0.006999321, 0.04870563, -0.08282072, -0.0123623535, 0.024088023, 0.0015476795, 0.03696573, -0.057151925, -0.04925019, -0.06388466, 0.012336569, 0.041758608, -0.05460289, -0.038612634, -0.09882921, -0.040611073, -0.0041668834, 0.08402486, 0.06468669, -0.068520926, -0.07090368, -0.013375888, 0.10607414, 0.034964267, 0.075666256, 0.0066423286, -0.017979076, 0.00766171, 0.025012897, 0.088898666, -0.08360517, -0.08367901, 0.036948428, 0.018129906, -0.0914163, -0.07059576, 0.0788603, 0.0049181134, 0.015575959, -0.062616624, -0.026029872, -0.012087018, -0.10162137, -0.10494182, 0.025184194, 0.029259367, 0.08920615, -0.079706274, -0.026403772, -0.054940317, -0.041622583, -0.08614893, -0.116788216, -0.090770334, 0.050353218}, {0.12215188, 0.11482151, -0.015018837, -0.14750755, 0.11979635, 0.16497001, -0.10120833, 0.06877886, -0.015868766, -0.20464824, 0.10254414, -0.0011766959, -0.003704659, -0.0072715026, -0.029007537, -0.043057855, -0.043387678, 0.04950854, 0.020249328, -0.14207627, 0.08247047, 0.027358176, 0.014294988, -0.042477526, 0.08285204, -0.0077947383, -0.06914607, 0.037233096, 0.08091159, -0.05811985, 0.03206728, -0.05067575, -0.09349515, 0.06572984, 0.01250294, 0.22220838, -0.10089776, 0.15695739, 0.18232967, -0.056112558, -0.036172293, 0.11009357, 0.091561146, -0.11952962, 0.018603051, -0.0457295, 0.1525859, 0.083771385, 0.0513902, -0.0042490796, 0.07304623, -0.038835157, 0.16708152, 0.006110015, -0.04833598, 0.01371299, -0.03652095, -0.11287574, -0.0801607, -0.11389593, -0.062106997, 0.24857546, 0.10834499, 0.20351191, 0.29181355, -0.0067471988, 0.083647706, -0.07176873, 0.09738307, -0.029339524, 0.03680511, -0.14828761, 0.07723231, -0.08417802, -0.20977199, 0.092879154, -0.12090508, 0.004592301, 0.02934436, 0.21521273, -0.08812498, 0.22348009, 0.0052489936, -0.026010245, 0.02084541, 0.00935781, 0.09382428, -0.18676445, -0.034726918, -0.022126762, -0.06860706, -0.08815801, -0.16648594, 0.11657693, -0.013537378, 0.0050529474, -0.16246754, 0.18360968, -0.11166796, 0.21174301, 0.029985225, 0.11950639, -0.053494014, -0.02428698, 0.049088534, 0.10476988, -0.006978102, -0.16899517, 0.23471849, -0.1283255, -0.006251806, 0.08656585, -0.13456845, 0.14208911, -0.036633074, 0.14706817, -0.06862958, -0.081424415, 0.02600198, -0.0024804666}, {-0.102231026, 0.0154863065, -0.17251918, 0.06966785, 0.03134512, -0.010198968, -0.11933663, -0.085395135, 0.064150296, -0.035714306, 0.08046302, 0.20588867, -0.004324609, -0.09768104, 0.09428339, 0.08702535, 0.09276143, -0.05133544, 0.063928224, -0.043578822, -0.22044162, 0.032709394, -0.227594, -0.09553115, 0.051817395, -0.22405773, -0.05577758, 0.05978359, -0.05204909, 0.046859752, -0.069647, -0.08815548, -0.018270938, 0.060036175, -0.13602151, -0.011484154, 0.065212645, 0.056025766, -0.093875796, -0.090851754, -0.12094872, 0.08567393, -0.03139039, -0.12424365, -0.10212941, -0.006911919, 0.13534881, -0.02774921, 0.12376404, 0.1581408, 0.12422598, 0.07124907, 0.0063712117, 0.1158639, 0.14077732, 0.22636874, -0.058855932, -0.0399194, -0.060787197, -0.20170346, -0.096044384, 0.17460814, 0.04140969, -0.073946014, 0.11270551, -0.029569993, -0.3223502, -0.1380615, -0.07524009, 0.070082605, -0.17536335, -0.08267019, 0.14352351, -0.013560879, -0.09107838, 0.026196865, -0.22500978, -0.0012198582, 0.02277906, 0.019789549, -0.048642747, 0.046501096, 0.071998134, -0.09200114, -0.015821742, -0.044562608, 0.06194885, 0.011007225, -0.08040019, -0.20750515, -0.014521404, 0.044879492, -0.08243838, -0.051210158, -0.036307286, -0.08428172, -0.14634897, 0.12634422, -0.33286968, 0.056579415, 0.09122778, -0.031189661, 0.03647566, 0.04898939, 0.0011112185, 0.030192066, -0.03449331, 0.05148683, 0.097697504, 0.03584498, 0.117234774, 0.053577475, -0.097612195, -0.11190746, -0.2399184, 0.088521816, -0.057015203, 0.06484654, 0.011234774, 0.054343224}, {0.073986754, 0.06699709, -0.068751186, 0.13375029, 0.04082815, -0.05356027, -0.112936504, -0.047239773, 0.054693576, 0.022462614, 0.08366246, 0.22733091, -0.10135138, 0.046999123, -0.036877066, 0.086207666, 0.0676364, -0.08876593, 0.0215995, 0.20140478, 0.11833326, -0.065203585, -0.03943314, 0.027895385, 0.09980857, -0.14733921, -0.05584289, -0.07461371, 0.11455711, -0.07018488, 0.0753632, -0.19010822, -0.14091733, 0.06260402, -0.026171086, -0.011157103, 0.018246632, 0.18003504, -0.15248498, 0.03075155, 0.032203052, -0.23243318, -0.0021187721, 0.046544068, -0.07766653, -0.19768344, 0.13504528, 0.08605668, 0.0051957928, 0.09206181, 0.1551908, -0.08376625, -0.07097974, 0.11835777, 0.06435746, 0.04221837, 0.06756453, -0.10148644, -0.034661718, -0.12577133, -0.10996941, 0.17521214, 0.054386422, -0.19638257, 0.1946297, 0.08525654, -0.050660435, -0.03877737, 0.022955282, -0.09697692, 0.03761405, -0.015881762, -0.23382859, 0.17293414, 0.054428462, 0.08100499, 0.07457136, 0.132135, -0.17030866, 0.13245681, -0.13031001, 0.111244075, 0.013196801, -0.037858754, 0.054810595, 0.1024505, 0.0497313, -0.025463829, -0.027834965, -0.019998098, -0.0061821514, 0.038935773, -0.14787172, 0.11174392, 0.028680908, -0.057788793, 0.20524266, -0.0032475595, 0.016273443, 0.12563652, -0.10495589, -0.00815857, 0.022178844, -0.05102228, -0.06569663, -0.07114706, -0.1826175, -0.12151144, 0.04793948, 0.16397858, 0.108294584, -0.047408972, -0.031063303, 0.07772453, -0.11524098, -0.023944015, -0.068325095, 0.02363999, -0.06463367, 0.0458413}, {0.12938586, -0.021034041, -0.04751868, 0.08681208, 0.08068712, 0.05654552, 0.09812143, -0.038152855, 0.097622275, -0.27826735, 0.110484816, -0.13557455, 0.061152954, -0.16971886, -0.018524425, 0.0037262044, -0.011492483, -0.048043955, -0.08134508, -0.008024269, 0.11948387, 0.056282815, -0.021964079, 0.010957463, 0.015281234, -0.03486433, 0.034853283, -0.028811758, -0.115077585, 0.015249948, 0.06446814, -0.025057165, -0.12579648, -0.016877832, 0.05673725, 0.13946837, -0.017702669, 0.0861424, 0.014883837, 0.09420549, -0.116891205, 0.07118003, 0.19176494, 0.02734398, 0.010836856, 0.073342, -0.1137912, -0.0673227, -0.05238551, -0.01564395, -0.12272481, -0.03900146, 0.08634229, -0.10959407, -0.18741474, -0.1423721, -0.14569166, -0.0884952, 0.011740669, -0.10029415, 0.010322942, -0.11338381, -0.03862585, 0.15432121, 0.1719741, 0.051780857, 0.017711338, -0.012806546, -0.061253555, 0.056265425, 0.013608818, 0.05017048, 0.07202657, -0.04051421, -0.21973762, -0.042292915, 0.0072917505, -0.032365497, -0.093280435, 0.10020209, -0.024149543, -0.018163286, -0.06617727, 0.036737934, 0.0074642194, -0.0821258, 0.054645438, -0.17294872, -0.113728285, -0.003376166, 0.03681434, 0.030717282, -0.18454066, 0.14214583, -0.03499431, 0.0015911314, -0.21476005, 0.028516276, 0.07755736, 0.156124, -0.010038298, 0.056671474, -0.03588081, -0.15116295, -0.028124401, 0.049225084, -0.061822344, -0.03650602, 0.09871146, -0.13602537, 0.059006702, -0.019959372, -0.08614375, 0.10637584, 0.10496554, 0.10476641, -0.014422165, 0.058045603, -0.0035792543, 0.09859818}, {0.10182986, -0.041608498, 0.082547754, -0.055978384, 0.08268016, -0.070891045, 0.039427873, -0.03591227, -0.11854207, 0.058195844, 0.0779323, 0.019167682, 0.027014764, 0.07134695, -0.006322925, -0.08558475, -0.15216175, 0.021583037, 0.07635506, 0.023922993, 0.14776647, -0.018019285, -0.031751234, 0.19241181, -0.015868211, 0.030651787, -0.04287112, -0.1302746, 0.13136303, -0.11501925, -0.076633625, 0.082851104, 0.0036554167, 0.061372273, -0.17581753, -0.0057555335, -0.034079228, 0.09407351, -0.037530977, 0.11884677, -0.021549642, 0.1535091, -0.015501198, -0.026479831, -0.0059741363, 0.05851669, 0.08327339, -0.0074474937, 0.044785008, -0.012478539, -0.113735974, 