

#include <stdint.h>



static const float inputs[256] = {0.06341330566578951, 0.0, 0.0, 7.351838461375969, 0.0, 0.0, 0.0, 3.3681358067270293, 0.6622980866294186, 0.0, 0.0, 0.0, 0.45087848416810516, 0.6795167714852921, 0.7349790664505176, 0.0, 0.0, 0.0, 0.0, 0.0, 4.033380730461388, 4.347267425142773, 4.2725820300601365, 0.0, 0.23394226032260867, 0.0, 0.0, 0.0, 0.0, 0.0, 0.08568139977841527, 0.0, 5.081858270867219, 3.3259368025524516, 3.2234168827205707, 0.0, 0.39060265019617724, 2.478748959110212, 0.0, 2.6586160031498256, 0.0, 0.0, 0.0, 0.390935097712399, 0.0, 0.0, 0.0, 0.0, 0.0, 0.0, 0.0, 0.0, 0.0, 0.0, 0.0, 3.8339444924204997, 0.0, 0.0, 10.099657917435756, 6.837569954580944, 0.0, 6.147986677824845, 10.472552275925374, 0.0, 0.0, 0.0, 1.2058884477571856, 0.0, 0.0, 0.0, 0.4208449505709545, 0.0, 0.19626685590854404, 3.002079240229838, 3.1876340734571347, 3.498227636296873, 1.606870707787323, 3.3396842950178516, 0.0, 3.0297737332358423, 0.0, 0.0, 0.08473278632682041, 0.0, 0.0, 0.0, 0.0, 0.0, 0.0, 0.36121264128124775, 0.0, 0.3129232366576229, 0.0, 0.071892972750071, 0.42763851579166956, 0.0, 5.880428375188286, 7.1245312751907015, 3.5879632261708188, 1.5552810757179674, 0.8893348879676353, 1.5846182595866003, 0.7661030346653885, 1.439195231915107, 0.0, 0.0, 0.2564639421500998, 0.0, 0.0, 0.0, 0.28190216261856516, 0.0, 0.0, 0.45416921835168533, 0.0, 0.0, 1.278834454620772, 1.8936542838071118, 0.0, 0.0, 0.0, 0.0, 0.0, 0.0, 0.0, 0.0, 0.0, 0.0, 7.297355845468714, 7.753279796893846, 7.799742372951315, 6.362589194262579, 0.6459085071050916, 0.0, 0.0, 0.0, 0.1906878612151499, 0.0, 0.0, 0.0, 0.08517657520117528, 0.0, 0.0, 0.0, 3.808741214618866, 7.773821797469028, 4.955716585378748, 1.237903115693081, 0.0, 0.0, 0.0, 0.0, 0.0, 0.0, 0.0, 0.0, 0.0, 0.7574996389348974, 0.0, 0.0, 0.0, 0.0, 0.0, 0.0, 1.9416344244250454, 3.11066603076059, 0.0, 0.0, 0.0, 0.641814438170357, 0.0, 0.6252198606722033, 0.0, 0.0, 0.0, 0.6232750377189088, 0.11636408991929836, 0.47127510911839887, 0.0, 0.0, 0.5926286864498328, 0.0, 0.0, 0.07636770617944322, 0.0, 0.0, 0.4835195724416108, 2.1435623893653806, 0.0, 0.0, 4.09256532475329, 0.0, 2.4354389474638816, 0.0, 0.0, 0.0, 5.881625604204448, 6.562451507207667, 6.247820135654197, 0.0, 0.0, 0.53627358135594, 0.0, 0.0, 0.0, 0.0, 0.0, 0.0, 5.011281576831938, 5.705106410138922, 2.597920682269791, 0.7050468777010059, 0.0, 0.0, 0.0, 0.0, 0.0, 0.0, 0.0, 1.0058546664990118, 0.0, 0.0, 0.0, 1.4685843710369668, 2.4449844720773424, 2.765136110787947, 0.0, 3.9438205967051823, 0.7637126159244589, 0.01873736907883128, 0.31630675980006995, 6.093168316017251, 0.0, 0.0, 4.4020796723194895, 2.3999821873989964, 0.0, 3.6253952453707496, 3.866503721188205, 0.0, 0.0, 0.0, 0.0, 0.0, 1.757997900630275, 0.0, 0.0, 1.2905944753927068, 0.0, 0.0, 0.0, 4.975372766735149, 0.0, 0.0, 5.289402594847594, 4.0197258963744895};



static const float bias[120] = {-0.07891185, 0.016323825, -0.014827208, 0.031942595, 0.08556326, 0.11106409, -0.0065837405, -0.06774823, 0.06901148, 0.039500702, -0.04386983, 0.06602613, -0.04062102, 0.050246857, 0.03683847, 0.01077147, -0.096368566, 0.024470925, 0.038089547, 0.036706597, -0.015003127, 8.891792e-05, 0.035105016, 0.052241202, -0.07779492, 0.011531668, -0.059760664, -0.009098611, -0.07242892, -0.010804572, -0.1119991, 0.04622424, -0.032348167, -0.06632872, 0.05423979, 0.010601667, 0.014796574, -0.0024973035, 0.026786342, -0.06357328, 0.005136176, -0.03380169, -0.03183442, -0.005920631, 0.12015526, 0.033250317, -0.038515653, -0.06668609, -0.03487909, -0.03132387, 0.00010166707, 0.017004773, 0.040810093, -0.072823636, 0.021286838, 0.027372394, 0.010761282, -0.06157555, -0.053551566, -0.05420968, -0.021952653, 0.084298596, -0.022158876, -0.036334977, -0.0037659588, 0.024475122, -0.0048149033, 0.040627893, -0.050540037, -0.09799179, 0.04286409, -0.082278885, -0.0048299627, -0.09125166, 0.06388377, 0.02593911, -0.007829628, 0.062498227, 0.013350344, 0.007292098, -0.12232369, -0.017399255, 0.023221256, -0.037158314, -0.030750409, 0.021923212, 0.015492409, 0.013598626, 0.0703201, 0.0650443, -0.09325058, -0.052166622, -0.009717411, -0.06616785, 0.0008082447, -0.051510498, -0.05227291, -0.07329635, 0.036068924, -0.0071442807, 0.087333284, 0.019586708, 0.013074661, 0.04269912, -0.010791725, 0.06538212, -0.027837945, -0.03236148, 0.060453817, -0.018824033, 0.00720537, 0.0038156149, -0.11496706, -0.024883159, -0.0012303481, 0.06415434, -0.047009356, 0.044941243, -0.016565064, -0.11907006};


static const float weights[120][256] = {{0.049104232, 0.27707514, 0.08872882, -0.07442276, 0.04282157, 0.03424042, -0.10397341, 0.045545183, 0.022154678, 0.024904344, -0.1334929, -0.23191953, -0.12166923, -0.00760684, -0.19104993, -0.20821112, 0.051295593, -0.03973313, -0.16384952, -0.00049941376, 0.0020420672, 0.061723914, -0.065239064, -0.0063537867, 0.20478773, 0.07714735, 0.09642576, -0.0975298, -0.021326791, -0.16118038, 0.012414304, 0.071726695, -0.012708258, 0.061666664, -0.019872354, -0.002611576, -0.047713816, 0.0044166273, 0.113615274, 0.08046598, 0.03815419, -0.06842217, -0.14933391, -0.07537361, 0.18247269, 0.06862742, -0.00608702, -0.06006195, -0.043765295, -0.07140113, -0.052909683, -0.053040534, -0.044775087, 0.1385661, 0.11331705, 0.053195104, 0.063450664, -0.016687399, 0.098062284, -0.05708483, 0.10786418, 0.13213788, 0.039101787, 0.061177492, 0.11367119, 0.01772503, -0.026855206, -0.14287432, 0.042117413, 0.060323495, 0.15119936, 0.1882158, -0.057579946, -0.029423425, -0.048982084, -0.04839343, 0.058733292, 0.09457086, 0.074845955, -0.16099532, -0.04740139, -0.036360305, -0.21330383, -0.15627065, -0.07006655, 0.061352883, -0.027506646, -0.05241527, -0.10940456, 0.04637536, -0.048398156, 0.019916307, -0.07118944, -0.07968701, -0.053885184, 0.1106476, 0.10122371, 0.053621594, 0.020272953, 0.076429866, -0.035967056, -0.09383294, -0.09526089, 0.07990865, 0.02632734, -0.26718965, -0.14293705, 0.018932639, -0.049711566, -0.105172746, 0.0706491, 0.106001586, -0.0756859, 0.06735875, 0.016257007, 0.18475048, 0.110810935, 0.10211264, -0.03700768, 0.14207415, -0.011144425, -0.1514319, -0.06904918, 0.06147025, 0.010166411, -0.11471997, -0.062478237, -0.045161843, 0.1405515, 0.11278031, 0.045087762, 0.02375494, -0.16892278, -0.044281397, -0.015091256, 0.06221971, 0.10271956, 0.046887744, 0.10747409, -0.038639747, -0.08222201, 0.044771355, 0.093528114, 0.23037516, -0.027610844, 0.09992619, 0.10978956, 0.067952506, -0.0012052673, -0.029175866, 0.08383967, 0.05563289, -0.15632014, -0.2824776, -0.19681554, 0.04797564, -0.17283659, -0.07426573, 0.07944935, 0.061591916, -0.08218429, 0.062412426, -0.089559525, -0.079676, 0.25557205, 0.25368002, -0.065824494, 0.009531195, 0.11281929, 0.03742675, -0.0744847, 0.021075245, -0.012264982, 0.03185697, -0.1293809, -0.0072434773, 0.052599892, -0.053068463, -0.112069085, -0.14237419, 0.058798853, -0.0005222499, 0.0038226112, -0.11490263, 0.054189555, 0.036104504, 0.019729055, -0.04660526, 0.13314362, 0.13650505, -0.039617747, 0.055831894, 0.025494074, 0.0012833844, 0.012595576, 0.099625364, -0.1393926, 0.05389861, 0.14094475, 0.06746428, -0.27621895, -0.2487872, -0.12080249, -0.0072211674, -0.14389394, -0.12830509, -0.11270052, -0.056640882, -0.05583066, -0.022359354, 0.121351056, 0.005380161, -0.14855176, -0.18472227, -0.06194723, 0.0013338054, -0.2021488, -0.21115471, -0.20724407, -0.12260584, -0.21950719, -0.032399528, 0.17140517, 0.08582272, 0.18332914, 0.13715217, -0.1881053, 0.059939694, 0.2201173, 0.2207761, -0.07046159, 0.00019552861, 0.16210614, -0.12261532, -0.073783875, -0.101907745, 0.13010581, -0.08821479, -0.026662907, -0.086864024, 0.0026903197, 0.07739751, -0.03390317, -0.2312808, 0.26626423, 0.1341628, -0.11478823, 0.015254741, 0.0010125863, -0.07157143, 0.029310929, -0.00789186, 0.00497738, -0.007454184, 0.05264866, -0.0464922}, {0.10717867, -0.13111374, -0.20428205, -0.07668622, -0.011034604, 0.09112647, -0.0078031323, -0.005952235, -0.04444596, -0.07893158, -0.03812537, 0.10515732, -0.02633645, -0.15387513, -0.10202254, -0.018994182, -0.18159537, -0.031867575, 0.14260411, 0.17271885, -0.11128704, -0.04482479, 0.0077368384, 0.17621724, -0.03067276, -0.009800326, 0.071589164, 0.10052118, 0.002276749, -0.12713057, 0.09762397, 0.015646659, -0.0697422, -0.010044894, 0.10571351, 0.038593374, -0.15294251, 0.08527221, 0.16397852, 0.04214477, 0.101585574, -0.0054755243, 0.12401162, 0.12953219, 0.00617755, 0.088350154, 0.036539122, 0.14367808, 0.18399113, -0.007800002, 0.09059011, -0.026969997, -0.09400865, -0.13781959, -0.104369596, -0.1716888, 0.066005155, 0.09754473, -0.15292053, -0.16003682, -0.048702423, -0.05927489, -0.13032384, 0.043693352, 0.0689346, 0.10729908, -0.009154844, -0.04921191, 0.070496954, 0.1731144, 0.012058541, -0.2500855, -0.01619179, 0.026617358, -0.1935839, 0.01623556, 0.014201858, -0.0986101, -0.2756434, 0.08389769, 0.1516223, 0.19467632, -0.0018969028, 0.017242907, 0.15773632, -0.055067193, -0.0325957, 0.049914435, -0.021878712, 0.06896498, 0.14983545, 0.008465866, 0.09869154, 0.06883138, -0.020244509, -0.07229967, -0.21563722, -0.12551808, -0.10006683, 0.08317472, -0.05924448, -0.013871372, -0.068077125, -0.046977352, -0.044165306, 0.111506104, 0.047822587, -0.029773701, 0.12482829, 0.099965826, 0.054471813, -0.021105586, -0.05276743, -0.047807954, -0.04948872, 0.017320912, 0.048647527, -0.012336549, 0.052499287, 0.08941426, -0.0070569254, 0.15508391, 0.03485226, 0.09186569, 0.100020885, 0.05346846, -0.015360585, 0.0747532, -0.14704904, -0.12017475, -0.033786375, 0.038963422, -0.15343162, -0.2048422, -0.09376997, 0.07258202, 0.044594146, -0.045622777, -0.053621728, -0.13939464, -0.14077483, -0.12949124, 0.01217738, 0.03614316, -0.15728904, -0.017270638, 0.0073278504, 0.020234622, 0.09305969, 0.025142945, 0.029868694, 0.036998153, 0.15080452, 0.036690842, 0.03428531, -0.020532526, 0.03574691, 0.090418145, 0.028756978, -0.013667079, -0.019925175, -0.10544086, -0.00048753375, 0.006313998, -0.032748334, -0.122414865, 0.08925533, -0.02207272, -0.068712674, 0.01131736, 0.015170973, -0.037777673, 0.06302235, 0.10546225, 0.031768188, -0.1655218, 0.03810691, 0.027545745, -0.0077548735, 0.07698507, 0.010537869, -0.10644807, 0.03691115, 0.106341474, 0.06076827, 0.124785125, 0.036116794, -0.07338645, 0.16704985, 0.09510831, -0.049471453, 0.017923865, -0.07296767, -0.12301271, -0.07899753, -0.03827748, 0.10352256, 0.006504963, -0.0147084575, 0.033423297, 0.049119197, -0.015888628, 0.06736422, 0.100022055, -0.03732788, -0.081417575, -0.018021718, -0.14024349, 0.057056636, 0.08518067, -0.05652465, -0.023207614, 0.18215108, -0.020656293, -0.070409775, 0.077299334, -0.06807289, -0.07307996, 0.059033755, 0.041682284, 0.1327125, -0.011996319, -0.031479817, 0.011156565, -0.08616213, -0.121376656, 0.025148472, -0.058338396, 0.10830554, 0.0651967, -0.22273538, -0.10509533, -0.012865791, 0.07829632, -0.11524101, -0.021657333, -0.14610274, -0.030058261, -0.030457815, 0.050639167, 0.15853594, -0.027500307, 0.07555428, 0.032911964, -0.050979547, -0.057939183, 0.050453708, -0.17554627, -0.062282, 0.119285785, 0.07886023, -0.11488994, 0.0267027, 0.009698923, -0.14084278, -0.088580094}, {-0.13531744, -0.024514645, -0.06000954, 0.057721674, -0.021233479, 0.0051098634, 0.04637298, -0.02495372, -0.05991075, -0.05814905, -0.11858584, -0.047876142, 0.002197038, 0.00421175, -0.032666262, -0.048153657, 0.15916066, 0.15403652, 0.07109293, 0.12122831, -0.03970521, -0.02965467, 0.065072715, -0.05070547, -0.072130136, -0.015468916, -0.0313506, -0.093205445, 0.03931206, 0.00801129, -0.017339045, -0.024849113, 0.052076735, 0.11346284, 0.0012854796, -0.00911649, 0.030005777, 0.06769542, 0.09481027, -0.06525559, -0.054766394, -0.11187091, 0.027506478, -0.06366167, 0.10784063, 0.02913518, -0.04666514, -0.22892705, -0.0063648093, -0.046672873, -0.020324158, -0.087695874, 0.02671173, -0.0547684, 0.10041388, -0.017932955, -0.09990844, -0.07601249, -0.08765969, 0.021324154, -0.07063577, 0.04740156, 0.12787713, -0.041514263, -0.04549531, -0.16309795, -0.052112762, -0.02188087, -0.025540307, 0.078889884, 0.024233382, 0.14098103, -0.059495997, -0.033666532, 0.06653256, -0.015410405, -0.14382927, 0.16718577, 0.23787376, 0.020454256, -0.07307724, 0.038430374, -0.08501026, -0.046984557, 0.032036833, -0.010244723, 0.11033219, 0.05216067, 0.14859349, -0.044602174, -0.027821792, 0.018950813, -0.10649832, -0.2885435, -0.04043778, -0.016457802, 0.054761797, -0.12041795, 0.064920105, 0.01955524, -0.005361175, 0.062656336, -0.02323143, -0.007293398, -0.014865794, 0.019745491, 0.015946653, 0.045419436, 0.024702542, 0.030728279, -0.06262886, -0.05345193, -0.08497768, 0.007559621, 0.03256557, 0.004752699, -0.065037295, 0.12880583, 0.046737004, -0.0067003258, -0.05763306, 0.064257786, 0.11046537, 0.11747003, -0.009098426, -0.090000965, 0.028431455, 0.013110302, 0.08381351, 0.12830758, 0.13780442, 0.085483775, 0.101524785, -0.0182477, 0.09516564, 0.06787495, -0.120208144, -0.06294246, 0.0073255226, -0.06584182, -0.22828494, -0.25349462, -0.28335196, -0.089914575, 0.03786125, 0.0362483, -0.002892824, -0.10012609, -0.047383606, 0.13400894, 0.019515295, 0.08127514, 0.024230562, 0.08626381, -0.014308804, 0.032139383, -0.1399427, -0.11946274, -0.11211403, -0.21577427, -0.014359045, -0.13926847, -0.11595, -0.17127728, 0.087578185, 0.09352186, 0.030524291, -0.08134074, 0.025733825, 0.02561033, -0.09506533, 0.011284138, -0.12936458, -0.109626815, 0.014896828, 0.05529187, -0.002383322, -0.040385984, 0.025801972, -0.040785227, 0.014140712, -0.077481724, 0.09028416, -0.028236495, -0.059785258, 0.008737275, -0.07251977, 0.06523689, -0.11892464, -0.024915367, -0.08629929, -0.014589463, -0.06383556, 0.062330615, 0.092870235, 0.13004765, -0.115254104, -0.07829706, 0.061831057, 0.024303725, -0.081410706, -0.031940665, 0.009855518, -0.10912157, 0.1051285, 0.015846264, -0.12626404, -0.015595619, 0.049433466, 0.02294145, -0.035401985, 0.08861436, -0.083534606, -0.032036077, -0.052308157, -0.013637835, -0.022502372, -0.05839058, -0.07753201, -0.03961049, -0.34155264, -0.20903006, -0.15828839, 0.037809905, 0.03018111, -0.017476514, 0.045889102, -0.071965486, 0.11463173, 0.15835814, -0.07551792, -0.01649056, -0.00071439805, 0.10643343, 0.10089265, 0.11117876, 0.12963924, -0.10331322, -0.19459197, -0.15702285, -0.13288778, -0.042056505, -0.16994599, -0.035910614, -0.01012866, 0.057637196, 0.07460664, -0.025271475, -0.025088923, 0.07888944, -0.008424431, -0.049035784, -0.0935929, -0.0041727945, 0.118446864, 0.08568158}, {-0.0026982669, 0.07480705, 0.13455938, 0.052334923, -0.013070478, 0.10094778, 0.1770235, -0.10603006, -0.024775038, 0.013148585, -0.07127439, -0.11887176, -0.05116014, 0.1992169, -0.28763902, -0.22892699, 0.14727478, 0.1091372, -0.16352761, -0.2551459, -0.1012436, -0.10789969, -0.12664539, -0.021680454, -0.048650898, -0.0046837176, 0.011950737, 0.13937624, -0.22036257, 0.09943221, 0.041345704, 0.12336659, -0.085095644, -0.006034909, 0.010840851, -0.02866596, 0.0105802575, 0.10645368, -0.064638905, -0.05535447, 0.01615677, -0.13472356, -0.16074148, -0.11839833, 0.02977329, 0.00486111, 0.07875694, 0.1372693, -0.030246906, -0.02342874, 0.005972594, 0.030182084, 0.06128919, 0.09224042, 0.024118898, 0.14227824, 0.06938133, 0.11419908, 0.16959167, 0.08007693, 0.081161804, 0.115178406, 0.07650083, 0.042866316, -0.0073162, -0.13052756, 0.13517264, 0.09603435, 0.0023808242, -0.17473288, 0.036362074, 0.28290448, 0.005768401, -0.22855061, -0.006844133, 0.1335598, 0.1085094, -0.16528618, -0.09609492, -0.14296368, 0.085381284, -0.09739399, -0.0907427, 0.028419303, 0.008850946, -0.028791133, -0.034800813, -0.09412453, 0.17063978, -0.0070678256, -0.037357584, -0.004497654, 0.22792353, 0.12390984, -0.110454254, -0.115372404, 0.22934216, 0.05957671, -0.01690632, -0.13095956, -0.23464473, -0.32226872, -0.081476256, -0.10438913, -0.1170806, -0.1055175, -0.20350745, 0.038943425, -0.026147764, 0.0068842354, 0.1125586, 0.14703818, 0.011552762, -0.06858588, 0.013508262, 0.26870716, -0.07182875, 0.032568496, -0.0532044, 0.17796004, -0.027115136, -0.15534501, 0.033159886, -0.0499302, 0.17861804, -0.12966667, -0.12295902, 0.06314365, 0.025279617, 0.07602274, 0.049358387, 0.02653684, -0.017646465, -0.102719486, -0.11538271, -0.21605258, -0.22932065, -0.033352602, -0.0033643162, -0.110798545, -0.0843525, 0.08937952, 0.18715999, 0.016931448, -0.016075782, 0.032142293, -0.007977342, 0.03888926, -0.04240117, -0.19172147, -0.15932286, -0.08355837, -0.058787048, -0.093961716, -0.07955152, 0.19400029, 0.037521645, 0.041142564, 0.034678854, 0.13490988, -0.25809327, 0.018863171, -0.045294955, 0.07210851, -0.07673005, 0.09642474, -0.04162238, -0.032536384, 0.1893608, 0.20727295, -0.1560637, 0.07842401, 0.034314003, 0.23123002, -0.12919603, -0.17946912, -0.061771333, -0.08507309, -0.023845194, -0.09673565, 0.021941002, 0.09916253, -0.011573205, -0.10069954, 0.08541436, -0.0008771662, 0.03983358, 0.028228277, -0.035473596, 0.06674043, 0.008202497, -0.03220198, 0.10740196, 0.123364404, 0.17361733, 0.12177855, -0.17163566, -0.016418416, 0.098835066, 0.095679514, -0.26847976, -0.21146394, -0.048283033, 0.033158384, -0.004450999, -0.1881157, 0.055995733, -0.027652783, -0.1859123, 0.046588033, 0.11245693, 0.10098348, -0.17414571, -0.17050804, -0.057415213, -0.024275161, -0.011673903, -0.09458345, -0.08080718, -0.06401952, 0.035904612, 0.1354396, 0.053297795, 0.025045395, -0.11546457, 0.012228069, -0.11746455, 0.032933142, -0.07052605, 0.023692913, -0.056017227, -0.02834893, 0.04121073, -0.10397607, -0.0832304, -0.01566361, -0.06309979, -0.043768615, 0.066230975, 0.08364924, -0.10756247, -0.020985976, 0.026475599, -0.10662593, 0.11446797, 0.025800023, -0.19389805, -0.061863307, 0.29280186, 0.07146625, -0.06634959, -0.061833955, 0.11617614, 0.013796326, -0.049212743, -0.10851746}, {-0.100058176, 0.101405926, -0.19701879, -0.21001376, 0.16575144, 0.07145306, -0.007875263, 0.02222229, 0.13354085, 0.18060736, 0.12329728, 0.14741877, -0.08212316, -0.08490448, -0.09779872, -0.12909122, 0.06629556, 0.08565712, 0.10148736, 0.22018649, -0.00092179485, 0.11488142, 0.036328867, 0.1091834, 0.018673927, 0.045302287, 0.02582877, -0.099662, 0.035850592, -0.09584303, 0.05978538, -0.07175942, 0.027991509, -0.023934908, -0.07481597, -0.06029023, -0.008700061, 0.029275466, 0.05849912, 0.0009145104, -0.048871953, -0.03697247, 0.10691094, 0.15519099, -0.096594594, 0.11208115, -0.08375233, 0.09243556, -0.037698314, -0.02671845, 0.021026153, 0.1742106, 0.056732096, -0.0020335584, -0.019890612, -0.09734417, 0.031649787, -0.06873297, -0.022974227, -0.048206955, -0.086457446, -0.022463923, 0.12150434, 0.092853814, 0.11871785, 0.053758577, 4.4756365e-05, 0.0662127, -0.023801874, 0.10613786, 0.12893559, -0.30066094, 0.009852961, 0.17271551, -0.09712933, 0.006972766, 0.07737332, -0.04283357, -0.11614954, 0.03349711, 0.07592433, 0.052463803, 0.049667314, 0.0064755958, 0.015326783, -0.035650667, 0.01137089, 0.023202678, -0.039788704, 0.01961923, 0.042733427, 0.08251819, -0.15055673, -0.110577516, -0.10785834, 0.03869504, -0.02318552, -0.08668588, 0.10166322, 0.011624566, -0.009969218, 0.045494933, 0.101274244, 0.07029172, -0.121114016, 0.03491375, 0.16595896, -0.0962861, 0.01652125, -0.016138423, 0.054275826, -0.03858832, 0.027827805, 0.013285159, -0.07582218, -0.10267667, 0.017606476, 0.081267245, 0.16247858, -0.040740613, -0.030019935, -0.031875465, -0.20239277, 0.09826383, -0.016604343, -0.05004119, 0.0044404566, 0.08955674, -0.041734196, -0.050658416, -0.032916915, -3.245422e-05, -0.17416066, -0.053004563, -0.008403421, 0.048016127, -0.073555864, 0.022494765, 0.010972268, 0.051423587, 0.053021863, -0.015494006, 0.13989057, -0.010519313, 0.01979967, -0.050279252, 0.05253939, -0.0826817, 0.031903304, 0.0062824073, -0.0700191, 0.050448995, -0.1292519, 0.08308542, -0.020744987, -0.16991088, -0.10714261, -0.045387972, -0.038818046, 0.07663048, 0.038384657, -0.040416524, 0.10137339, 0.08184693, -0.037644856, -0.073950715, -0.06594423, 0.07096409, -0.08436135, -0.09843732, -0.008141209, -0.08295875, -0.002837737, -0.08344914, -0.08328818, 0.0635477, 0.0032229952, -0.015339397, -0.084819205, 0.112012565, 0.058797482, 0.061642226, 0.07568977, 0.028600007, -0.00043621103, -0.10313026, 0.009307664, -0.115995094, 0.0034480065, -0.07038264, -0.0053028283, 0.057483006, 0.02993829, -0.16111015, -0.1162228, -0.083155386, 0.04838279, 0.007955949, -0.052728742, -0.15328015, 0.048026256, -0.046273604, 0.16123588, 0.21080014, 0.101685144, 0.033750333, -0.05634106, -0.18869694, 0.073770866, -0.15113948, -0.14225005, -0.20077023, 0.1077597, 0.057980943, 0.16401006, 0.27081403, 0.0028562674, -0.0030515366, -0.038289588, 0.05848264, 0.055655405, -0.0027309603, -0.012869514, -0.0676025, 0.0618744, -0.11764413, -0.029751215, 0.062231433, -0.06739325, -0.0120751485, -0.10951744, -0.07437377, 0.07651547, -0.16528551, -0.020187903, -0.06397186, -0.01422926, 0.0549217, 0.031390645, 0.10783942, 0.11992824, 0.089828365, 0.080850504, 0.07091725, -0.11294593, 0.005322972, -0.044384908, 0.038446058, -0.035207782, 0.015276917, -0.1409689, 0.005790468, -0.093813986, -0.07147211, -0.01747889, 0.10005639}, {-0.08473364, -0.0043356335, -0.10632773, -0.0020203604, -0.017956322, 0.13253368, 0.09814978, -0.019569963, -0.0075593963, 0.13456689, 0.0616923, 0.08912315, -0.06806643, -0.027198274, 0.04405871, 0.08793439, -0.12811215, -0.016263574, -0.044640344, -0.13570681, -0.11080685, -0.14131975, -0.010845289, 0.1234008, -0.1996314, 0.0079183495, 0.06548957, 0.18259338, 0.010400619, -0.15163949, -0.011549531, 0.14140062, 0.08831219, 0.01245078, -0.015966136, 0.03575518, 0.049092952, -0.10555519, -0.021114314, -0.02772964, 0.07880129, -0.1034088, -0.040565073, -0.010543659, -0.10583136, -0.031779796, -0.04724814, 0.010913703, 0.1429905, -0.1792945, -0.15039913, -0.10582272, 0.051835712, -0.098913, -0.07618589, -0.013288781, 0.18744831, 0.11877134, -0.01795491, 0.03352366, 0.14453699, -0.14226137, -0.011081994, 0.054390963, 0.13886447, -0.019670697, -0.15812522, -0.009884546, 0.01781773, 0.044201065, -0.11147073, 0.011272602, 0.12256612, -0.0914519, -0.056178417, -0.08221465, 0.06685583, -0.098493226, -0.05042248, 0.087579004, -0.010197674, 0.022179373, 0.0023347756, -0.002525515, 0.10607442, -0.034429267, -0.1341471, -0.12742154, -0.016709283, 0.06198525, 0.007989327, -0.06761792, 0.17749476, 0.14321436, 0.05230827, 0.035444517, -0.047811076, -0.03279945, 0.01799125, -0.09427249, -0.29668465, -0.1317223, 0.15447482, -0.072271936, -0.0637464, 0.018188799, 0.04170839, -0.016557641, -0.16072991, -0.16380924, -0.06181541, -0.072589405, -0.11710508, 0.08833785, 0.041712493, -0.009841956, -0.1326481, 0.060063343, 0.09238263, 0.0714137, 0.04263125, -0.033900037, 0.026192315, 0.042389695, 0.14827128, -0.086795904, -0.14267908, 0.03747077, 0.07379906, 0.15019266, 0.062857784, 0.05565575, -0.12541613, -0.1576688, -0.19286305, -0.24403663, -0.24432607, 0.04831293, 0.00015451404, -0.03607785, -0.2296858, -0.12611589, 0.033731334, -0.022391964, 0.027545568, 0.09860471, 0.09971773, 0.078904785, 0.02337914, 0.019282132, -0.09377884, 0.063953444, 0.0026378115, 0.11886164, 0.03266627, 0.039990433, -0.1407095, -0.13572595, -0.10199354, 0.027038286, -0.3313754, -0.28656313, -0.11169613, -0.08034386, -0.112798266, 0.038517784, 0.080502145, 0.09247147, 0.04794684, 0.14631394, 0.034905434, -0.022281682, -0.039113145, 0.12784313, 0.038856905, -0.10592386, 0.049492035, 0.01402499, -0.083453715, -0.02037854, 0.1243658, -0.11424531, 0.002415015, 0.009503363, 0.09512047, 0.014648741, 0.060610767, -0.010978587, 0.13292046, -0.066427134, -0.2559919, -0.053669386, 0.13691148, 0.059548777, -0.049905755, 0.08839817, 0.04532546, 0.031482387, -0.0028356693, 0.16265164, -0.011636587, -0.11322818, -0.036585487, 0.21505417, 0.006134475, -0.10058573, -0.040237017, -0.05266623, 0.046487402, 0.11157115, 0.09587211, 0.116439305, 0.1809416, -0.12858573, 0.048776962, 0.1195455, 0.100395694, -0.0022445691, -0.0406511, 0.022744263, 0.068197854, 0.06563491, -0.07506671, -0.21290767, -0.2208502, -0.051922575, 0.06253824, -0.061540592, -0.11402744, 0.07497361, 0.035574142, -0.051294718, 0.122303866, 0.05739326, -0.2587839, -0.14327306, -0.30079997, -0.21367997, -0.12486778, 0.12653786, -0.032197673, -0.058161713, -0.1516369, -0.07028178, 0.19753118, 0.1395607, 0.06718246, -0.039788943, 0.21824093, 0.18715465, 0.0025274279, -0.031137653, 0.11242872, -0.06045903, -0.120755136, -0.07958187}, {-0.23985273, -0.18654947, -0.08937262, 0.051765915, -0.09587621, -0.05578959, 0.008260979, 0.074253306, 0.18734552, 0.08411849, 0.10163067, 0.03182526, 0.13662171, 0.010543758, 0.07236338, 0.045243435, 0.060492337, -0.073029615, 0.09735766, 0.09978192, 0.044945795, -0.06970744, 0.05949741, -0.0033533233, 0.018625714, 0.2184856, 0.06029211, -0.07336706, 0.016190412, 0.1323962, 0.030077694, -0.11642017, 0.18294844, -0.0054617464, 0.081485204, -0.027042449, -0.06258758, -0.06859049, 0.0010794487, 0.14298256, -0.15730985, -0.05223209, -0.02121894, -0.033388488, -0.024363551, -0.034912027, 0.009211422, 0.05403461, -0.09448841, -0.093475, -0.09551189, -0.08988598, 0.039459, -0.020473033, 0.04727553, -0.21396515, -0.04553471, 0.07719965, 0.049079083, -0.11725872, 0.0035589973, -0.07560673, 0.056655966, -0.0045899525, -0.109715395, -0.07831633, -0.21877241, -0.12611768, 0.02524867, 0.008882071, -0.13039969, 0.011451792, -0.020966955, 0.16891089, 0.03929183, 0.07472622, -0.17103018, -0.009805522, 0.030798368, 0.049787663, -0.110971436, -0.030614289, 0.13422626, 0.104709856, 0.052357394, -0.010069775, -0.06590985, -0.003963553, -0.11047875, -0.067113146, 4.2987827e-05, -0.06623182, -0.07987243, -0.093549356, 0.06547899, 0.0005655483, -0.102408685, -0.06604237, -0.04521324, 0.08576004, -0.12878089, 0.115484625, 0.058950607, -0.024449987, 0.07305383, 0.1592876, 0.088022925, -0.16363636, 0.10235431, -0.0025075076, 0.05632821, -0.037505705, 0.053161476, 0.04674172, 0.001735932, -0.12237378, -0.0408694, -0.012240308, 0.16106898, -0.04688447, -0.05491929, -0.07374037, 0.026212804, -0.12528026, 0.0053258524, -0.031038221, 0.02431158, 0.04910046, -0.090011366, 0.054724425, 0.09655015, -0.04203297, -0.050602384, -0.15964656, -0.12864888, -0.05595858, 0.15907206, -0.0523098, -0.033570457, 0.00785498, 0.4110703, 0.14478451, 0.12763539, -0.026069846, 0.15830602, 0.045078278, -0.001870081, -0.050957922, -0.092682354, 0.08559065, -0.015384931, -0.021785755, -0.00029784732, 0.0046990816, -0.11111749, -0.16215591, 0.05800329, 0.10413772, -0.039376646, -0.031554446, -0.22198631, -0.09456397, 0.0638362, -0.09049626, -0.0064685578, -0.018670978, -0.0068791527, 0.009532274, -0.14654931, -0.14679115, 0.07752537, 0.060129143, -0.06140739, -0.17428963, 0.058559116, -0.062342346, 0.13710225, -0.009364074, 0.043370068, 0.102171965, -0.020270204, -0.013438554, 0.018458426, 0.10729826, -0.13312323, -0.046772614, 0.03648745, -0.10211671, -0.084940076, -0.03295483, -0.0580198, 0.024363559, 0.019385964, 0.053845055, 0.11087686, 0.0048698015, -0.033594757, 0.018627804, -0.021488495, -0.077819265, 0.04110593, -0.06908141, 0.013893757, -0.010151776, 0.0405826, 0.027060656, -0.113483876, -0.05331807, -0.122852296, 0.05821111, -0.0009946, 0.008976562, 0.046803698, 0.02558676, 0.06301353, 0.04246086, -0.014025973, 0.107659504, -0.039594974, -0.071407266, 0.059971806, -0.043287262, 0.016768686, -0.10756093, -0.020798624, -0.02852557, -0.050574303, -0.069732234, -0.24253586, -0.09700713, 0.06997842, 0.12764774, -0.0041966834, 0.012774018, 0.008397047, -0.015608723, 0.025816279, 0.062288612, -0.12105966, 0.13101833, -0.12256824, -0.045170866, -0.11578679, 0.024727505, -0.013261886, -0.03945855, 0.007524553, 0.06566581, -0.21176936, -0.06385651, -0.045248646, -0.040845618, -0.19822034, -0.18218482, -0.039582733, 0.065653965}, {0.0033434432, -0.016019274, 0.0037355504, -0.032324113, -0.03251685, -0.013386308, -0.045596503, -0.05167805, -0.06779668, 0.0021023822, -0.05726992, -0.012204965, 0.010851759, -0.07445654, -0.041825112, -0.08762238, 0.007831027, -0.016797317, -0.032259226, 0.02892161, 0.002356346, -0.06533184, -0.0122361835, -0.03575428, -0.047538836, -0.00087923324, -0.033745687, -0.043407105, 0.019647779, -0.07268449, -0.030313153, 0.015233527, 0.019540984, 0.027073588, -0.023532199, 0.012011871, -0.06373853, -0.02100498, -0.045245938, -0.00010815462, -0.06636648, 0.0046546757, 0.023438565, 0.03986864, -0.010567971, 0.057100393, -0.06790092, -0.026563458, -0.010055896, -0.006827483, 0.0294336, -0.05031544, 0.017925737, -0.067503236, -0.051705312, -0.0042505115, -0.06956909, -0.06825884, -0.06433267, 0.04955625, 0.004859211, -0.028792782, -0.033183496, -0.06332974, -0.09047567, -0.05243665, -0.06930996, 0.0042148903, -0.036542416, -0.02572144, -0.083356366, -0.02895583, -0.018228775, -0.06255928, 0.0037407815, 0.03827138, -0.068764515, 0.0015516314, -0.047843974, -0.0094486745, 0.0177618, -0.031000892, 0.04071571, 0.029603297, -0.04940846, -0.046884708, -0.07464161, 0.011164941, -0.055682227, -0.052386187, -0.048912723, -0.07063652, -0.05971305, 0.04689753, 0.026049228, 0.04287733, -0.039166234, -0.034474872, -0.030779412, -0.0076298825, -0.074011706, -0.019244008, -0.068159945, 0.0010271432, 0.018380303, -0.02680916, 0.029705042, -0.05454696, -0.017662888, -0.047393087, -0.006934181, -0.033710588, -0.04433781, -0.06922249, -0.03202352, -0.00046048654, -0.019847523, -0.0864778, 0.032781526, 0.037493825, -0.046528656, -0.008887212, 0.032657936, -0.068202995, -0.064075485, 0.024158886, -0.010072045, 0.011051503, -0.06052844, -0.026816944, 0.0028430626, -0.051543236, -0.029017096, -0.06836849, -0.03516284, 0.030761687, -0.059066802, -0.0048279166, 0.036709473, -0.026688559, -0.057351828, -0.031587694, -0.034168463, -0.0013660761, -0.093087494, -0.004967081, -0.041123312, -0.016811008, -0.04383373, -0.003552512, -0.047681388, -0.065722965, -0.05404279, -0.05468097, -0.03928047, 0.04051217, -0.048350945, -0.036739245, -0.05979689, -0.04024752, -0.010595534, -0.04695849, -0.008187757, 0.012275502, -0.019483965, 0.015612426, 0.00549067, 0.03893499, -0.012036399, 0.03691471, 0.0379305, -0.0021440221, 0.026524616, -0.050705794, -0.050709978, -0.0047674575, 0.0111534735, 0.023143515, -0.02825273, -0.020337718, 0.010870035, -0.021730956, 0.035342477, -0.040728707, -0.03503541, -0.013441854, 0.02448638, -0.054791734, -0.02634507, 0.036539767, 0.004136426, 0.035326608, -0.054861613, -0.07710167, -0.04266926, -0.035139404, -0.05582034, 0.002208802, -0.022572525, -0.039989024, 0.02294303, -0.011317542, 0.0061423103, -0.03518445, 0.032309473, -0.05543434, 0.036723427, -0.042812318, 0.017691366, -0.03146289, 0.010844239, -0.061293475, -0.049056716, -0.044618055, -0.05628442, -0.03954286, -0.026383834, -0.011538712, 0.02885816, -0.019674053, 0.0524447, -0.038589373, -0.062083784, -0.015882168, -0.02016493, 0.011003723, 0.0489009, 0.012550583, -0.061141856, -0.030169746, -0.048629843, -0.05839229, -0.0044703353, 0.04570565, 0.019049242, -0.010096931, -0.013587364, -0.029268354, -0.038168613, 0.045967944, -0.032132648, 0.009999104, -0.054707415, -0.025942238, -0.03189527, -0.07585947, 0.008131751, -0.08415171, -0.061210215, 0.034646995, 0.04978053, -0.04362226, -0.05352354, -0.060158674, -0.017739281, -0.06529756}, {-0.045022566, -0.18011363, -0.02428745, -0.015013156, -0.004630772, 0.042793006, 0.10871324, -0.00570465, 0.11219859, 0.060448527, 0.07676131, 0.10124708, 0.015533991, -0.08828282, -0.087651394, -0.006552619, -0.037447304, 0.05115555, -0.11551353, -0.09645521, -0.058026403, 0.05759529, 0.03221398, -0.02990663, -0.13266777, -0.030603744, 0.025219625, 0.09403365, -0.13121769, -0.036034077, -0.03976274, 0.04034887, -0.03218909, 0.04371939, -0.044433646, 0.031366833, 0.06079857, 0.00655558, -0.09297012, 0.06864689, -0.04013697, -0.23514985, -0.015860239, -0.0051862868, -0.065267906, -0.08622161, 0.0064673973, 0.008998902, 0.091152534, -0.09828604, -0.015820706, 0.13830906, 0.1602553, -0.07994809, 0.02931273, -0.032319788, 0.013326031, -0.011257208, 0.026233593, -0.036750093, -0.0813092, 0.019715931, -0.04703429, 0.05493975, 0.11187119, -0.06587111, 0.05221318, 0.056093328, 0.046268973, 0.042103276, -0.07865041, -0.107210346, 0.06286258, -0.026834028, -0.09495457, -0.032406524, 0.11558529, -0.13929592, -0.07635162, 0.0862112, 0.023948533, -0.033805046, 0.019512294, 0.023379138, 0.08686848, 0.04611216, 0.009013571, 0.08269489, 0.060226507, 0.013158829, -0.021089956, 0.057293307, -0.02898659, 0.054928638, -0.1920416, -0.042975068, -0.09146345, -0.09348446, 0.0061209956, -0.07664907, -0.16304857, -0.097589135, 0.10629895, -0.07499433, -0.12458319, 0.060508616, 0.02291156, 0.009755597, 0.016979657, 0.00019350537, -0.017415762, 0.098569304, -0.0018254187, 0.18223645, -0.039238658, -0.09578252, 0.092362806, 0.05964735, 0.07382709, 0.004825022, 0.008833784, -0.20715466, 0.022582369, -0.0029394715, -0.014647226, -0.079024434, -0.059691306, 0.052256785, -0.038718633, 0.045801006, -0.033160638, 0.010345552, -0.20770235, -0.16089618, -0.046003, -0.11356964, -0.17237093, 0.030550204, 0.04708063, -0.006133712, -0.015410121, -0.01989369, 0.04916801, -0.20113185, -0.03908719, -0.12402943, -0.0034200875, -0.042678077, -0.11079141, 0.02224228, -0.10040428, -0.059067197, -0.082031935, 0.08948848, -0.0013078289, -0.14869703, 0.02463998, -0.009409143, -0.032295976, -0.047024094, -0.10302001, -0.12051033, 0.05946623, 0.04639115, 0.09275035, -0.037817635, 0.03555848, 0.04368279, 0.12311027, -0.072804056, -0.086031295, -0.065511264, 0.04867969, -0.032625537, 0.0061344104, -0.05710324, -0.05142246, -0.04454524, -0.08380117, -0.0017816839, 0.07117016, 0.05521576, -0.011467038, 0.08669188, 0.03860728, -0.11322379, 0.05940869, 0.070033155, -0.12136545, 0.024662914, -0.10074469, 0.035662204, -0.028668245, -0.07543151, -0.043497644, 0.020209817, 0.07145413, -0.020462366, 0.006297959, 0.10561942, 0.012094774, -0.06722813, 0.07949083, 0.16717133, 0.08041105, -0.0043511074, -0.0969171, -0.16676939, -0.19020383, -0.036683626, 0.074198246, 0.07619641, 0.038279742, -0.03642375, 0.1503564, 0.117893204, 0.121988155, 0.046119448, -0.041659147, -0.101683885, 0.059550002, -0.045638252, 0.019416686, -0.23574518, -0.0054843607, 0.075274274, -0.034857776, -0.10263446, -0.19786462, -0.18043083, -0.15887897, 0.0009583847, -0.1219057, -0.078135245, -0.02709543, 0.1726334, -0.18099767, 0.10201162, -0.03625807, 0.16302213, -0.07325576, -0.00016416062, -0.0025279045, -0.0018611936, 0.21390197, -0.0599304, -0.056854628, -0.0025887494, 0.1493006, 0.027693514, -0.0150546115, 0.077972986, -0.05661775, -0.094276235, -0.05015069, -0.09529865}, {0.08451161, 0.15393767, -0.018135127, -0.0016702455, -0.025897088, 0.029082326, -0.041037716, -0.068904966, -0.15518323, -0.13847725, -0.20319404, 0.0011584085, 0.021188283, -0.096930295, -0.05495921, -0.009968231, 0.12092336, 0.089414045, 0.040630557, 0.018924478, 0.049930435, 0.033992797, 0.11273, 0.08670401, -0.00355405, -0.14145438, -0.08439521, -0.092429474, 0.025224527, -0.21788283, -0.0023889043, -0.03858865, 0.043722294, 0.032961715, -0.008533619, 0.09203608, 0.09355289, 0.12010181, 0.10530767, -0.15545525, -0.06111678, -0.11801374, 0.0009911339, -0.058758207, 0.004298649, -0.07538923, -0.0032923617, -0.07886033, -0.037401665, 0.005153323, 0.089492254, 0.006617783, 0.12064325, -0.008028997, 0.05699166, 0.076532334, 0.018293817, -0.041921165, -0.07492628, 0.010656147, -0.07338695, 0.09164384, -0.016334537, 0.024450831, -0.07669056, 0.06230259, 0.09586727, 0.06879043, -0.0016147913, 0.09967115, 0.12860738, -0.07448356, -0.0033613667, -0.043837335, -0.004252647, -0.14402217, 0.02675824, 0.18325052, 0.16751657, -0.07527112, 0.005352626, -0.04856278, -0.052591532, -0.07941014, -0.191048, 0.04103785, 0.14331898, 0.08530097, -0.042415954, 0.0018076147, 0.015793284, 0.12615563, -0.1301245, -0.19102119, -0.11416913, -0.10200187, 0.15744491, -0.07515354, 0.00984683, 0.22484112, 0.12488835, -0.08091436, -0.20144247, 0.07440727, -0.11862945, -0.021087714, 0.0044040554, 0.040013336, -0.23570682, -0.11400017, 0.07085641, -0.07276442, 0.01420581, -0.013320319, -0.09704486, 0.104258895, 0.18988979, 0.058039837, -0.064210795, -0.048093166, -0.03631459, -0.07870072, -0.13512506, 0.0168554, -0.12637635, -0.18471356, -0.030522142, -0.13119139, 0.16931717, 0.05597407, 0.07952083, 0.10459945, 0.16748405, -0.011099861, 0.10078416, 0.10516306, 0.0695965, 0.11495015, 0.16447796, 0.032103546, -0.23113428, -0.120246634, -0.058997083, -0.092978224, 0.10478572, 0.092293955, 0.015784053, -0.026076132, 0.18678306, 0.022999275, 0.047139216, 0.07765672, 0.024924833, -0.005096495, -0.015676143, 0.17514344, -0.14116707, -0.13073497, -0.10623866, 0.0077977423, 0.019135673, 0.02812191, -0.002903372, 0.037382975, -0.06270459, 0.08569189, -0.04371963, 0.054294106, -0.013342106, 0.061033078, -0.031139884, -0.022523127, -0.08117239, -0.11944756, 0.025914868, 0.11411332, 0.0016016817, -0.12983654, -0.10738709, -0.05675541, -0.0149591295, 0.026934478, 0.12495691, 0.02925251, -0.012948343, -0.0018976417, -0.058115214, 0.09054938, -0.059589975, 0.019409835, 0.017760325, -0.02838191, 0.04830038, 0.06877914, 0.080341026, -0.041745357, 0.0067198444, 0.0075230533, 0.080723435, -0.02540047, 0.036975533, -0.002756388, 0.075404845, -0.08881556, 0.09988947, -0.015586298, -0.118560985, -0.15771268, 0.14143005, -0.0152609935, -0.069906145, -0.0018715963, -0.0445006, -0.079766504, 0.05272223, -0.02058274, 0.003891534, 0.056235895, 0.023187451, 0.09806158, -0.4305731, -0.15732366, -0.035369117, -0.033035535, 0.10157824, 0.036484163, -0.045279082, 0.12055173, 0.3122136, 0.25970387, -0.16011468, -0.013981017, -0.10997882, 0.1316597, 0.10061606, 0.20406109, -0.06244267, -0.043931056, 0.14136146, -0.04952111, -0.08859849, 0.06570029, -0.08408084, 0.07805816, -0.13691701, -0.03326546, -0.020272702, 0.02635505, -0.07063582, -0.087036595, 0.056708496, 0.016040474, -0.14070472, 0.0025982347, 0.17795382, 0.04291844}, {-0.02363707, -0.13378985, 0.05478648, -0.091455325, 0.11096843, 0.13685009, 0.031171212, 0.104197115, 0.07618051, 0.088963985, 0.03964456, 0.01013695, -0.10683973, 0.04689338, 0.0705064, 0.01427215, -0.11780869, 0.08651975, 0.22214785, 0.16022243, -0.12755288, 0.03787324, -0.004199589, -0.021065572, -0.032171894, 0.09444236, 0.052505266, -0.09808139, -0.011690777, -0.072611846, -0.088613704, -0.06332328, 0.0010162271, 0.15964107, 0.059618536, 0.12170499, 0.008003108, 0.047735512, 0.17418744, -0.018742692, -0.04787488, -0.039668065, 0.040529426, -0.051931188, 0.06489383, -0.083985664, 0.10633205, -0.10107672, 0.021009358, 0.0910283, 0.19373769, -0.0923974, 0.08014943, 0.037146784, 0.080802016, -0.31424424, -0.030648252, -0.1888602, -0.04946427, -0.020989759, -0.07602951, 0.049170088, -0.02307915, 0.039207596, 0.2104154, -0.014542336, -0.2873368, -0.35951608, 0.049782515, -0.2387175, -0.052106604, 0.124170154, -0.019574434, -0.23068234, -0.039777145, 0.06312821, -0.080016606, -0.015886998, 0.050608218, 0.15425265, 0.16411227, -0.03944643, -0.104843006, -0.12655596, 0.20753269, 0.04731685, -0.13945605, -0.10119536, 0.16641884, 0.0024390935, -0.017533874, -0.10440136, -0.073888704, 0.04661777, 0.06463936, 0.029896062, -0.018166868, 0.025134092, 0.0179103, 0.12200974, -0.0578483, 0.062183145, -0.01855795, 0.030452771, 0.093187205, 0.16047706, -0.02305977, -0.077087715, 0.11369548, -0.0063335258, -0.1073316, -0.088770375, -0.18825442, -0.15076119, 0.07897247, 0.09219753, -0.13784958, 0.047131956, 0.0888078, 0.028283108, 0.06136972, -0.024348088, 0.16796246, 0.15665896, 0.03352282, -0.09723299, -0.06631754, -0.0013337444, -0.010662451, 0.030089444, 0.027658096, 0.029493487, -0.1804457, -0.066228285, 0.16361116, 0.0054304595, -0.019003225, -0.008266226, 0.05366584, 0.0147191435, -0.014169718, 0.045423433, 0.034899354, 0.029913625, -0.20328014, -0.049803875, 0.122522235, 0.22334738, -0.059639953, 0.22442952, 0.010156897, -0.104868725, 0.026244571, 0.07704612, -0.0540027, -0.087442525, -0.021288794, 0.060443003, -0.0073207254, -0.056324072, -0.06597939, 0.16353281, -0.17944866, -0.11914835, 0.19845095, 0.10725842, -0.022005381, -0.033360876, -0.081141226, -0.078367725, -0.054713696, 0.036643025, -0.056730635, 0.047040164, -0.03919544, 0.03507766, 0.1975565, 0.08070703, 0.07626602, 0.14447412, 0.10530214, -0.041915078, -0.06580986, -0.23605464, -0.04770391, -0.14159364, -0.107825615, -0.11230976, -0.052760396, -0.23008516, -0.089993514, 0.050134905, -0.24788234, -0.1155858, -0.06406194, 0.040043484, -0.08218248, -0.013833597, 0.1467529, 0.16898468, 0.1528481, 0.0054348214, 0.043635827, -0.03127487, 0.08781371, 0.025895067, 0.0010979201, -0.1105029, -0.14289668, -0.08571299, 0.018265568, 0.09710569, 0.17021878, 0.1106587, 0.014434881, -0.09221824, 0.1496678, 0.07730958, -0.0684732, -0.05474582, -0.025873212, 0.04533481, -0.060501285, -0.04106026, -0.16300842, 0.016620073, -0.15423201, -0.30627584, -0.11891009, 0.036299787, 0.16193463, -0.07664068, 0.031894196, 0.095434986, -0.060884245, -0.03833303, 0.10276936, -0.07746679, 0.09276189, -0.031653002, 0.26737288, 0.3295399, 0.06352078, 0.026998488, 0.25726613, 0.086817466, -0.02989648, -0.066247284, 0.09778073, 0.014009042, -0.013947416, -0.12146738, -0.19200715, -0.1174082, 0.030285511, -0.051021297}, {0.101930164, -0.05536579, 0.046898723, 0.057163447, -0.103842594, -0.16500564, 0.05699542, -0.0037194418, -0.08979264, -0.0015758976, -0.012825613, -0.040020075, 0.16492255, -0.08446427, -0.08741775, -0.12241153, -0.24147719, -0.041130625, -0.063307285, -0.025151001, -0.14383826, 0.08832448, -0.023870613, -0.10522327, -0.24667227, -0.07638956, -0.0189354, -0.119909376, 0.0855002, -0.048284613, -0.18599746, -0.030874176, -0.13442506, -0.076524764, -0.016763631, 0.015839865, -0.009271193, -0.0032816052, -0.018592954, -0.19500847, -0.1576724, -0.13963662, 0.07681625, 0.007911693, 0.045899726, -0.033397388, -0.061579578, -0.08557415, 0.014239863, 0.16793913, 0.08678422, 0.19620335, 0.035133105, 0.110447824, 0.09924587, 0.012795587, 0.12757207, -0.014694562, -0.039013535, 0.0011698605, 0.0084818965, -0.11032504, 0.004604016, 0.05460439, 0.064931475, 0.022797003, 0.07123155, 0.120815046, 0.034300562, 0.018972525, 0.18781807, 0.001753078, 0.091647126, -0.21517149, 0.059652008, 0.1351373, 0.06261072, -0.1268375, 0.025510747, 0.12377221, 0.051778387, -0.031707652, -0.13772725, -0.029289681, 0.10403903, 0.092423506, 0.026358452, -0.03878223, 0.26546288, 0.14291874, -0.06789915, 0.07051523, 0.18310651, 0.069445975, -0.17002738, 0.07622208, -0.1773626, -0.23893547, -0.23403211, -0.12058073, -0.34409913, -0.043831762, -0.1486051, -0.068184815, -0.17788087, -0.019654151, 0.07324129, 0.015838683, 0.1838714, 0.16191262, 0.042949036, -0.009992218, -0.2300496, -0.04501395, -0.06381063, 0.04564672, -0.115891516, -0.0047317706, -0.07331285, 0.059473407, -0.019356268, -0.16555524, -0.038305335, 0.007906523, -0.06934661, -0.042999145, -0.025864188, 0.02053863, 0.003491288, -0.026877383, 0.106482044, -0.0039223833, -0.1726615, -0.07859875, 0.016195739, 0.10125325, -0.5210153, -0.11499013, 0.051343847, 0.0940657, -0.30732268, -0.028283093, -0.018441144, -0.101474844, -0.2075695, -0.17651545, -0.14076006, -0.13292833, -0.23424776, 0.025764333, -0.03428013, -0.043194346, 0.0075165904, 0.07599571, 0.025663264, -0.021346487, 0.0613696, -0.013940517, -0.0031859116, 0.023612399, 0.022249075, -0.06728187, 0.12059644, -0.14748402, 0.29001558, -0.024758019, 0.020329634, -0.13571712, 0.18467268, 0.050709385, -0.050258458, -0.005158978, -0.0016328604, 0.04793925, -0.07088206, 0.033857312, -0.051156573, 0.05801813, -0.04710295, 0.10914671, 0.120259106, 0.015165144, 0.068397015, 0.038753916, 0.10802654, 0.03334312, -0.1240978, 0.093175225, -0.039062608, -0.13837042, -0.09437474, -0.08830665, -0.17848475, -0.14249021, -0.09853184, 0.068143845, -0.25871697, -0.18120001, 0.047913965, 0.01692209, -0.13720725, -0.12386101, 0.05082892, 0.054878708, 0.15366647, 0.12553298, 0.044209342, -0.005249574, -0.30236235, -0.20211631, -0.00705996, -0.049329344, -0.1874716, -0.14278868, 0.0010663843, 0.11207212, 0.03688292, 0.008352511, 0.0036520197, -0.04106863, 0.045328427, 0.112101756, 0.009102203, 0.0073917806, 0.18325394, 0.20777577, 0.007907826, 0.03950831, -0.06430209, 0.11941317, -0.1493819, -0.053158723, -0.095022924, -0.14554605, -0.08530757, -0.078797534, 0.027944805, -0.11822397, 0.0005390987, 0.060161065, 0.1647946, 0.023075014, 0.16636725, -0.024959609, 0.20893793, 0.06761561, -0.095522515, -0.014606024, 0.3349876, 0.17930873, -0.14958125, 0.060508285, -0.07952475, -0.116962984, -0.024825154, -0.054072406}, {0.023148706, -0.043821983, 0.2024403, -0.07210275, -0.07606355, 0.030108757, 0.046821713, -0.07727018, -0.2000283, -0.12671903, -0.046420317, -0.14008316, -0.1436203, 0.10054378, -0.054962743, -0.14075401, -0.008658304, -0.05904871, 0.0048997123, -0.061192177, 0.13477926, 0.113411374, -0.20370886, -0.12683311, 0.040678594, -0.0129863005, -0.13129954, 0.082835324, -0.10533455, 0.059915077, 0.10258594, 0.06312483, 0.059009876, -0.011801389, 0.047210056, -0.00028813275, 0.062027127, -0.12011767, -0.18768741, -0.15604672, 0.028195376, 0.1774142, -0.007852074, 0.08200141, 0.10865963, 0.061246306, 0.029293176, -0.08774264, -0.12660147, -0.007853307, -0.012991218, 0.00408654, -0.04273147, 0.09937483, 0.016513638, 0.069568515, -0.111868374, 0.07951912, 0.012132479, 0.11880803, -0.026499439, 0.019027557, -0.13453154, -0.13966091, -0.13279857, -0.054417793, -0.026639108, -0.005052185, -0.0584333, -0.08381522, 0.041445874, 0.13733535, -0.009308978, -0.007411561, 0.04708447, 0.13711344, 0.16679798, -0.0027955784, -0.17564951, -0.12229839, -0.154725, -0.17580579, -0.041687112, -0.026516061, -0.106431246, -0.049559746, -0.010617886, -0.077803686, -0.072820246, -0.0035761716, -0.01999177, -0.00060837326, -0.030858962, 0.1621064, 0.11115773, -0.13648768, 0.13635318, 0.072660625, -0.057857975, -0.023769569, 0.16744885, 0.057420615, -0.2157013, -0.11147124, -0.018950656, -0.20592536, -0.010734187, 0.020446315, 0.0015619242, 0.051235307, 0.054689083, 0.041497502, -0.016195504, 0.039702725, 0.046999685, 0.14363982, 0.14329928, -0.0957675, -0.10150234, -0.06322136, -0.14282794, -0.12291683, -0.043870512, 0.04748003, 0.050953463, -0.043772314, -0.007024393, -0.01934882, 0.10923368, 0.050257947, -0.044739094, -0.12852328, 0.08500174, -0.0041022995, -0.07856018, -0.045197938, 0.08531694, 0.010648033, -0.030075202, -0.10624775, -0.02679234, 0.03185311, -0.011924024, 0.14118974, 0.07597257, 0.053689312, 0.0020698584, 0.017020268, 0.12550358, -0.1238033, -0.20071234, 0.025257831, -0.0066027213, -0.029670795, 0.046120193, 0.053174157, 0.06928405, 0.16269869, 0.19657981, 0.028046867, -0.018982045, -0.05392617, 0.15271068, 0.076632455, -0.018131541, -0.07173288, 0.078928255, -0.04738781, -0.13761283, -0.050014485, 0.10093224, 0.015332121, -0.0545738, 0.051901404, 0.044898458, 0.0416957, 0.08254161, 0.1322688, 0.06883717, -0.0756763, -0.015224698, 0.017948467, -0.12579335, -0.122425534, -0.1493373, 0.040850844, -0.017268265, -0.03785155, 0.12972009, 0.090993784, 0.007271773, -0.030115409, -0.071484454, -0.06288022, 0.005872132, 0.2364509, 0.023851123, -0.013789952, -0.15563191, 0.02439287, -0.1176371, -0.1140392, -0.2713469, -0.013855032, -0.051434252, -0.24742486, -0.04543375, 0.17217048, -0.054858986, 0.022819087, -0.10437189, -0.11182106, -0.18128926, -0.14967789, -0.2241571, -0.09048041, -0.13523357, -0.16722602, -0.18813765, -0.053947013, -0.02879276, 0.05356771, 0.0315939, 0.12058172, -0.013825681, 0.058915637, 0.098761275, 0.03676285, 0.01536439, 0.028248612, 0.07893094, -0.020630684, -0.12997246, -0.0013824106, 0.093721405, -0.083628975, 0.13798168, -0.023330111, 0.008499335, -0.11199014, 0.023375591, 0.06844208, 0.059130225, -0.06628648, -0.047865354, -0.08861694, 0.028581554, 0.04027367, -0.18153669, -0.13278766, -0.002625135, -0.072050974, -0.0026539066, 0.15080567, 0.014945202, -0.12071545}, {-0.03650687, -0.009048061, 0.016895138, -0.06851389, 0.12038111, -0.08123743, 0.035870668, -0.09172731, -0.055199422, -0.1659668, -0.019355878, -0.106445245, -0.11001404, -0.05974184, 0.02853493, -0.053246994, -0.110130236, 0.07751598, 0.03381555, 0.00810755, -0.087173775, -0.12747219, -0.06318244, 0.10213885, -0.008864446, -0.046107944, 0.10766935, 0.12987307, -0.104876705, -0.114959456, -0.06792339, 0.14412196, -0.07131605, 0.06467844, 0.060917538, 0.036984883, -0.011022337, -0.043438695, -0.018874086, 0.0818956, 0.13730326, 0.08767224, 0.08763802, -0.029472506, 0.08679194, -0.061886027, -0.055420972, -0.05903623, 0.04584099, -0.04255539, 0.004291494, 0.13447464, 0.06290672, -0.034179565, -0.1023531, 0.106381476, -0.044298112, 0.042617865, -0.077858225, 0.06946371, 0.14178999, 0.07149267, -0.21369085, -0.037535194, 0.15176964, 0.04487433, -0.034662265, 0.064868934, 0.1156832, -0.004984805, -0.10941871, 0.013844986, -0.100595176, -0.024583329, -0.11259515, -0.18929797, 0.103612445, 0.11329047, 0.10163555, -0.058682874, 0.016481206, -0.0016732804, 0.09965375, 0.072755456, 0.10233192, 0.14075433, 0.10808261, 0.026209334, 0.054094512, -0.012691725, 0.061772056, 0.069224976, -0.055157445, 0.0013037006, 0.001279828, -0.14473908, -0.17480494, -0.21896613, -0.10876117, 0.033631653, -0.23827186, -0.13007279, 0.08764728, -0.11350613, 0.08854666, 0.12884456, 0.20170592, 0.020858796, -0.1178375, -0.073202536, -0.051572077, 0.05243792, 0.105254225, 0.036548816, -0.061897945, -0.08431355, 0.018290237, -0.0751113, -0.009929485, 0.06191466, 0.031768378, -0.06922459, 0.06450923, -0.10549991, 0.09741663, -0.06930309, -0.07141503, -0.030334726, -0.08497255, 0.0015087876, 0.04247353, 0.071565315, -0.0006197357, -0.07315547, -0.11749311, -0.19459161, 0.052205604, -0.16038002, -0.14142002, -0.121729776, -0.17354144, -0.17577131, -0.07594354, -0.08033576, -0.14729364, -0.030486714, -0.012730159, 0.033144765, 0.092530996, 0.10457798, 0.13811976, 0.1288501, 0.20278795, 0.15123124, -0.0092001185, 0.20665506, -0.08110709, 0.0077251582, 0.07078374, 0.05367486, -0.08474683, -0.025102684, -0.05808627, -0.058687136, 0.04244536, -0.009187405, 0.059868515, 0.040062044, -0.1934952, -0.19533788, 0.088291414, 0.051898554, -0.025085246, 0.017587844, 0.14142567, 0.03187343, 0.04186963, 0.010239321, 0.046382476, -0.021223187, 0.15069784, -0.077722296, -0.039759256, 0.067860134, -0.046531714, 0.075814895, 0.097228855, 0.04370401, 0.30462423, 0.18959826, -0.1280349, -0.10958708, -0.045150314, -0.06752342, 0.06498239, 0.050944418, 0.050816983, 0.07239567, -0.07019993, -0.10075258, 0.22418486, 0.023346934, 0.034119904, 0.06774682, 0.04210265, -0.05559063, -0.061375454, 0.1822047, -0.12642656, 0.021442955, 0.009634667, -0.021110898, 0.26976943, 0.069052, 0.0159112, -0.054987583, 0.115442164, 0.038688533, -0.057589833, 0.016919347, -0.03206555, -0.04029565, -0.014614326, -0.04013352, -0.2126141, -0.09947421, -0.060207088, -0.009155885, -0.30175206, -0.08675023, -0.024938716, -0.056425385, -0.028201269, -0.022148972, 0.032636832, 0.026506485, -0.034105986, -0.062197328, -0.15385336, -0.05759073, -0.062256448, -0.10099839, -0.06881446, 0.03508599, -0.07238149, -0.05830237, 0.01515101, 0.03343536, -0.15251881, -0.12602916, 0.20871453, -0.005613281, -0.024608806, 0.23906875, 0.061306953, 0.018240744}, {0.0054763723, 0.021196425, 0.049474623, -0.011308877, -0.009144998, -0.0046167825, -0.069871984, 0.0026834728, 0.04211068, 0.007079772, -0.028529694, -0.08306768, -0.008178746, -0.008125036, -0.07314965, 0.030256128, -0.03328466, -0.002880269, 0.0473148, -0.0006927803, -0.046598047, 0.008810873, 0.018353513, 0.005827157, -0.041874643, -0.0018847511, -0.061509024, -0.018248763, -0.060641292, 0.013026958, 0.05349394, -0.074270315, -0.03924815, -0.0362908, -0.066624925, 0.033677455, -0.053764198, -0.035116468, -0.07398555, -0.008408717, -0.05255811, -0.057305768, 0.04869913, 0.0216069, 0.00825171, 0.01714309, 0.0005509845, 0.0061697755, -0.055500425, 0.011198852, -0.071411714, -0.031375565, -0.040385455, -0.06083673, -0.06754713, -0.04017354, -0.040571794, -0.045555606, -0.038708456, -0.06088983, 0.028272966, -0.011797708, -0.07042596, -0.054808795, -0.051265854, 0.00041583405, 0.027801976, -0.017172659, 0.016936712, -0.044831816, -0.021804405, -0.034473155, -0.077781476, -0.015574309, -0.005067299, 0.014462036, -0.07343236, -0.025409076, -0.019990217, -0.014010762, 0.0077311206, -0.078736514, 0.022455681, -0.07704264, -0.029562237, 0.004645219, -0.04445747, -0.04450542, -0.08236522, 0.0300044, -0.017789502, 0.0230453, -0.008624067, -0.06722736, -0.03837215, 0.040537592, -0.049040917, -0.03803381, 0.014925065, -0.052614585, 0.0033984017, -0.033522174, 0.017102478, -0.0057816203, -0.05916786, -0.05724256, 0.014058784, -0.035355944, 0.014933455, -0.014440794, -0.040291857, -0.02681153, -0.029695636, 0.02187015, 0.031461563, -0.021789018, -0.050931245, 0.037390273, 0.02974711, 0.033173777, -0.006353821, 0.0075592883, -0.014202587, -0.0337775, -0.07975558, -0.028233372, 0.012193733, 0.028322726, -0.0016657168, 0.012019133, 0.009871275, -0.036351632, 0.020428427, -0.008856062, -0.015432686, -0.018912455, -0.054523323, -0.04666852, 0.0076063476, 0.04986182, -0.009074499, -0.003929628, -0.012292534, -0.028229948, -0.029271832, 0.0132575305, -0.011587153, -0.047619805, 0.005946891, -0.016179517, -0.0019417171, 0.034433685, -0.030461064, 0.052879795, -0.04372644, 0.04399489, 0.007901993, 0.009671068, -0.03010225, -0.028487805, -0.058337346, -0.06756542, 0.036019962, 0.053251196, 0.008893261, -0.031105941, -0.013508626, -0.02768034, -0.06311877, -0.049888395, 0.0021409898, -0.043898378, -0.013140445, -0.053823136, 0.0042062923, -0.047613695, -0.02896676, 0.025247913, 0.036392692, 0.028862936, 0.017182609, -0.016004758, 0.020029208, 0.02534299, 0.02594311, -0.00999262, -0.0124547295, -0.00010468308, 0.025713393, -0.005546239, -0.069897965, -0.031513322, -0.079306155, -0.03387815, -0.0077891946, -0.053416304, -0.06779303, -0.043172825, 0.019402886, -0.026133567, -0.038404223, 0.0016506127, -0.021005346, -0.050248466, -0.036528572, -0.036528353, -0.072648756, -0.07514542, -0.032284137, 0.01263661, 0.046918757, -0.020546377, 0.03662371, 0.014270143, -0.05553966, -0.03252686, -0.021627719, -0.059566636, -0.00037317493, 0.0051177586, -0.059386924, -0.034739736, -0.07139395, 0.053511754, 0.03763696, -0.025942324, 0.038064644, -0.06929791, 0.06039657, -0.04994707, -0.0054015424, 0.029108563, 0.025395067, -0.0074473037, -0.027915513, -0.0059933355, 0.018680843, -0.042466965, -0.027975421, -0.009072546, -0.03270392, -0.030279249, -0.009398003, 0.016991677, 0.014190183, -0.042903684, 0.026392419, -0.050589025, 0.0057361214, -0.023694647, 0.020298738, -0.03268445, -0.03283522, -0.031402554, -0.024668878, -0.038240124}, {-0.081478335, 0.021983705, 0.11885911, -0.004375512, -0.08610392, -0.3143149, -0.037343875, 0.13014585, -0.049716942, -0.07225801, -0.08722879, -0.047973983, 0.19746321, 0.021768713, -0.04104888, -0.077191696, 0.065121405, -0.08986525, -0.109959856, -0.13311724, 0.17952897, 0.26799062, 0.12712736, -0.07162481, 0.0428727, 0.0059116283, -1.7835759e-05, -0.10992925, 0.0681998, 0.15568039, -0.026343007, -0.005500266, 0.008278515, -0.08913999, -0.076593034, -0.28213847, -0.01693023, -0.041751195, 0.047924496, 0.087533936, 0.020963091, 0.03933548, 0.18723182, 0.13395375, 0.011866917, -0.08580369, -0.021594055, 0.018293576, 0.04547694, -0.0075132386, -0.013788439, -0.14039198, 0.04447336, 0.050526567, 0.119662136, -0.013249865, -0.04863466, 0.05918479, 0.11273954, 0.054873012, -0.072149806, -0.015463726, 0.07133733, -0.0128202075, -0.1667935, -0.06403537, -0.0685682, 0.17935276, -0.0752942, 0.040689994, -0.012062917, -0.14130345, 0.038377624, 0.024669979, -0.1108735, 0.014807456, 0.034945864, -0.028607564, -0.08128386, -0.08509424, -0.1548981, 0.056826875, 0.07395253, 0.117342375, -0.0984326, -0.05022591, 0.06955252, 0.09022843, -0.114901, 0.04317969, 0.008425218, -0.041586045, 0.0067070583, 0.073213615, -0.11873338, 0.04116236, -0.11119607, -0.044892076, 0.018885497, -0.050166097, -0.03887114, -0.05859456, -0.0038891425, -0.11922833, -0.10937922, 0.006703762, 0.01491654, 0.12841502, 0.006718741, 0.09543256, 0.07162822, 0.06468153, 0.08094947, 0.022519534, 0.10325064, 0.01879021, 0.09461692, -0.04853553, 0.0065442007, -0.044377487, -0.072656006, -0.034465518, 0.014578671, 0.011713997, -0.06281288, 0.08494195, 0.086325854, 0.0604332, 0.083139904, 0.007537647, 0.005717955, -0.15003121, -0.04656695, 0.10897961, 0.002512926, 0.13656653, 0.03167716, -0.010075825, -0.08693665, 0.026616706, 0.086406335, -0.044443253, -0.023880983, 0.032844577, -0.021910235, -0.014416188, -0.03217696, -0.13903917, -0.0034810454, -0.082329094, 0.039429463, 0.0092436345, 0.03511007, -0.085605234, 0.07464759, 0.05442925, -0.10953239, -0.010374363, -0.035401434, 0.01790527, 0.120117515, -0.0016097918, 0.059533626, 0.193551, 0.08441695, -0.004103393, -0.09845381, -0.13043642, -0.08176606, -0.038865417, -0.03605048, -0.06351096, 0.110218115, -0.118286766, -0.079672344, -0.00010388231, -0.028562343, -0.13070965, -0.15063424, -0.08575371, 0.009519501, 0.036152422, 0.12695158, 0.053715184, -0.15662788, 0.06874457, 0.14177515, 0.09252588, 0.023601592, -0.032167904, 0.06128436, 0.03975999, -0.0002861064, 0.19747503, 0.064896815, -0.15439627, -0.113648966, 0.08011969, 0.08407697, -0.1281043, -0.22908337, 0.03236885, 0.054221205, 0.06140123, -0.06501241, 0.094415575, 0.09125088, 0.08037975, -0.25513062, -0.038846865, -0.034203943, 0.01903009, -0.25581676, -0.066225804, -0.023434281, 0.02522766, -0.06580098, -0.005307405, 0.112935536, -0.015153871, 0.05587998, -0.03137727, 0.05683183, 0.04445659, 0.25477478, -0.047438018, -0.036953237, -0.008800843, 0.080415376, 0.03361605, -0.0947444, -0.01148357, -0.09539746, -0.0929093, 0.032618802, -0.010467786, -0.008846332, -0.04524625, -0.04822548, 0.06390316, -0.093975596, -0.24785458, 0.0036834192, -0.037766423, -0.07928191, -0.08750254, 0.018711966, -0.023634162, -0.13556972, -0.08933314, -0.17213689, 0.06779786, 0.051342405, -0.05095909, -0.038141556, 0.08300009}, {0.34057245, 0.1657612, 0.15035272, 0.0068503045, 0.08986127, -0.094583906, -0.08390048, 0.06561533, 0.033172835, 0.063233405, -0.04028867, -0.053472333, 0.10510205, -0.033547614, 0.021730717, 0.029287245, 0.02058169, -0.020701287, 0.043319736, -0.12558457, 0.05487263, 0.17913692, 0.030925948, -0.09940336, 0.035054717, 0.012532426, 0.035823274, -0.029266698, 0.03703364, 0.09881111, 0.10474536, 0.10504484, -0.10817984, -0.08778643, -0.038169127, -0.2057306, 0.017836, -0.0848822, 0.050874893, 0.050116576, -0.08010709, 0.08002163, 0.13005091, 0.14098215, -0.067857996, 0.03655133, 0.07873122, 0.009515499, -0.11001999, -0.118454844, -0.017287048, -0.013788014, -0.008797731, -0.04460495, 0.10870996, -0.06319799, -0.062192205, 0.03741468, -0.008547622, -0.16281992, -0.111170955, -0.04275147, 0.00792579, 0.07214455, -0.268071, -0.013399192, 0.116599664, 0.18315391, -0.1332365, 0.05168022, 0.0042704763, -0.11283737, 0.031868555, 0.17888196, -0.042268373, 0.044882227, -0.027740335, 0.002705236, 0.04409029, -0.08247168, 0.12284779, -0.12808868, -0.028805219, 0.016604913, -0.021519033, -0.13892531, -0.024868017, 0.04400785, 0.0066729775, -0.14387043, 0.04928008, -0.05504488, -0.06856848, -0.07204958, 0.012515508, -0.070900105, 0.07854305, 0.1585998, 0.14708482, -0.04119812, 0.2800116, -0.05604215, -0.2815543, -0.124286726, -0.017558131, -0.09277409, 0.06450773, 0.10417249, 0.09497494, 0.081826925, 0.14163789, 0.12220578, 0.054114573, -0.01857058, -0.029930826, 0.027118811, 0.04817075, -0.056119125, -0.1793008, 0.016189102, -0.00849633, 0.112399116, -0.008975232, 0.02777745, -0.18160465, 0.01745998, 0.06196534, -0.020457007, 0.09260391, -0.1569896, -0.040224563, -0.015001013, 0.1752227, 0.2916098, 0.035845183, 0.16571283, 0.109861106, 0.0077388394, 0.03509061, 0.16720784, 0.06255653, -0.038334746, 0.0799765, 0.055038188, 0.13589019, 0.073408075, -0.0073032277, -0.15695754, 0.2498921, -0.055882555, 0.018055405, 0.07774012, 0.013168109, -0.024314523, 0.119580574, 0.013177062, 0.07617627, -0.006812614, -0.007827216, 0.14562584, 0.3400625, 0.023690857, 0.16624485, 0.13840045, -0.1677822, -0.075756274, -0.114211, 0.052206602, 0.012011814, -0.07776575, 0.020136451, -0.061365325, 0.19981775, 0.06398708, 0.03379606, 0.046128202, -0.32385945, -0.21603023, 0.015262286, 0.065737374, -0.15757702, 0.110678196, 0.07413998, 0.056366395, -0.082898274, 0.030176679, 0.04579125, -0.10237749, -0.13591687, 0.04814605, -0.0343351, 0.12946433, 0.15082361, 0.20438068, 0.06690835, -0.30972984, 0.044107173, -0.0050901254, -0.07517276, -0.2514796, -0.13822609, 0.0058034537, 0.105976574, -0.013551683, -0.05396097, 0.10031476, 0.14374208, -0.06273676, 0.073620565, -0.16328484, -0.030118642, -0.12256238, -0.16860624, -0.078308456, -0.0047136256, -0.022566311, -0.0794645, -0.01516956, 0.17597741, -0.025419611, -0.062930726, -0.12770686, -0.038850274, 0.061209474, 0.24623601, -0.09024148, 0.098012045, 0.15447655, 0.27043134, -0.075213306, 0.040978935, -0.009171761, 0.04232719, 0.08368149, 0.110185914, 0.059463147, -0.027845576, 0.041764133, 0.09903636, 0.019370295, -0.08417979, -0.09392907, 0.072711065, 0.14332347, -0.2268044, -0.084829494, 0.15213765, 0.08589056, 0.10714388, 0.05469076, -0.052491046, 0.0029247622, 0.19224152, 0.021221502, 0.066475995, 0.012007356}, {0.040759392, -0.011322759, -0.01973015, 0.043482613, 0.057080775, -0.043838955, -0.004345902, 0.027776053, -0.011450863, -0.029379608, 0.060617287, 0.040607393, -0.03559971, 0.03349404, -0.014653631, -0.013247514, 0.054825634, -0.012143261, -0.0054629454, -0.025191389, -0.06385954, 0.035518736, -0.041876804, -0.06066976, -0.0065796794, -0.02112925, 0.0010457538, 0.006768031, 0.05233356, -0.0639236, -0.05204347, -0.0055302717, -0.07049377, -0.06265866, 0.03957991, 0.012877295, -0.040113375, 0.00048989453, -0.00016787452, -0.023714252, 0.038162522, -0.013573709, 0.029884985, -0.063376956, -0.03758581, -0.0016172434, 0.019676195, -0.038084384, 0.03105545, -0.07008405, -0.032118466, 0.026662488, -0.0633048, -0.076213636, -0.014697795, -0.065773554, -0.0001996271, -0.01968253, -0.028723931, 0.01936486, -0.005386332, -0.06837199, -0.07241806, 0.020380218, 0.007970546, 0.023515653, -0.06525139, -0.030374736, 0.03588525, 0.046326786, 0.027874142, 0.03895235, -0.033211708, -0.057235785, 0.018372877, 0.0398401, -0.028218985, -0.02234621, -0.024001485, -0.061356682, -0.046786636, -0.038521506, 0.0153688835, -0.030022193, 0.02784118, 0.04183413, -0.02710097, -0.029777791, -0.032498576, -0.006578055, -0.05572139, 0.031138739, 0.056433063, 0.02211877, 0.049538765, 0.018671962, 0.034400154, 0.047163688, -0.05180684, -0.013927571, 0.012851227, -0.030153997, -0.054711107, -0.033793136, -0.04530174, -0.03957191, -0.06365572, -0.034422036, 0.021466887, -0.041386165, 0.013979124, -0.065313786, -0.04820178, -0.0046639917, 0.05133628, -0.061779656, 0.010521065, -0.007013723, -0.06289218, -0.05565287, 0.012947835, -0.04621559, 0.027646383, -0.05854195, 0.03529258, -0.04736294, 0.010524577, 0.004793048, -0.06929781, -0.04689662, -0.036325373, -0.019195177, 0.03003678, -0.039847694, -0.004256874, -0.04455738, -0.037400305, 0.03289488, -0.028663509, -0.06505994, -0.004113562, -0.015867628, 0.011595999, -0.014397737, -0.0037922252, -0.042717602, -0.05096228, 0.008318384, 0.009429685, -0.00626711, 0.041699503, -0.0040143216, -0.0072384737, -0.025146458, -0.076977104, 0.012231694, 0.036183216, -0.0060590445, -0.057800118, 0.04398913, 0.008584332, 0.03104548, 0.009076877, 0.002413485, -0.024869831, -0.0022175128, 0.001838157, -0.015865633, -0.05508363, -0.051435873, -0.07194742, -0.03980685, -0.024503095, 0.03665954, -0.050607197, -0.07746339, 0.020602064, 0.035595972, -0.059165254, -0.010585602, -0.0008104271, 0.022186188, -0.016980235, 0.014951904, 0.031210687, 0.02649586, 0.017657872, 0.0233964, -0.066067405, 0.00019250895, 0.034680832, -0.065991946, -0.06754917, -0.04606814, 0.022879235, 0.0810278, -0.023191119, -0.03281643, -0.0112055065, -0.05015241, -0.006825027, -0.056569178, -0.056217987, -0.06355497, -0.0338814, 0.02372155, 0.007715473, 0.044998, -0.076495476, -0.05956959, 0.028055921, 0.039197024, 0.034697652, -0.07323917, 0.013580505, -0.0747205, -0.03452757, -0.015630791, 0.013809516, -0.032073066, -0.0654075, -0.07308364, -0.039468788, 0.035111036, 0.022593776, 0.015744947, -0.05080713, -0.073095575, 0.03977887, 0.024405345, -0.038915828, -0.008000434, 0.03478381, 0.051671628, -0.055445127, -0.032005556, 0.011106621, 0.032647617, -0.0025541224, -0.013575952, 0.000115620554, 0.040158734, -0.0701717, 0.019442752, -0.053543594, -0.012474163, -0.07529912, 0.025614187, -0.051680762, -0.011883502, -0.04949656, -0.010922772, -0.046775512, -0.045661893, -0.031030402, 0.021973616}, {-0.042369165, -0.026094152, -0.022511244, -0.025280628, -0.032117702, -0.02342185, -0.04341681, -0.030195372, -0.04182612, 0.00077540753, -0.089243114, -0.054294366, 0.029014628, -0.02477163, -0.021471787, -0.01480151, -0.08650228, -0.014524223, -0.03444174, -0.015151663, -0.054962344, 0.008077939, -0.073127106, -0.002429823, -0.02460218, -0.03663382, -0.051662177, -0.014293759, 0.01070478, -0.031247515, -0.0039351154, -0.101108, -0.026561761, -0.055158608, -0.062029682, -0.017525217, -0.03098917, 0.0076113385, -0.029876342, -0.09123457, -0.039826058, -0.06467675, 0.0021383076, -0.05885652, 0.043604143, 0.014881052, -0.06772911, -0.023559334, -0.06488979, 0.0012151111, -0.06735277, -0.050398298, -0.014951396, -0.017041381, -0.050224844, -0.008367486, -0.0075319074, -0.041839015, 0.01877765, -0.06629768, -0.052947827, -0.010929837, -0.020254193, 0.013420649, 0.008589218, -0.0901164, 0.024944497, -0.00046781357, 0.011243795, 0.020972019, -0.026271714, -0.04565694, -0.08458425, 0.00086093385, 0.031080691, -0.0013997051, 0.007939307, 0.009724527, 0.0023507937, -0.041272152, -0.064196266, -0.06232153, 0.0111948345, 0.055240467, -0.032797232, -0.008165592, -0.0045681773, -0.06426947, -0.101634905, -0.092660114, -0.037622213, 0.013959989, -0.008774486, 0.019512603, -0.04210925, 0.028768802, 0.008365166, -0.05445917, -0.05415373, 0.015986733, 0.04883196, -0.050585136, 0.0024638185, -0.06560244, 0.03426425, 0.012820654, -0.023610726, 0.024213105, 0.01434213, 0.007113867, -0.018020289, -0.008711816, 0.02027496, 0.011074707, -0.058455892, -0.026095403, 0.024250334, -0.041439056, 0.04251836, -0.013390174, 0.040813666, -0.044786263, 0.037689786, -0.036722142, 0.034715474, 0.026550855, 0.016371623, 0.006777378, 0.00527107, -0.030447368, -0.030233623, -0.013939793, -0.079349026, -0.000387768, 0.014499666, -0.06673941, -0.011466928, -0.0034589104, -0.054158576, 0.032761116, -0.0055251126, -0.0702082, -0.020075768, -0.019985415, 0.035973128, -0.032280892, 0.045719285, -0.027284771, -0.062402606, -0.028009815, -0.045289416, 0.017500741, 0.031203965, -0.07436332, -0.052413147, 0.01924846, -0.022173032, 0.02545974, 0.029232757, -0.059122004, 0.0231123, -0.07357371, 0.020070774, -0.04025966, -0.011213334, 0.05045448, -0.0002657024, -0.04172035, 0.016174326, -0.016787846, 0.036440093, -0.054311674, -0.0114024095, -0.06271267, -0.049270567, -0.037855968, -0.048658293, -0.057347674, -0.03911367, -0.060440525, -0.0493227, -0.04017506, -0.07713757, -0.00030010255, 0.003954305, 0.023291118, -0.013504274, -0.02037967, -0.01836411, -0.064212665, 0.003062631, 0.02294771, 0.0037821, -0.038803205, -0.063314095, 0.005616631, 0.024510905, -0.015390699, 0.043013822, 0.04025337, 0.0122641185, -0.028257828, -0.035290208, -0.020054718, -0.048731737, -0.039488737, -0.088642746, -0.051764276, -0.03043091, 0.04119803, 0.020826045, -0.06350223, -0.05571804, -0.044953663, 0.05140907, 0.008600246, 0.014166751, -0.08340885, 0.036002375, 0.03994893, 0.0020527618, -0.054600593, -0.005679226, -0.06433523, -0.03764601, 0.0031319547, -0.059722107, 0.009922484, -0.017823204, -0.023853049, 0.008245978, 0.0036969376, -0.050322805, 0.020384623, -0.06293341, 0.008467502, -0.06295916, 0.012684901, -0.026313338, 0.0058565084, 0.008099168, -0.0024107757, -0.046828255, -0.06279105, 0.027568744, 0.026189378, -0.02114306, -0.021119092, -0.01597319, -0.024750592, -0.0041734013, -0.068521865, -0.06662146, -0.03342009, -0.07478494, -0.04988116}, {0.16405518, 0.17530473, 0.030851195, 0.0152393, 0.09223398, 0.101610035, -0.039755516, -0.008534131, -0.12424381, -0.07483986, -0.037624266, -0.04767889, -0.041382473, -0.06280236, 0.022928465, 0.095268995, -0.024647763, -0.051249284, -0.13187684, -0.013364352, -0.35686475, 0.0031950087, -0.06190595, 0.09997879, 0.09137562, -0.03250812, 0.03558522, -0.006380872, 0.07779106, 0.049441468, -0.09842893, -0.12298239, -0.3350523, -0.1467029, -0.0714598, 0.14243436, -0.022597425, 0.02656428, -0.036487672, 0.03740644, 0.15348001, 0.0013693633, 0.13457108, 0.037173323, 0.018220818, 0.019497313, -0.023937173, -0.12996951, -0.07217538, -0.016122773, 0.018583583, 0.089300655, 0.016840804, 0.04110942, -0.1591285, 0.07335134, 0.104459964, 0.08109481, -0.112210505, 0.008082375, 0.11745378, 0.073275335, -0.0891412, -0.26830396, 0.061566886, 0.1466424, 0.17314944, 0.103276275, 0.054046497, -0.026147217, 0.030892411, 0.011244699, 0.06685181, -0.0434311, -0.0073548765, 0.052418042, -0.045163, 0.07561413, 0.03864734, 0.068617724, -0.06259874, 0.058697153, 0.06926994, 0.034318123, 0.039888438, 0.1071918, 0.08498729, 0.029470421, 0.04433093, 0.20641814, 0.05338575, 0.06502244, -0.19349849, -0.20310637, -0.13161676, -0.12760694, -0.27135438, -0.1755395, -0.057592608, -0.12583674, -0.1595824, -0.0058453064, 0.1914256, -0.051137447, 0.15220048, 0.12547772, 0.18992694, 0.0797846, -0.034804475, 0.064699754, 0.021887604, 0.1637171, 0.0388401, -0.16239652, -0.26276618, -0.042822305, -0.17578283, -0.07829446, -0.116963014, 0.09604886, -0.03180912, -0.05522886, 0.0337403, -7.337924e-05, -0.107229434, 0.06440541, 0.034679677, 0.008511675, -0.022534555, -0.20315284, -0.022652872, -0.08411073, -0.064755335, 0.03182877, 0.0071777175, -0.15010503, -0.20309219, -0.07797321, 0.012492538, 0.07630765, 0.06855318, -0.07203895, -0.124821916, 0.05720163, -0.33573595, -0.29280373, -0.2727405, -0.111068375, -0.03696211, 0.014498968, 0.031412628, -0.020621983, 0.047667913, 0.13870993, 0.076155655, -0.04470061, -0.0069953767, -0.20584483, -0.17036405, 0.09553458, 0.015833871, 0.053960104, -0.088405125, 0.03984177, 0.11250602, -0.016001392, -0.017597996, 0.0121582635, -0.11482734, -0.09132542, -0.04243571, 0.020813117, 0.026713567, -0.112928264, -0.07460007, 0.11351307, -0.21823569, -0.10989319, 0.03200224, 0.13437772, 0.078147165, 0.09505724, -0.0031923288, 0.07223394, 0.059248656, -0.06424598, -0.08443219, 0.070292786, 0.023163917, 0.01903369, -0.044645913, -0.30406657, 0.04320349, -0.30463567, -0.19522005, -0.16257103, -0.029283565, -0.013162928, -0.2306661, -0.16399695, 0.0520808, 0.15764526, -0.056021027, 0.123552404, 0.12368447, 0.058990248, 0.115673676, 0.16119406, -0.043281652, -0.14479014, -0.26370725, -0.17543283, 0.002092459, 0.10713638, 0.14159605, 0.0018953987, 0.093830034, 0.10978863, 0.06815542, 0.10065836, -0.11965024, -0.117637046, -0.019647466, 0.17861415, -0.09152411, 0.13449983, -0.12490218, -0.0060039056, -0.032199103, -0.3596312, 0.034455482, -0.1562208, 0.07610197, -0.04099154, 0.14935051, -0.048517946, 0.18025789, 0.007199166, 0.013433267, -0.078737885, -0.093511015, 0.02175835, -0.019691287, 0.08608601, -0.18117866, -0.01709523, -0.04231259, 0.07555877, 0.10582649, 0.08081027, -0.0047604106, 0.10021799, 0.058086503, 0.15385108, 0.08485341, -0.032722864}, {0.18977872, 0.1356265, 0.061399586, -0.04529461, 0.2289488, 0.061498925, 0.02135295, 0.047237035, 0.21216321, 0.025115056, 0.0688247, -0.0015839029, -0.05935892, -0.04166425, 0.009604818, 0.075031355, -0.251807, -0.066237204, -0.030719237, 0.0985939, -0.027115474, 0.051742747, 0.0035990032, -0.04690531, -0.007215141, 0.15000728, -0.014799352, -0.08619918, 0.19153634, 0.19186303, -0.005928281, -0.10681058, 0.03859717, -0.03192602, 0.064044036, 0.06749963, -0.029510632, -0.056415085, 0.07834262, -0.14734016, -0.016898142, -0.06922385, -0.09408198, 0.04474191, -0.047446027, -0.047973115, 0.09813184, 0.008818188, -0.09493624, 0.007475152, -0.09144223, -0.2560634, -0.036300775, 0.021021467, -0.049817275, -0.14925465, 0.0057977145, -0.10392388, -0.093536295, -0.012754319, -0.07502198, 0.044284254, 0.15669411, 0.024289487, 0.054713707, 0.07031504, 0.1766921, -0.086087264, -0.0008751406, 0.17245933, -0.0048580565, 0.10749189, -0.13110356, -0.059640054, 0.07173243, 0.057905667, -0.113812305, 0.015982555, 0.27059492, 0.17443451, 0.03723662, -0.08010925, -0.070336804, -0.20668319, -0.04721428, -0.020233864, -0.012740779, 0.030908428, 0.037941594, 0.020895567, -0.15965815, 0.015200781, -0.17894731, -0.060141213, -0.058367945, 0.18641327, -0.11901045, -0.14225873, -0.07326014, 0.10079779, 0.16221204, 0.15983324, 0.06122035, -0.07068308, 0.13629337, 0.069634646, -0.038360614, -0.1085092, 0.13936445, -0.028838612, -0.13873656, -0.14094841, -0.028714957, -0.05783586, 0.035704162, -0.019648762, -0.021977635, 0.10627406, 0.13164195, -0.06755765, 0.072221614, 0.0151575105, 0.07707456, 0.07013917, 0.069426686, -0.028484356, -0.087670565, -0.034166742, 0.015469381, -0.0032751306, 0.034669697, -0.03638892, -0.0026073297, -0.08501739, -0.0010920367, -0.09840111, 0.032307968, -0.021869892, -0.058334928, 0.004027192, 0.15281087, 0.15626766, 0.041726243, -0.010542342, -0.032687902, -0.07355688, -0.065092884, 0.15982303, -0.05662566, 0.14282201, 0.007960571, 0.005972785, 0.035317015, 0.052856456, -0.06768633, -0.13338716, 0.1163278, 0.0029354466, -0.04277392, -0.1099958, -0.09307638, -0.07544541, 0.06450836, 0.03813404, -0.025020102, -0.0018754583, 0.14893389, 0.1767619, 0.0029439628, -0.06898993, -0.07021772, 0.09431238, -0.014099211, -0.14409444, -0.10622964, 0.17108923, 0.04481771, 0.0034547676, 0.04396344, 0.05960615, 0.1753107, 0.00020448118, -0.15929519, -0.27071595, 0.036482796, -0.04387877, -0.2895382, -0.123845346, 0.039303858, -0.12445044, 0.023010695, 0.02567307, -0.11625115, -0.094707966, -0.02157981, 0.09583815, 0.025115823, -0.04357023, 0.058632635, 0.18700784, -0.050357368, 0.06515316, -0.027467778, 0.12070359, 0.029311972, 0.09832173, 0.09761513, -0.09425735, 0.046084836, -0.05454172, 0.007873012, 0.14328218, 0.046905417, 0.086405225, 0.025192233, 0.018157346, 0.01161178, 0.024728484, -0.023164947, -0.07589195, -0.084958784, -0.15257895, -0.1581061, -0.016204556, 0.011246036, 0.11818255, -0.10742463, -0.217791, 0.026286772, -0.07771352, 0.072424695, -0.09813985, 0.041746397, -0.14472985, -0.015596003, 0.09480597, 0.18632933, -0.08475195, 0.032276724, -0.033679668, -0.07318008, 0.052804746, 0.08770168, 0.086352415, 0.14248785, 0.038280882, 0.092570245, 0.09169849, 0.014349633, -0.09170823, -0.07198529, -0.011958258, -0.0925123, -0.20532167, 0.017813884, 0.100472525}, {-0.009464413, -0.04968997, -0.02134084, 0.0006927479, 0.010189275, -0.023855904, 0.011998586, 0.0011445194, 0.015512846, 0.035544086, -0.07355228, -0.09068838, -0.09167619, 0.025545118, -0.034106705, -0.0019052662, -0.008592168, -0.05040842, 0.03308584, 0.007375895, -0.05507284, -0.027271334, -0.051841147, -0.07644964, -0.043299817, -0.0500228, -0.06926565, 0.03090217, -0.048809953, -0.06627379, 0.01827207, -0.023247581, -0.04310691, -0.015943626, -0.084669724, 0.03009022, -0.0129908, 0.015605779, -0.08018963, 0.016525367, -0.070426956, -0.07060294, -0.0713651, -0.052141972, -0.0026048222, -0.08318113, -0.08778101, -0.01365303, -0.020016609, -0.037878633, -0.043527845, -0.025664525, -0.042113688, -0.012356159, -0.071899116, 0.022661462, 0.0051600304, -0.070993535, -0.04384665, -0.052642837, -0.04445427, 0.014168471, -0.014413059, 0.01909549, -0.04169108, -0.055665772, -0.0226097, -0.043472867, -0.09543674, 0.011564678, -0.031015465, 0.004940113, 0.015737213, -0.0014384895, -0.026617633, -0.03439074, -0.037660882, -0.029480858, -0.012440881, -0.07124439, -0.036847427, 7.3943695e-05, -0.040712472, -0.066418715, 0.018551221, -0.06876083, -0.05980063, 0.0092599485, -0.059727576, -0.04737587, 0.023951223, -0.048400614, -0.0161309, 0.029618677, -0.010526729, -0.07033317, -0.07350972, -0.041267976, -0.029196225, -0.07522309, -0.052736886, 0.016818447, -0.067956544, -0.06562611, 0.0016816207, -0.0008150481, -0.069550574, -0.086482756, 0.041611787, 0.0540582, -0.03273002, 0.036554266, 0.011687047, 0.027342476, -0.052253827, -0.0149950795, 0.0050681694, -0.005460715, -0.058913466, 0.008093177, 0.04612711, -0.05069901, -0.08701485, -0.0893878, -0.06464784, -0.05717883, -0.04299426, -0.06283193, 0.009927182, 0.031797845, 0.023652734, 0.009021754, 0.019102743, -0.040752303, -0.07247747, -0.05374084, -0.002478291, -0.014821074, -0.003221165, -0.03605639, -0.053649165, -0.05450385, -0.037627272, -0.04534998, -0.021013698, -0.04885249, -0.033592034, -0.06644274, 0.026690366, -0.058875006, -0.0014799164, -0.06425854, -0.043452155, 0.027871972, -0.017092178, -0.028182741, 0.012812937, -0.05163071, -0.016795408, -0.007826509, 0.0016491447, -0.015907573, -0.048774872, -0.08618842, -0.029281572, 0.020174922, -0.035521403, -0.023609096, 0.009284532, -0.08855234, 0.022648573, 0.02014978, -0.032751754, 0.04038803, 0.0116239125, 0.019395577, 0.01670704, -0.019092025, 0.0042012716, -0.06128354, -0.021464555, 0.03038161, -0.0629088, -0.022830443, -0.06022088, -0.017371234, -0.0105587, 0.019423863, 0.0016720995, 0.0010268153, 0.009007564, 0.008407954, -0.088144995, 0.029895617, -0.07369222, 0.028951839, -0.077840835, -0.014400248, -0.040806565, -0.060251746, -0.012402846, -0.038458887, -0.049067803, -0.04775171, 0.00042935874, 0.021630391, -0.0020846617, 0.0027918874, 0.002989256, -0.0037059877, 0.024856163, 0.010085794, -0.041770857, -0.027096963, 0.01557558, 0.04108142, -0.07451336, -0.039822187, -0.03845632, 0.0471713, 0.041660774, -0.05442376, -0.048721932, -0.0060508605, -0.02399676, -0.03379491, -0.07385066, -0.07101215, -0.03492429, -5.358611e-05, -0.011481462, -0.099619575, 0.042163294, -0.07901134, -0.019260194, 0.053538032, -0.010697636, -0.040728122, 0.020493649, -0.0335171, 0.052561644, -0.026421826, -0.047802493, -0.078685924, -0.010344086, -0.0399843, 0.02030715, -0.030447725, -0.04640926, -0.0010720998, -0.055488244, -0.02386358, 0.009726713, -0.062762305, -0.068164974, -0.061160855}, {-0.07333925, -0.040937986, -0.1483011, -0.021969108, -0.021526735, -0.13558835, -0.017166901, -0.008392709, 0.16305465, 0.1596229, 0.17705913, 0.08855857, 0.21480672, -0.017658174, 0.077793345, -0.05765634, 0.22972175, 0.021266052, -0.048870154, -0.046573803, 0.20679769, 0.1540604, 0.13222598, 0.16724905, 0.06882607, 0.1019799, 0.07704935, -0.028749788, 0.010129934, 0.06777757, 0.025652727, -0.056816477, 0.11150534, -0.10255107, -0.027102962, -0.06560092, 0.044064976, -0.033789344, 0.043310884, 0.19308689, -0.036534484, 0.066545226, 0.004288434, 0.06461262, -0.0210644, 0.09376851, -0.05723517, 0.18998826, -0.015035329, -0.19468121, -0.071843654, 0.099563375, 0.02233746, -0.00057533, 0.031181047, -0.069261804, 0.061481368, 0.060415786, -0.021464998, -0.09587167, -0.13845062, -0.10874602, -0.056424458, 0.075467385, -0.14357467, -0.0736982, -0.004733306, 0.25243676, -0.060680844, 0.08935776, -0.017795596, -0.24340415, -0.04052052, 0.09833359, -0.12151989, 0.013876929, 0.028568124, -0.109841056, -0.12203021, 0.15419778, -0.12179126, -0.029259188, 0.03842711, 0.10643178, -0.24414998, -0.12387331, -0.07056294, 0.012041419, -0.13982844, 0.00058802305, 0.111430734, -0.06750859, 0.16330637, 0.12214354, -0.019732026, -0.018607505, -0.05285812, -0.1058857, -0.042286746, -0.07130819, 0.008266032, -0.048097633, -0.023470337, 0.1076581, -0.14597334, 0.003179394, -0.052352004, -0.0632906, -0.04600134, 0.007426999, 0.028705074, -0.085241735, 0.0748436, 0.11017746, 0.015009063, -0.028499039, 0.1340648, -0.030196974, 0.023024114, 0.045829233, -0.026551202, -0.034134205, -0.13592026, -0.16854239, -0.06444597, -0.08133583, 0.03886504, -0.00270713, 0.10125414, 0.0134125445, -0.066727415, -0.082439, 0.108875826, 0.11935018, 0.034770794, 0.009287076, 0.033737015, 0.08222896, 0.074439675, 0.013752262, 0.09032551, 0.028013987, -0.025517542, -0.14009608, 0.1404612, 0.05537682, -0.0123857735, -0.2731396, 0.12385679, -0.015546149, 0.042088125, -0.003901487, -0.07004813, -0.0038482507, 0.0024344977, -0.16057502, -0.031869218, 0.038007267, -0.09783749, -0.17229743, 0.16781734, -0.17162472, 0.035802048, 0.0457556, -0.09861265, -0.093669266, -0.016192442, -0.02813807, 0.026659627, 0.062429514, 0.0007050765, -0.017047703, -0.014981687, -0.06423099, -0.017016046, -0.043771815, -0.07279439, -0.041026343, -0.022942994, -0.06543316, 0.02590624, 0.09556899, 0.2480176, 0.2159984, -0.085251994, 0.04073798, 0.07153775, -0.014800832, -0.059258968, -0.09999054, 0.07605073, 0.08577189, 0.110699706, 0.13770811, 0.10767098, -0.13140957, 0.07484532, 0.007975476, -0.033515703, -0.16193879, -0.12378448, -0.050029695, 0.10004398, -0.07815574, 0.025781343, 0.0028560061, 0.048497774, -0.1625998, 0.02351282, -0.08084464, -0.07404884, -0.04874944, -0.11002788, -0.0070773433, 0.072792865, 0.06225716, -0.061271735, 0.07327234, 0.11591694, 0.021668058, 0.06781874, -0.09793549, 0.024912829, -0.2647597, 0.07058923, -0.050403696, 0.16599388, 0.16566965, 0.008055652, -0.04209092, -0.086311266, 0.029291045, -0.1988985, -0.1401807, -0.18886556, -0.06983028, -0.24864742, 0.004997387, -0.1067314, 0.11681824, -0.19378702, -0.3451978, -0.1450202, 0.13532992, -0.19814982, -0.1499279, 0.075621575, 0.14185996, -0.170107, -0.008060491, -0.09599207, -0.06680043, -0.01609014, -0.30905014, -0.122175716, 0.06327157}, {-0.055184014, -0.555805, 0.047987796, 0.04441833, 0.15055335, -0.2269504, 0.026643869, 0.0262581, 0.084835224, -0.02863491, 0.025194155, -0.03848575, 0.07849397, 0.035762373, 0.09226454, 0.0043712393, 0.045553345, -0.05670646, 0.058728013, -0.053790286, -0.046596944, -0.13219462, 0.0015694913, -0.25710514, -0.03103047, 0.15322573, 0.170084, 0.08180758, 0.0030697968, 0.11421016, 0.030912917, 0.1785598, 0.08571652, -0.036911912, 0.092405, -0.10520397, -0.012740276, -0.13719007, -0.091994815, -0.026934935, -0.0148127135, -0.038122837, 0.069062226, -0.010397257, 0.0852574, 0.02540176, 0.14439659, -0.03171625, 0.021834865, -0.022122035, -0.052872792, -0.13723801, -0.119173035, -0.2427439, -0.040976085, -0.09502917, -0.112969555, 0.038461126, 0.13271649, -0.092474185, 0.005123315, 0.15707046, 0.11265801, -0.10860048, -0.14539234, -0.18474428, -0.2955299, 0.015621506, -0.024842236, -0.042843632, -0.28122213, 0.115016714, -0.064956725, 0.064197496, 0.04066645, 0.072591834, -0.091345996, 0.00049269176, -0.058263417, -0.07727281, -0.12195543, -0.019812496, 0.13434187, 0.1587085, 0.10554388, -0.13007547, -0.04082464, -0.076132685, -0.025985813, -0.14129396, 0.035705265, -0.04042505, -0.010529669, -0.19846556, 0.010513888, -0.031357687, -0.14806165, -0.12604459, -0.08476825, -0.11382195, -0.047037084, 0.14599173, 0.29468155, -0.008592962, 0.14635433, 0.12216524, 0.09924375, -0.117720075, -0.039704643, -0.10353862, -0.14404765, -0.11669723, -0.15632784, -0.085949995, 0.03936283, -0.09254063, -0.21925694, 0.0142492885, 0.1485359, 0.05548996, 0.0021486622, 0.06430019, 0.019577073, -0.027547963, -0.02850616, 0.03829969, -0.04563933, 0.049949605, -0.10438106, -0.01605422, 0.09482422, 0.09657906, -0.062324904, -0.07032599, -0.16942038, -0.32068655, 0.032919988, -0.15335332, -0.24675483, -0.39312673, 0.25966287, 0.06724678, 0.04116782, -0.05827708, -0.0382595, -0.1629615, -0.12773195, -0.12058626, -0.31270957, 0.12097985, 0.040161014, -0.12263777, -0.02579728, 0.09000732, -0.18447812, -0.02951789, 0.021014083, -0.0033975253, 0.110417806, -0.048135858, -0.061463993, 0.06707055, -0.12684068, -0.11788446, 0.14232892, -0.10205751, -0.079777054, 0.090009645, -0.23414843, -0.21667692, -0.069408536, 0.08475005, 0.018338157, -0.112456046, -0.018878795, -0.079429135, 0.23301195, 0.00085768715, -0.036010116, 0.05315734, 0.033315543, -0.05688588, 0.04436989, 0.101715975, -0.24862272, -0.14877757, -0.00092610205, -0.027018728, -0.2513373, -0.017318135, 0.05736742, -0.011265016, -0.09823058, 0.05895931, 0.104044996, 0.017198106, -0.06976105, 0.011199183, -0.056677926, -0.24744916, 0.092679426, 0.038121827, 0.026257487, -0.057561573, 0.09125577, -0.08372732, -0.20248836, -0.019892797, 0.036020666, 0.10793021, 0.06639081, 0.04259458, 0.072961025, 0.047854144, -0.08774175, -0.11351217, -0.045352027, 0.057033002, -0.12911397, -0.09174531, -0.075274006, 0.034170263, 0.0914479, 0.0068824077, -0.23433016, -0.20897041, 0.005624924, -0.060696058, -0.20260109, -0.23814575, 0.1935801, 0.19226477, 0.06734252, -0.19392462, 0.15664935, 0.10523109, 0.011328036, -0.042245314, -0.04203739, -0.09982743, 0.17058706, -0.18994063, -0.2022216, 0.04551056, -0.029940827, -0.27579477, -0.037919637, 0.030514298, -0.23317245, -0.3595938, 0.046428636, -0.0501319, -0.18710923, -0.018464662, 0.0128635885, 0.023651596}, {-0.06416946, -0.035281725, -0.08628002, 0.0018952674, -0.07228269, -0.011973125, -0.058398627, -0.025417896, -0.0654416, 0.0010901538, 0.02017171, -0.05362431, -0.051918715, -0.057403807, -0.010404219, -0.011357041, -0.012654183, -0.021605346, -0.023240278, -0.024389846, 0.060806505, -0.01743695, -0.07083188, -0.07058269, 0.032966986, -0.023885792, 0.057795648, -0.046783607, -0.08323937, 0.004647706, 0.029220842, -0.00034830143, 0.03971526, 0.021562394, 0.010256554, -0.06750919, 0.028572073, -0.063065425, 0.007077524, 0.04220303, 0.013440076, 0.015538261, -0.015602526, 0.023765218, 0.011594122, -0.050076697, -0.108499825, 0.024334224, 0.030965181, -0.056381386, 0.026963905, -0.03911093, 0.017246693, 0.035339814, 0.03968079, -0.04724461, 0.014844136, -0.11960262, -0.050136566, 0.025415193, -0.03437682, -0.0881506, -0.083627544, -0.006621463, -0.013513045, -0.10004062, 0.0030474493, -0.019915774, -0.023412699, -0.046242554, -0.0030750723, -0.028975626, -0.07170565, 0.021968748, 0.006395087, -0.05574873, 0.029505437, -0.007445798, 0.004273188, -0.0071191536, -0.0036429265, 0.019689152, -0.03065843, 0.016871382, -0.0063668275, 0.037442077, 0.017991042, -0.06267313, 0.018350674, -0.047902405, -0.017698247, -0.096667446, -0.039109804, 0.020195235, -0.075884886, -0.032368354, 0.016277038, -0.07085325, 0.0072349203, -0.003934071, -0.012956211, -0.068390675, -0.09663806, -0.10270536, 0.032838482, -0.023323672, -0.019332139, 0.012839147, -0.0012229821, -0.088408664, -0.078620665, -0.008808109, -0.09900095, -0.08050198, -0.06458174, -0.037273213, -0.038619366, -0.10899481, -0.09822142, -0.045422953, 0.006911216, 0.006719466, -0.0182044, -0.047193695, -0.08113068, -0.014223141, 0.009221796, -0.0012449201, -0.03863749, 0.012694671, -0.022267992, -0.012723362, 0.030943044, 0.0076012174, 0.046458013, 0.02499083, -0.04205699, -0.052052367, 0.024464602, -0.043221977, 0.03957901, -0.088713855, -0.06563967, -0.075684376, -0.009210206, -0.011049356, -0.10473474, -0.009845871, 0.033058703, 0.045650657, -0.08323333, -0.095197484, -0.008490002, 0.03488067, 0.047570873, 0.01431297, -0.018151574, -0.037136175, -0.0713288, -0.11384513, -0.10030242, -0.048289478, -0.042929094, 0.043436594, 0.03612269, -0.045930896, -0.020930924, 0.023944383, 0.007182755, -0.024660219, -0.102469064, -0.04280538, 0.040197764, -0.019654965, -0.00827666, -0.013256914, -0.05397127, -0.035884187, 0.0024085126, 0.01325152, -0.015847761, 0.0018166099, -0.09196349, 0.032851584, 0.018194877, -0.049234875, -0.069002636, -0.052102465, -0.029679624, -0.017581098, -0.023978397, -0.065471694, 0.014956344, -0.007139472, -0.020283524, -0.04216625, -0.10632771, -0.004548917, 0.009737249, 0.07248502, 0.009834799, 0.023491854, 0.01629376, 0.098428205, -0.0724644, -0.034630526, -0.050515097, 0.040674005, -0.09421504, -0.10594778, -0.052545886, 0.035705633, 0.06745492, 0.06054403, -0.06903285, -0.02698033, -0.10714588, 0.013517021, -0.021781921, 0.082802415, -0.072172634, -0.06007713, -0.096275374, -0.10300932, -0.05478226, 0.009948227, 0.010417924, -0.006326392, -0.041544165, -0.022515593, 0.01320978, -0.017446073, -0.012555099, -0.10990757, 0.0073906123, -0.043601274, -0.078710645, -0.036429256, -0.08612234, -0.049263287, -0.081083186, 0.0014250493, -0.04499298, -0.006816008, -0.042692836, 0.062159665, -0.035163566, 0.03331885, 0.0026877741, 0.0015262839, 0.0320117, -0.021374615, 0.013736219, 0.013405446, -0.066822365, -0.029687827}, {-0.05633107, -0.036999524, -0.13944669, -0.10987709, -0.013444087, -0.034586187, -0.051469516, -0.08266548, 0.1056051, 0.053486817, 0.15084293, 0.09040436, -0.045619518, 0.026651097, 0.10980948, 0.024306256, 0.004290279, -0.016598213, 0.09584198, 0.115015484, 0.14778458, 0.0788961, 0.026305176, 0.12030846, 0.10811048, 0.058185227, 0.116196826, 0.06106088, 0.1200152, 0.09815768, 0.008900384, -0.106683955, 0.13105384, 0.073927194, 0.021840164, -0.016161114, -0.076149106, -0.006243417, -0.04433929, 0.05655602, -0.13454545, 0.019660482, -0.08060802, 0.03568003, -0.010144019, -0.038809057, -0.07755553, 0.09934293, -0.053703345, -0.12737113, -0.07802917, -0.06534981, -0.13614564, -0.008853256, -0.061061338, -0.076836206, 0.04163883, 0.07014962, -0.092333406, -0.1251157, -0.052041564, 0.04780968, 0.024587048, 0.07821138, -0.10381571, 0.04011645, -0.03535465, -0.05114443, -0.0020917044, 0.014863868, -0.03320973, -0.06748647, -0.052139588, 0.22435382, 0.077668376, 0.051124968, -0.05996021, 0.004345277, 0.12952614, 0.15534027, 0.046713892, 0.048260458, 0.10846222, -0.0019772523, -0.03037418, 0.0019241446, -0.05359237, -0.08206734, -0.14095882, -0.025760273, 0.12980558, -0.021505412, -0.13040207, -0.04078821, 0.037867453, -0.063725635, -0.09070524, -0.06090567, 0.0828348, 0.12250567, 0.046159152, 0.06990074, 0.023571033, 0.12617525, 0.13849594, 0.09204103, -0.074185476, -0.13298285, -0.020753328, -0.017122086, -0.020111782, -0.21481928, 0.1519355, -0.03257816, 0.029601924, -0.029574456, 0.05765958, -0.084377654, 0.10433351, 0.029758118, 0.00941739, -0.006043988, -0.12145339, -0.060335763, -0.063659325, -0.1699994, -0.027998876, -0.12386265, -0.04485326, -0.047609277, -0.08248908, -0.050288312, 0.039861545, 0.0150183495, -0.010941091, -0.002070083, 0.2524816, 0.04239343, -0.060004827, 0.027019776, 0.26432666, 0.08736452, 0.07256292, 0.08288615, 0.16087507, 0.11321368, 0.04036225, -0.04078724, 0.08157026, 0.03721555, 0.0028433416, -0.090594426, 0.0009098452, -0.0025722128, -0.09611688, -0.056335878, -0.06506749, 0.08423073, 0.038188215, -0.061499927, -0.078943916, -0.15357244, -0.01229008, -0.14455287, -0.18815023, -0.048478942, 0.09893078, 0.08575595, -0.20395362, -0.06822346, 0.12708637, -0.056601636, -0.14754346, -0.114126116, -0.06531978, -0.1325826, 0.03144193, -0.121647105, -0.04445249, 0.0151233, -0.1640763, -0.057797372, 0.057315655, 0.20363054, -0.049090017, 0.09480763, 0.025872832, -0.12045833, -0.031615444, 0.059056666, -0.033444617, 0.0651311, 0.016079558, 0.11501147, -0.09540818, -0.057368968, -0.027007828, -0.019425387, -0.07295445, -0.13656658, 0.053298496, 0.015694676, 0.029272726, 0.042076852, 0.087768175, -0.086617954, -0.059340537, -0.2519263, -0.00045089246, 0.043122105, -0.0048640417, 0.05428176, 0.026884537, 0.05524138, -0.014728699, 0.059186313, 0.0055637774, 0.08730128, -0.04409225, -0.17689702, 0.04162584, -0.080323584, -0.10656986, -0.082197815, -0.037469793, -0.10866685, 0.065957785, 0.12252651, -0.046486143, 0.09597396, -0.0016364284, 0.13811643, 0.01944321, 0.042062733, -0.029618863, 0.0072703687, -0.09196088, 0.1264864, 0.01800445, 0.0743033, -0.19708228, -0.08784112, 0.043134302, 0.041067958, -0.13429287, -0.109220974, 0.0946133, 0.09290458, -0.2564931, -0.04866217, 0.096016414, -0.06467411, -0.15421247, -0.06787699, 0.0117013445, 0.13294812}, {-0.0063985693, -0.092798784, -0.045052726, -0.02684664, -0.0736777, -0.115874276, -0.053658955, -0.015055828, -0.013565409, -0.074350074, 0.037045345, -0.09733253, -0.061109457, 0.01873859, 0.012452944, -0.10464928, 0.04920678, -0.030033363, 0.014043374, 0.035849288, 0.042446163, -0.019807747, 0.024805648, -0.050531853, 0.03539125, 0.014932997, -0.055890076, -0.020316651, -0.06955387, -0.068924025, 0.021823004, -0.016347237, 0.004686897, -0.048404157, 0.02543393, -0.04588262, -0.030838035, -0.028891725, -0.0145803355, -0.056698915, -0.07319684, -0.095167205, 0.005098028, -0.0051605445, 0.0014783096, 0.056335118, -0.0050880886, -0.043437257, -0.07281983, -0.034743853, 0.03343775, -0.08288691, -0.07252878, -0.07303227, -0.08074455, -0.008011857, 0.046928905, 0.02051297, 0.023249816, -0.014118184, 0.0010643447, -0.07508956, 0.03493743, 0.038692746, -0.029303357, -0.0050738757, -0.066324525, 0.08049168, -0.035688523, -0.024874283, -0.07448899, 0.023659755, 0.0035704945, -0.0608247, -0.019934656, -0.0057438496, -0.018226126, 0.018526802, -0.10117082, 0.0053200405, -0.102074035, 0.0032214883, -0.07743526, -0.08276734, -0.098790936, -0.075991064, -0.017663036, -0.009671738, 0.009551647, 0.052325178, -0.018023822, 0.012092099, 0.07270022, 0.01016473, -0.001418644, -0.10290528, 0.06940955, -0.09522794, -0.069280736, -0.109760344, -0.022989979, 0.02413114, -0.022571968, -0.05454833, 0.015417465, 0.005424636, -0.025814265, -0.10190194, 0.0096919555, 0.018295847, -0.00053183973, -0.05072244, 0.05029968, -0.0191629, -0.08262833, -0.0028457423, -0.004281824, 0.02374356, 0.01688612, 0.021115122, -0.04943574, -0.051046535, 0.017102841, -0.04446816, -0.1038324, -0.03529898, -0.04248905, 0.0011324526, 0.03179595, 0.031551924, -0.012057569, -0.007012418, -0.02812029, 0.014071811, -0.04097395, -0.099539265, -0.06943803, -0.09521039, -0.08842664, 0.017600741, 0.0034966334, -0.038060553, -0.020334478, -0.066495165, -0.0071226293, 0.03534224, -0.00022803721, -0.06526843, -0.03744888, -0.02180052, -0.0036310186, -0.04727282, -0.053542268, -0.08375263, -0.05948642, -0.14169967, -0.02225278, 0.06535679, -0.05106498, 0.028929865, 0.013158223, -0.04585221, -0.062216714, -0.0075580194, -0.06481969, -0.1124694, 0.03304705, -0.018546486, -0.03419716, -0.08384038, -0.03114845, -0.012829468, -0.0035877246, -0.08889619, 0.019427883, -0.019049032, -0.030285615, -0.044420265, -0.026814384, 0.00038734224, -0.07870808, 0.001721835, -0.0700948, -0.06540439, 0.04234115, -0.020482035, -0.09004132, -0.07824058, 0.042994514, -0.010872315, -0.059256505, -0.024739202, -0.01694902, -0.0384865, -0.04919473, -0.015838033, 0.03692732, 0.03563886, -0.044940688, -0.014294173, -0.089849435, -0.086572975, -0.07071981, -0.07564155, -0.055698577, -0.025815774, -0.0035774065, -0.0015695507, 0.00068827835, 0.0005662636, -0.016648434, -0.045740515, -0.09885907, -0.056412023, -0.087512456, -0.07483044, -0.10983133, -0.079289116, -0.12679434, -0.024824806, -0.03869841, 0.014750173, -0.093508914, 0.006084993, -0.047136247, -0.07993349, -0.07268514, -0.1019575, -0.088462494, -0.028319696, 0.0038208112, -0.007093916, -0.016935384, -0.0107657155, -0.03815156, -0.055702385, -0.01609189, -0.051755607, 0.021375956, -0.040239688, -0.017176121, -0.049941182, 0.0014513151, 0.008990688, -0.09651264, -0.005890988, -0.023432959, -0.0028747946, 0.015854489, -0.06524919, -0.057148073, -0.077606, 0.050000574, -0.084943525, -0.015590615, 0.0038673298}, {-0.10176343, 0.17682, -0.038055543, -0.032082908, -0.08895077, 0.0577848, -0.015171861, -0.023232633, -0.038029153, -0.081664756, 0.17484407, 0.05074777, 0.02691606, 0.039822992, -0.0770907, -0.03307714, 0.056624774, -0.008320138, 0.05004913, 0.017926328, 0.2667363, 0.15055507, 0.00091972057, 0.072237164, 0.057761423, 0.078050345, -0.067134365, 0.036461107, 0.014895597, 0.05843056, 0.06500416, 0.03559688, -0.013134991, -0.03388598, -0.0950073, -0.063290976, 0.03506873, -0.049699504, 0.025727533, 0.16387275, 0.031460278, 0.10485687, 0.02211359, 0.13484722, -0.05183035, 0.085619725, 0.092121445, 0.13374707, 0.067164935, 0.09103044, 0.0845211, -0.29428184, 0.041326515, 0.095058024, 0.052175757, -0.010542622, 0.03668437, 0.00064442947, 0.025012404, -0.03468583, -0.07881649, -0.07545687, 0.082236975, -0.02667691, -0.09398436, 0.027102921, -0.028709577, 0.035606813, -0.10434214, -0.036298398, -0.004129855, -0.07937866, 0.01637321, -0.070711896, -0.048496984, 0.08214996, 0.00090283016, -0.2858799, -0.33622184, -0.02638982, -0.11172404, 0.013666383, -0.04964745, 0.03298698, -0.021134477, 0.06704268, -0.057720646, -0.038529027, -0.18875812, -0.091432504, 0.0034505073, -0.036764126, 0.022426797, 0.14140797, -0.024392348, -0.035002634, 0.020380015, -0.004005388, -0.1697124, 0.03230453, 0.09272816, 0.02324722, -0.035704825, 0.06772763, -0.067995496, 0.011450266, -0.076970935, 0.017222216, 0.03869865, 0.06859365, 0.05817781, 0.090786204, -0.105108805, 0.0075310916, 0.0072436007, -0.004279477, 0.036102343, -0.07604953, -0.07641529, -0.07503002, -0.0093285125, 0.09157704, -0.052707214, 0.057995033, -0.02948914, 0.03199736, 0.07461594, 0.020421559, 0.06615714, -0.08435618, 0.0041071433, -0.047738403, 0.075029895, 0.19412751, 0.051723957, 0.16213436, 0.119750895, 0.13480823, 0.16896598, 0.17194326, 0.010700248, -0.043745298, -0.08230644, 0.21355473, 0.069121204, 0.0018877842, -0.09105318, 0.01566432, 0.09078026, -0.0973699, -0.050933693, -0.036038097, -0.051829487, -0.08953582, 0.0052088075, -0.005698661, -0.049755856, 0.048316073, -0.0038776314, 0.09151256, 0.1193857, 0.040886458, 0.0058570174, 0.080584474, -0.18261528, -0.13670519, -0.051173277, -0.054380767, -0.045299, -0.03481588, -0.0033388266, -0.013834017, 0.14423364, 0.038730595, -0.04142516, -0.06845382, 0.014970657, -0.032131225, -0.014053562, -0.14396863, -0.091616526, 0.09917609, 0.0155617045, -0.11077525, -0.015889227, 0.06777955, -0.01732862, -0.06133237, -0.024345264, -0.00371516, 0.17905983, 0.10480483, -0.00754938, 0.035834223, -0.032179706, 0.043252353, 0.017370118, 0.033809163, -0.067873284, 0.011214216, -0.13183162, -0.033572473, -0.04237137, 0.035571996, -0.07549999, 0.013537152, 0.059018534, 0.095758356, -0.11800577, -0.07509974, -0.10010404, 0.043884862, -0.097050376, -0.13946576, -0.0625189, -0.035638344, -0.071101725, 0.024886254, 0.12141719, 0.03830399, 0.07260717, 0.02765537, 0.10440552, -0.025646172, 0.08443259, 0.050492574, -0.061454777, -0.1175175, 0.029754695, -0.013007245, -0.0836238, -0.0968237, 0.09379263, 0.08590592, -0.015876709, -0.067698926, -0.089501895, 0.0023134733, 0.04702512, 0.056668025, -0.09551282, -0.14159562, -0.049489323, 0.031677864, -0.16686143, 0.020272562, -0.059457246, -0.06381834, -0.1599767, -0.019072888, -0.16305886, -0.08581172, 0.12276497, -0.06265482, -0.17452413, -0.06655731}, {0.17645052, 0.14048989, -0.08384199, -0.09863123, -0.026038608, -0.069525965, -0.13895185, -0.052683316, 0.051381912, 0.04494193, -0.033259925, 0.015296483, -0.05318576, -0.10454999, -0.07257736, 0.018499643, -0.008416715, 0.009544712, -0.037371553, -0.17223483, -0.038244717, 0.049040183, -0.06610871, 0.1036297, 0.038972076, 0.016961763, 0.030535677, -0.03297523, 0.06545302, -0.00093053875, -0.113680854, -0.12264181, 0.08242321, -0.09452701, -0.18134296, -0.023470849, -0.0021055397, 0.026142389, -0.015644742, -0.046291675, -0.0105987275, -0.119365595, -0.12631871, -0.07582944, -0.0062181056, -0.031052206, 0.0027080677, -0.09773829, -0.08492745, 0.03536825, -0.06909617, 0.20211062, 0.020581342, -0.07359042, -0.11198132, 0.16439243, 0.08201937, -0.09998458, -0.11138859, -0.02231557, -0.13398549, -0.046016082, -0.030799922, 0.058342494, -0.03791193, 0.09609847, 0.28971893, 0.18727529, -0.0653458, 0.15513043, 0.10991459, -0.090212144, -0.08797297, 0.09951218, 0.11170961, 0.01178321, -0.06958069, 0.027379448, 0.23058335, 0.004821592, -0.029727051, -0.022508452, 0.104045145, 0.03602254, 0.025594182, -0.03379292, -0.0155970575, 0.053056106, 0.031199073, -0.01041101, 0.05571988, 0.1395617, -0.108725816, -0.12216304, -0.06629851, 0.07870176, 0.10966294, 0.071530394, 0.23311646, 0.097187676, 0.20151503, -0.0030462295, 0.050824806, -0.02008501, 0.12333877, -0.021446496, 0.082807675, 0.050430972, 0.033985097, -0.041298024, 0.015343367, 0.006206252, 0.02690791, 0.050437067, -0.055546813, -0.128487, 0.044645734, -0.06110897, -0.018742785, 0.006284923, -0.054041017, -0.11073151, -0.102738895, -0.1444297, -0.17884557, -0.007729209, 0.0060907775, -0.08499868, -0.050431937, -0.13963073, -0.14237373, 0.039776187, 