#include <stdint.h>

static const   float bias_3[10] = {0.08734934, 0.08821785, 0.05263174, 0.12158261, -0.09285475, -0.029785044, -0.079306155, -0.043007303, 0.09395908, 0.019540995};


static const  float weights_3[10][84] = {{-0.24788746, -0.14031674, -0.22666357, 0.035578746, -0.033009138, -0.17361173, -0.1940827, -0.1808144, -0.17792144, -0.29661083, -0.0843336, -0.15534043, -0.20112643, 0.018207751, 0.11578641, -0.036941066, -0.22937381, 0.06279617, 0.033439133, 0.12259309, 0.0085636815, -0.09441495, 0.10089783, -0.05715387, -0.031190991, -0.042768713, -0.19235931, 0.058294285, -0.22041255, 0.08134906, -0.24166816, -0.13303113, -0.10456222, -0.17842913, -0.0042244643, -0.13758054, 0.13074054, 0.024152935, -0.003303159, 0.0035468913, 0.0647531, -0.059682764, -0.2542726, 0.13687548, -0.048200652, -0.035953347, -0.28257826, -0.07761522, -0.14269973, -0.11529395, -0.19952029, 0.067086525, 0.045826685, -0.005615387, 0.020800933, -0.08935319, 0.1399127, 0.114372216, -0.056249328, 0.100835, 0.11882887, 0.068968214, 0.019794006, -0.29286304, 0.07598433, -0.04441328, 0.03325892, 0.09025284, 0.030123224, -0.1309241, -0.024379665, 0.030866232, 0.09543466, 0.00025278222, -0.15996212, -0.036985114, 0.16017516, -0.1744548, -0.03910133, -0.013471433, 0.120208256, 0.18056828, 0.12396413, 0.0018648353}, {-0.016160876, -0.16003685, 0.13876908, -0.05581492, 0.16196889, -0.2409671, 0.16383371, 0.12624234, -0.33769384, -0.049775865, 0.07112037, 0.1263101, 0.06464311, -0.26253057, -0.33836257, -0.068865106, 0.09854568, 0.07311074, -0.14553778, 0.0037711586, 0.08768695, 0.19038099, -0.09921445, -0.12525862, -0.09533186, -0.05967898, -0.05589175, 0.068313785, -0.1019697, -0.26822174, 0.15852146, -0.02938755, 0.088476464, -0.084457695, 0.059407335, -0.15396427, -0.13305722, -0.10000424, 0.057485927, -0.23592982, 0.061373316, -0.04752115, -0.043947622, -0.3013755, 0.11850459, -0.16558938, 0.091039, 0.18833606, -0.25366005, 0.05862878, -0.20195946, 0.07202477, 0.004100582, -0.21659765, -0.06483652, -0.031347677, 0.032982804, -0.30255535, 0.035514414, -0.10829958, 0.07394227, -0.27777874, -0.27539286, 0.078718916, 0.046859317, 0.08021009, -0.2649196, -0.10680242, -0.09465808, -0.08814083, 0.08079661, -0.04774369, -0.041277364, -0.15682995, -0.19771795, 0.09859205, -0.05223497, 0.032515284, 0.10938761, -0.08563285, 0.123836555, 0.11547073, -0.08117861, -0.13997461}, {0.1282783, 0.03440144, -0.2680255, -0.02306316, 0.15083991, 0.12879318, 0.10681664, -0.23744702, 0.15138556, -0.21171133, 0.0027530924, 0.11286002, -0.066107295, -0.16722484, -0.13131185, -0.022926979, -0.073939465, -0.04286687, -0.14805892, 0.1146833, -0.12809679, -0.094396375, 0.023515856, -0.026452884, -0.027177291, 0.018114073, 0.1059115, 0.07547058, 0.08925568, 0.016468422, -0.16331919, -0.17046058, 0.14397635, 0.0687779, -0.021197509, -0.040537875, 0.009946764, 0.102139816, -0.2113801, -0.1715198, 0.10052184, -0.18398733, -0.08314554, 0.05296169, -0.19563033, 0.018551003, -0.24948412, -0.10198248, -0.01607974, 0.14294548, -0.010822145, 0.10721204, -0.09687629, -0.15169372, 0.016969582, 0.0007848985, -0.07416033, 0.11653895, -0.06531103, -0.21873638, -0.080773085, -0.21729863, -0.085496925, 0.03290768, -0.100574344, -0.07388772, -0.123404846, 0.17665027, 0.18804286, 0.05959026, -0.25430033, 0.19219461, 0.09713689, -0.12756686, 0.062027894, -0.16186103, -0.10764625, 0.029079756, 0.13696967, 0.012674395, 0.024804126, -0.017370831, -0.20513463, 0.011041016}, {0.15004016, 0.14521009, -0.06563729, 0.0908109, -0.3199049, -0.015514724, -0.012799283, 0.041739743, -0.2015303, 0.0011996363, -0.17216992, 0.02218067, -0.09805383, 0.10480708, -0.039374974, -0.20196666, 0.14259256, 0.055601012, -0.111970335, -0.11840876, -0.1941703, -0.03317613, 0.09385747, -0.12042767, -0.0017338558, -0.14827454, -0.078070745, 0.12689745, 0.0028684577, 0.04310479, -0.21973464, 0.032791372, -0.002015398, -0.010956039, 0.06148928, 0.08661111, -0.20532784, 0.10316779, -0.15495232, -0.18991262, 0.006110375, 0.1114015, 0.044667386, -6.736716e-05, -0.012620271, 0.17902383, 0.13191104, -0.09771096, -0.15289062, -0.01742092, -0.14230382, -0.2953793, 0.03608468, 0.044004012, -0.15731937, 0.12991148, -0.03835345, -0.06141592, 0.06379949, -0.094550714, 0.031574007, 0.023035703, -0.07308511, -0.0051273257, -0.39221403, -0.11775231, 0.079380736, -0.04252921, 0.07421157, 0.01715111, -0.2201748, -0.24574815, 0.06246816, -0.10607839, -0.27866116, -0.17957748, -0.1311091, -0.12472456, 0.0016297628, 0.15227278, -0.1653925, -0.07889082, 0.07767008, -0.1006883}, {0.19216794, 0.03313287, 0.01586851, -0.22514664, -0.0991083, 0.024459407, -0.23631948, -0.1447612, 0.047017157, 0.12742306, 0.058537964, -0.19264558, 0.024919879, -0.17674634, -0.04743633, -0.07558051, 0.023794167, 0.08979373, -0.05658948, 0.064714454, -0.032031063, -0.19520414, -0.13335288, -0.06018617, 0.037763447, 0.014767095, 0.13295688, -0.15535311, -0.21575426, 0.009955885, 0.15166906, 0.1308358, -0.11880514, -0.002090417, 0.12962519, -0.138477, -0.001688024, -0.13014102, -0.078350574, -0.17833813, -0.08976025, -0.18378875, 0.17215289, -0.053400233, 0.0062817913, 0.03240938, -0.10832705, -0.15996346, 0.16961372, 0.011937358, -0.02098105, 0.18614952, 0.086163536, -0.14784385, 0.07669856, 0.115159646, 0.123903014, -0.05978923, 0.019549506, -0.11822068, -0.14740676, 0.1839888, 0.02250244, 0.0061509307, -0.26473245, -0.16171002, 0.10539757, -0.04394391, 0.12746908, -0.029358765, 0.13846014, 0.12699093, -0.16501036, -0.034523923, 0.07518068, -0.034002047, -0.052791912, 0.075173065, -0.05310233, -0.033980645, 0.18564692, -0.34523848, 0.06597662, -0.02139444}, {-0.14509904, 0.07407766, 0.15597148, -0.05489129, -0.051933583, -0.050322976, 0.04825944, -0.026105635, -0.24643566, -0.022724954, -0.08261449, 0.06986163, -0.21637486, 0.036338773, -0.0030541301, -0.049117688, -0.1387115, -0.19819118, -0.17670475, -0.21587344, 0.15267366, 0.027037157, 0.08227237, -0.0154888285, -0.10376697, -0.1938083, 0.04456383, -0.14730823, 0.0498049, -0.015387017, -0.062293343, 0.07558799, 0.12746939, 0.074799754, 0.07583112, 0.09346145, -0.11307877, -0.13155787, -0.10667144, -0.30503532, 0.075289555, 0.010407827, -0.019188633, -0.21737112, 0.027902424, 0.13884713, 0.029458042, -0.043204263, 0.005483782, -0.34702578, -0.006311035, -0.12592834, 0.041193165, 0.17352182, 0.048920043, -0.023915743, -0.3166517, 0.116410114, -0.007514889, 0.17883031, -0.16098697, -0.1367146, 0.12650639, 0.011975231, -0.166995, 0.007588269, 0.053142164, 0.08229961, -0.15493119, 0.00463717, -0.14028294, -0.029760111, -0.026539255, 0.032812137, -0.15676795, -0.04602028, -0.009379722, 0.042475786, -0.1964879, -0.095747, -0.0500529, -0.18059471, 0.12186212, -0.0062858006}, {-0.031198325, -0.25751626, -0.0036652284, -0.22851737, 0.033804424, 0.0043532844, 0.08709169, -0.14972562, -0.18794653, -0.1392689, 0.024409289, -0.06271428, -0.020401772, -0.021497358, 0.07720278, -0.053878613, -0.18410513, 0.040088568, -0.085032135, -0.059758097, -0.15042658, 0.09959673, 0.092248484, -0.13720675, 0.07961606, -0.33817425, -0.082185306, -0.08163978, 0.18617862, -0.16934767, -0.0007449824, -0.09306838, 0.069557555, -0.13529329, 0.022532998, -0.034599174, -0.10756928, -0.10854154, -0.11885441, 0.016141651, 0.05960815, -0.32253772, -0.03533645, 0.17225976, -0.08797783, -0.040676493, -0.029108949, 0.096102886, 0.0979171, 0.028172912, -0.11816356, 0.074377134, 0.0764012, 0.06419523, -0.015316759, -0.069878355, -0.09649735, -0.0075555537, -0.094417185, 0.15592512, 0.18732089, 0.12330178, -0.08172812, -0.23019958, 0.062123325, 0.11785382, 0.057787266, -0.12738085, -0.020295694, 0.06651706, -0.036458883, 0.1235224, -0.22135378, 0.23951155, -0.3182405, -0.10533377, -0.073068716, -0.20567366, 0.0132908635, 0.12596941, -0.057569224, -0.2096423, 0.13933861, -0.028617432}, {0.17145504, 0.046093836, -0.05798224, 0.06627905, 0.028411772, -0.05225619, 0.11441327, -0.03582853, -0.031110568, 0.118497506, -0.1286831, -0.09159586, 0.15003891, -0.18155426, -0.26321217, -0.0043329517, 0.06937929, 0.088276505, -0.20306444, -0.113950826, 0.07974236, 0.04212464, 0.021224117, 0.08347166, 0.0096154185, 0.11002127, 0.08209265, 0.06994093, -0.086827, -0.0721417, -0.07618727, -0.024757495, -0.25199068, 0.098933645, -0.2033863, -0.1866128, -0.013212525, -0.12624763, -0.023079654, 0.033853173, 0.07082774, 0.03671577, 0.094996944, -0.21299523, -0.0585739, -0.0608215, -0.12554075, -0.1398506, -0.17075819, 0.10192297, -0.11399156, -0.18459764, -0.032831036, -0.136045, 0.10333985, -0.058050476, -0.19670196, 0.079547286, -0.05665852, 0.149455, -0.20381954, 0.10472552, -0.029699408, 0.1266594, 0.11158882, -0.22938165, -0.14591166, -0.13847448, 0.14561015, 0.0498856, -0.09939076, -0.15208624, 0.019009499, -0.06816941, 0.14928901, 0.2095301, -0.046627842, 0.08885782, 0.12848805, -0.20265993, -0.13765858, -0.31168336, -0.1770304, -0.12261155}, {-0.013038292, -0.13352145, 0.121537164, -0.073236115, -0.016680595, 0.12988693, -0.0694203, -0.045100946, -0.06777676, -0.1917478, 0.13275595, -0.067278326, -0.19298816, 0.114474684, 0.018985199, 0.13790375, 0.073551305, 0.07489935, -0.030955004, 0.0325555, 0.028827524, -0.1034692, 0.098096006, 0.10247489, 0.04020483, 0.20238224, -0.12099968, 0.051392842, 0.1888938, -0.10192611, -0.079222776, 0.11522849, -0.06498184, 0.1213332, -0.06922704, 0.14775884, 0.123498395, -0.051955722, 0.08408081, -0.439184, 0.04368678, -0.20815726, -0.16697311, -0.14842471, 0.03417301, -0.1347033, 0.047909927, -0.02984595, -0.0091697015, 0.0021138967, 0.3004594, -0.16249312, -0.05282695, 0.17087565, -0.10616032, -0.1776396, 0.13743795, -0.19902422, -0.039861973, 0.033883005, -0.2551778, -0.038159035, -0.16581498, -0.067116484, -0.11250634, 0.14599942, 0.022846695, -0.04170917, -0.15136798, -0.12774087, 0.0787985, 0.112293154, -0.06299602, 0.026423112, -0.079457656, -0.121874645, -0.18869452, 0.13608615, -0.09349052, 0.13959393, -0.06605586, -0.16757844, 0.027681997, -0.12405505}, {-0.1862677, 0.13870661, 0.05307307, 0.086572, 0.017801827, -0.08735251, -0.19266284, 0.07302651, 0.1032495, 0.058285333, -0.10684027, -0.2533379, 0.005759486, -0.016477173, 0.09124481, -0.12968269, -0.0341715, -0.01031255, -0.07712775, -0.1105626, 0.00046637666, -0.029647265, -0.20423597, -0.12702477, -0.0013990542, -0.14105909, 0.008512758, 0.0911795, -0.16181237, -0.11354258, 0.045940116, 0.069740266, -0.18207698, -0.036270324, 0.09422163, 0.12546015, 0.014194675, 0.014830762, 0.1288651, -0.14923391, -0.19507965, 0.0312705, 0.15011898, 0.113623016, -0.114957, -0.12460269, -0.058913853, -0.14358713, 0.0080591515, -0.082411714, -0.13923432, -0.18328677, 0.10701962, 0.052893315, 0.049311552, 0.10957164, 0.14505465, 0.15157835, -0.02957088, -0.14390482, 0.038497265, -0.050248794, -0.07371229, 0.16412075, -0.20598036, -0.21922901, 0.035116464, -0.08523093, -0.0043572094, -0.031527292, 0.1426507, -0.16526571, -0.1616529, 0.068712935, 0.030245628, -0.13573487, 0.061586805, 0.016059635, -0.060828388, -0.1300636, -0.189092, 0.010405542, -0.11156985, -0.049756132}};
