 
#include <stdint.h>



static const float  input[784] = {-0.42421296, -0.42421296, -0.42421296, -0.42421296, -0.42421296, -0.42421296, -0.42421296, -0.42421296, -0.42421296, -0.42421296, -0.42421296, -0.42421296, -0.42421296, -0.42421296, -0.42421296, -0.42421296, -0.42421296, -0.42421296, -0.42421296, -0.42421296, -0.42421296, -0.42421296, -0.42421296, -0.42421296, -0.42421296, -0.42421296, -0.42421296, -0.42421296, -0.42421296, -0.42421296, -0.42421296, -0.42421296, -0.42421296, -0.42421296, -0.42421296, -0.42421296, -0.42421296, -0.42421296, -0.42421296, -0.42421296, -0.42421296, -0.42421296, -0.42421296, -0.42421296, -0.42421296, -0.42421296, -0.42421296, -0.42421296, -0.42421296, -0.42421296, -0.42421296, -0.42421296, -0.42421296, -0.42421296, -0.42421296, -0.42421296, -0.42421296, -0.42421296, -0.42421296, -0.42421296, -0.42421296, -0.42421296, -0.42421296, -0.42421296, -0.42421296, -0.42421296, -0.42421296, -0.42421296, -0.42421296, -0.42421296, -0.42421296, -0.42421296, -0.42421296, -0.42421296, -0.42421296, -0.42421296, -0.42421296, -0.42421296, -0.42421296, -0.42421296, -0.42421296, -0.42421296, -0.42421296, -0.42421296, -0.42421296, -0.42421296, -0.42421296, -0.42421296, -0.42421296, -0.42421296, -0.42421296, -0.42421296, -0.42421296, -0.42421296, -0.42421296, -0.42421296, -0.42421296, -0.42421296, -0.42421296, -0.42421296, -0.42421296, -0.42421296, -0.42421296, -0.42421296, -0.42421296, -0.42421296, -0.42421296, -0.42421296, -0.42421296, -0.42421296, -0.42421296, -0.42421296, -0.42421296, -0.42421296, -0.42421296, -0.42421296, -0.42421296, -0.42421296, -0.42421296, -0.42421296, -0.42421296, -0.42421296, -0.42421296, -0.42421296, -0.42421296, -0.42421296, -0.42421296, -0.42421296, -0.42421296, -0.42421296, -0.42421296, -0.42421296, -0.42421296, -0.42421296, -0.42421296, -0.42421296, -0.42421296, -0.42421296, -0.42421296, -0.42421296, -0.42421296, -0.42421296, -0.42421296, -0.42421296, -0.42421296, -0.42421296, -0.42421296, -0.42421296, -0.42421296, -0.42421296, -0.42421296, -0.42421296, -0.42421296, -0.42421296, -0.42421296, -0.42421296, -0.42421296, -0.42421296, -0.42421296, -0.42421296, -0.42421296, -0.42421296, -0.42421296, -0.42421296, -0.42421296, -0.42421296, -0.42421296, -0.42421296, -0.42421296, -0.42421296, -0.42421296, -0.42421296, -0.42421296, -0.42421296, -0.42421296, -0.42421296, -0.42421296, -0.42421296, -0.42421296, -0.42421296, -0.42421296, -0.42421296, -0.42421296, -0.42421296, -0.42421296, -0.42421296, -0.42421296, -0.42421296, -0.42421296, -0.42421296, -0.42421296, -0.42421296, -0.42421296, -0.42421296, -0.42421296, -0.42421296, -0.42421296, -0.42421296, -0.42421296, -0.42421296, -0.42421296, -0.42421296, 0.64495873, 1.9305104, 1.5995764, 1.4977505, 0.33948106, 0.034003474, -0.42421296, -0.42421296, -0.42421296, -0.42421296, -0.42421296, -0.42421296, -0.42421296, -0.42421296, -0.42421296, -0.42421296, -0.42421296, -0.42421296, -0.42421296, -0.42421296, -0.42421296, -0.42421296, -0.42421296, -0.42421296, -0.42421296, -0.42421296, -0.42421296, -0.42421296, 2.401455, 2.8087585, 2.8087585, 2.8087585, 2.8087585, 2.6432915, 2.0959773, 2.0959773, 2.0959773, 2.0959773, 2.0959773, 2.0959773, 2.0959773, 2.0959773, 1.7395868, 0.23765521, -0.42421296, -0.42421296, -0.42421296, -0.42421296, -0.42421296, -0.42421296, -0.42421296, -0.42421296, -0.42421296, -0.42421296, -0.42421296, -0.42421296, 0.42857873, 1.0268056, 0.49221992, 1.0268056, 1.6504892, 2.4650962, 2.8087585, 2.4396398, 2.8087585, 2.8087585, 2.8087585, 2.7578456, 2.4905527, 2.8087585, 2.8087585, 1.3577399, -0.42421296, -0.42421296, -0.42421296, -0.42421296, -0.42421296, -0.42421296, -0.42421296, -0.42421296, -0.42421296, -0.42421296, -0.42421296, -0.42421296, -0.42421296, -0.42421296, -0.42421296, -0.42421296, -0.42421296, -0.20783298, 0.41585052, -0.2460177, 0.42857873, 0.42857873, 0.42857873, 0.32675284, -0.15692005, 2.5796502, 2.8087585, 0.9249798, -0.42421296, -0.42421296, -0.42421296, -0.42421296, -0.42421296, -0.42421296, -0.42421296, -0.42421296, -0.42421296, -0.42421296, -0.42421296, -0.42421296, -0.42421296, -0.42421296, -0.42421296, -0.42421296, -0.42421296, -0.42421296, -0.42421296, -0.42421296, -0.42421296, -0.42421296, -0.42421296, -0.42421296, 0.63223046, 2.7960303, 2.235988, -0.19510475, -0.42421296, -0.42421296, -0.42421296, -0.42421296, -0.42421296, -0.42421296, -0.42421296, -0.42421296, -0.42421296, -0.42421296, -0.42421296, -0.42421296, -0.42421296, -0.42421296, -0.42421296, -0.42421296, -0.42421296, -0.42421296, -0.42421296, -0.42421296, -0.42421296, -0.42421296, -0.42421296, -0.14419182, 2.5414655, 2.8214867, 0.63223046, -0.42421296, -0.42421296, -0.42421296, -0.42421296, -0.42421296, -0.42421296, -0.42421296, -0.42421296, -0.42421296, -0.42421296, -0.42421296, -0.42421296, -0.42421296, -0.42421296, -0.42421296, -0.42421296, -0.42421296, -0.42421296, -0.42421296, -0.42421296, -0.42421296, -0.42421296, -0.42421296, -0.42421296, 1.2177293, 2.8087585, 2.6051068, 0.13582934, -0.42421296, -0.42421296, -0.42421296, -0.42421296, -0.42421296, -0.42421296, -0.42421296, -0.42421296, -0.42421296, -0.42421296, -0.42421296, -0.42421296, -0.42421296, -0.42421296, -0.42421296, -0.42421296, -0.42421296, -0.42421296, -0.42421296, -0.42421296, -0.42421296, -0.42421296, -0.42421296, 0.32675284, 2.7451172, 2.8087585, 0.36493754, -0.42421296, -0.42421296, -0.42421296, -0.42421296, -0.42421296, -0.42421296, -0.42421296, -0.42421296, -0.42421296, -0.42421296, -0.42421296, -0.42421296, -0.42421296, -0.42421296, -0.42421296, -0.42421296, -0.42421296, -0.42421296, -0.42421296, -0.42421296, -0.42421296, -0.42421296, -0.42421296, -0.42421296, 1.2686423, 2.8087585, 1.9559668, -0.3605718, -0.42421296, -0.42421296, -0.42421296, -0.42421296, -0.42421296, -0.42421296, -0.42421296, -0.42421296, -0.42421296, -0.42421296, -0.42421296, -0.42421296, -0.42421296, -0.42421296, -0.42421296, -0.42421296, -0.42421296, -0.42421296, -0.42421296, -0.42421296, -0.42421296, -0.42421296, -0.42421296, -0.30965886, 2.185075, 2.732389, 0.3140246, -0.42421296, -0.42421296, -0.42421296, -0.42421296, -0.42421296, -0.42421296, -0.42421296, -0.42421296, -0.42421296, -0.42421296, -0.42421296, -0.42421296, -0.42421296, -0.42421296, -0.42421296, -0.42421296, -0.42421296, -0.42421296, -0.42421296, -0.42421296, -0.42421296, -0.42421296, -0.42421296, -0.42421296, 1.1795444, 2.8087585, 1.8923256, -0.42421296, -0.42421296, -0.42421296, -0.42421296, -0.42421296, -0.42421296, -0.42421296, -0.42421296, -0.42421296, -0.42421296, -0.42421296, -0.42421296, -0.42421296, -0.42421296, -0.42421296, -0.42421296, -0.42421296, -0.42421296, -0.42421296, -0.42421296, -0.42421296, -0.42421296, -0.42421296, -0.42421296, 0.5304046, 2.7705739, 2.6305633, 0.30129635, -0.42421296, -0.42421296, -0.42421296, -0.42421296, -0.42421296, -0.42421296, -0.42421296, -0.42421296, -0.42421296, -0.42421296, -0.42421296, -0.42421296, -0.42421296, -0.42421296, -0.42421296, -0.42421296, -0.42421296, -0.42421296, -0.42421296, -0.42421296, -0.42421296, -0.42421296, -0.42421296, -0.1823765, 2.3887267, 2.8087585, 1.688674, -0.42421296, -0.42421296, -0.42421296, -0.42421296, -0.42421296, -0.42421296, -0.42421296, -0.42421296, -0.42421296, -0.42421296, -0.42421296, -0.42421296, -0.42421296, -0.42421296, -0.42421296, -0.42421296, -0.42421296, -0.42421296, -0.42421296, -0.42421296, -0.42421296, -0.42421296, -0.42421296, -0.38602826, 2.1596186, 2.8087585, 2.3632703, 0.02127524, -0.42421296, -0.42421296, -0.42421296, -0.42421296, -0.42421296, -0.42421296, -0.42421296, -0.42421296, -0.42421296, -0.42421296, -0.42421296, -0.42421296, -0.42421296, -0.42421296, -0.42421296, -0.42421296, -0.42421296, -0.42421296, -0.42421296, -0.42421296, -0.42421296, -0.42421296, -0.42421296, 0.05945994, 2.8087585, 2.8087585, 0.55586106, -0.42421296, -0.42421296, -0.42421296, -0.42421296, -0.42421296, -0.42421296, -0.42421296, -0.42421296, -0.42421296, -0.42421296, -0.42421296, -0.42421296, -0.42421296, -0.42421296, -0.42421296, -0.42421296, -0.42421296, -0.42421296, -0.42421296, -0.42421296, -0.42421296, -0.42421296, -0.42421296, -0.029637715, 2.4269114, 2.8087585, 1.0395339, -0.41148472, -0.42421296, -0.42421296, -0.42421296, -0.42421296, -0.42421296, -0.42421296, -0.42421296, -0.42421296, -0.42421296, -0.42421296, -0.42421296, -0.42421296, -0.42421296, -0.42421296, -0.42421296, -0.42421296, -0.42421296, -0.42421296, -0.42421296, -0.42421296, -0.42421296, -0.42421296, -0.42421296, 1.2686423, 2.8087585, 2.8087585, 0.23765521, -0.42421296, -0.42421296, -0.42421296, -0.42421296, -0.42421296, -0.42421296, -0.42421296, -0.42421296, -0.42421296, -0.42421296, -0.42421296, -0.42421296, -0.42421296, -0.42421296, -0.42421296, -0.42421296, -0.42421296, -0.42421296, -0.42421296, -0.42421296, -0.42421296, -0.42421296, -0.42421296, 0.3522093, 2.6560197, 2.8087585, 2.8087585, 0.23765521, -0.42421296, -0.42421296, -0.42421296, -0.42421296, -0.42421296, -0.42421296, -0.42421296, -0.42421296, -0.42421296, -0.42421296, -0.42421296, -0.42421296, -0.42421296, -0.42421296, -0.42421296, -0.42421296, -0.42421296, -0.42421296, -0.42421296, -0.42421296, -0.42421296, -0.42421296, -0.42421296, 1.1159033, 2.8087585, 2.8087585, 2.3632703, 0.084916405, -0.42421296, -0.42421296, -0.42421296, -0.42421296, -0.42421296, -0.42421296, -0.42421296, -0.42421296, -0.42421296, -0.42421296, -0.42421296, -0.42421296, -0.42421296, -0.42421296, -0.42421296, -0.42421296, -0.42421296, -0.42421296, -0.42421296, -0.42421296, -0.42421296, -0.42421296, -0.42421296, 1.1159033, 2.8087585, 2.2105315, -0.19510475, -0.42421296, -0.42421296, -0.42421296, -0.42421296, -0.42421296, -0.42421296, -0.42421296, -0.42421296, -0.42421296, -0.42421296, -0.42421296, -0.42421296, -0.42421296, -0.42421296, -0.42421296, -0.42421296, -0.42421296, -0.42421296, -0.42421296, -0.42421296, -0.42421296, -0.42421296, -0.42421296, -0.42421296, -0.42421296, -0.42421296, -0.42421296, -0.42421296, -0.42421296, -0.42421296, -0.42421296, -0.42421296, -0.42421296, -0.42421296, -0.42421296, -0.42421296, -0.42421296, -0.42421296, -0.42421296, -0.42421296, -0.42421296, -0.42421296};


static const float conv1_bias[6] = {0.027777921, -0.014504846, -0.025207732, -0.25128654, 0.0673798, 0.008641568};

static const float conv1_weights[6][1][5][5] = {{{{0.109549746, 0.10308543, -0.056396127, 0.10483526, -0.129032}, {-0.042105094, -0.028768051, 0.12020928, 0.18684278, -0.1381004}, {0.19472142, 0.21726565, 0.2653616, 0.22180273, 0.22827478}, {-0.13817228, 0.09635775, -0.008413058, -0.017373113, 0.14827372}, {-0.331684, -0.3460088, -0.3727543, -0.06604083, -0.30154437}}}, {{{-0.040581543, -0.036311854, -0.11846146, -0.14596146, -0.40362498}, {0.11594866, -0.04856328, 0.14746301, -0.20923854, -0.426271}, {0.01609021, 0.25922066, 0.36433312, 0.0009322084, -0.1311854}, {-0.04414904, 0.048975445, 0.34638843, 0.37660447, 0.13784082}, {-0.17826402, -0.025381425, 0.017030023, 0.23076332, 0.020670855}}}, {{{-0.18616927, -0.042389598, -0.09592952, 0.21472849, 0.03382775}, {0.04194238, 0.114543565, 0.17732917, 0.19851068, -0.24840304}, {0.014987686, 0.13779975, 0.33597702, -0.079052165, -0.2578967}, {-0.101633325, 0.36403978, 0.10729863, -0.2513515, -0.48760942}, {0.13134557, 0.16564226, 0.36337954, -0.31076208, -0.3740861}}}, {{{-0.33319727, -0.3364259, 0.027318392, 0.08369919, 0.21005107}, {-0.3819496, -0.14440027, 0.27529505, 0.10711527, 0.17095685}, {-0.28139386, 0.0778137, 0.065493435, 0.16646062, 0.076878466}, {-0.078247264, -0.06606526, 0.26045328, 0.2878346, -0.18241653}, {-0.107328296, 0.17361559, 0.013279789, -0.014456637, -0.24969855}}}, {{{-0.30724022, -0.18142098, 0.014160927, 0.11075858, 0.015286853}, {-0.299795, -0.48461536, -0.35185006, -0.14196953, -0.17109668}, {0.24572921, -0.17051376, -0.22161333, -0.28782046, -0.26163104}, {0.1451459, 0.14391874, -0.16252151, -0.22111934, -0.29381987}, {0.14479983, 0.06904945, 0.0881261, -0.31018475, -0.46187818}}}, {{{-0.09096348, 0.09443153, -0.15547338, 0.046902403, -0.0029789023}, {0.11625078, -0.15705876, -0.42387182, 0.04368999, 0.009500773}, {-0.29738417, -0.49302143, -0.24879822, 0.16762601, -0.028368328}, {0.052679617, -0.108036146, 0.31778947, 0.03806212, -0.028367482}, {0.28216246, 0.39203158, 0.34759277, 0.22264348, -0.12948687}}}};


