#include <stdint.h>




static const float input[864] = {0.01921406015753746, 0.01921406015753746, 0.01921406015753746, 0.01921406015753746, 0.01921406015753746, 0.01921406015753746, 0.01921406015753746, 0.01921406015753746, 0.01921406015753746, 0.01921406015753746, 0.01921406015753746, 0.01921406015753746, 0.01921406015753746, 0.01921406015753746, 0.01921406015753746, 0.01921406015753746, 0.01921406015753746, 0.01921406015753746, 0.01921406015753746, 0.01921406015753746, 0.01921406015753746, 0.01921406015753746, 0.01921406015753746, 0.01921406015753746, 0.01921406015753746, 0.730291735380888, 1.09823764488101, 0.345793467015028, 0.0, 0.0, 0.0, 0.0, 0.0, 0.0, 0.0, 0.01921406015753746, 0.01921406015753746, 1.458871852606535, 3.5803289525210857, 4.265688192099333, 3.658952724188566, 3.9347920529544353, 3.9747395627200603, 3.4925837628543377, 2.835872422903776, 0.47800828143954277, 0.07591782137751579, 0.01921406015753746, 0.01921406015753746, 0.0, 0.17068013176321983, 0.5924426428973675, 1.192206036299467, 1.3548866622149944, 1.492104183882475, 1.0792718045413494, 1.0770176760852337, 0.5076035968959332, 0.6181875579059124, 0.01921406015753746, 0.01921406015753746, 0.01921406015753746, 0.01921406015753746, 0.01921406015753746, 0.07208641991019249, 0.09883240982890129, 0.0, 0.0, 0.5838516466319561, 1.0476495139300823, 0.5221981517970562, 0.01921406015753746, 0.01921406015753746, 0.01921406015753746, 0.01921406015753746, 0.01921406015753746, 0.01921406015753746, 0.01921406015753746, 0.0, 0.1794210933148861, 0.6062299124896526, 0.8705478422343731, 0.11136649176478386, 0.01921406015753746, 0.01921406015753746, 0.01921406015753746, 0.01921406015753746, 0.01921406015753746, 0.01921406015753746, 0.0, 0.0, 0.36304445192217827, 0.8118456713855267, 0.49643726274371147, 0.01921406015753746, 0.01921406015753746, 0.01921406015753746, 0.01921406015753746, 0.01921406015753746, 0.01921406015753746, 0.007699672132730484, 0.0, 0.14776572212576866, 0.8332662098109722, 0.812563668936491, 0.10008778795599937, 0.01921406015753746, 0.01921406015753746, 0.01921406015753746, 0.01921406015753746, 0.01921406015753746, 0.01921406015753746, 0.0, 0.0, 1.1734606139361858, 0.9462120048701763, 0.4264361970126629, 0.01921406015753746, 0.01921406015753746, 0.01921406015753746, 0.01921406015753746, 0.01921406015753746, 0.01921406015753746, 0.0, 0.0, 0.0, 0.0, 0.44809628650546074, 0.0680171512067318, 0.01921406015753746, 0.01921406015753746, 0.01921406015753746, 0.01921406015753746, 0.01921406015753746, 0.01921406015753746, 1.0526849143207073, 3.006349813193083, 3.7121858708560467, 1.5480467192828655, 0.21154352650046349, 0.01921406015753746, 0.01921406015753746, 0.01921406015753746, 0.01921406015753746, 0.0, 0.0, 0.0, 0.0, 0.0, 0.0, 0.0, 0.0, 0.0, 0.0, 0.0, 0.0, 0.0, 0.16454720869660378, 0.4725726880133152, 0.11255641654133797, 0.0, 0.0, 0.0, 0.0, 0.0, 0.0, 0.0, 0.0, 0.0, 1.3152681030333042, 3.919933382421732, 4.156803671270609, 3.8853891529142857, 2.5167577899992466, 2.3250811733305454, 2.242006603628397, 2.207080904394388, 0.7447003163397312, 0.0, 0.0, 0.0, 0.0, 1.5004971660673618, 3.308262649923563, 4.653784815222025, 4.134061399847269, 4.134270254522562, 3.9082043804228306, 4.666111532598734, 3.8754590190947056, 0.04514439404010773, 0.0, 0.0, 0.0, 0.0, 0.0, 0.0, 0.0, 0.0, 0.0, 1.4382175840437412, 2.095132652670145, 0.1528320647776127, 0.0, 0.0, 0.0, 0.0, 0.0, 0.0, 0.0, 0.7115410603582859, 0.5209090746939182, 0.8952081836760044, 0.35700008645653725, 0.0, 0.0, 0.0, 0.0, 0.0, 0.0, 0.0, 0.0, 0.393642608076334, 0.17431775107979774, 0.5435287989675999, 0.033006489276885986, 0.0, 0.0, 0.0, 0.0, 0.0, 0.0, 0.0, 1.1298821605741978, 0.41341734305024147, 0.629631046205759, 0.13932715728878975, 0.0, 0.0, 0.0, 0.0, 0.0, 0.0, 0.0, 0.38640231266617775, 1.3464917577803135, 0.19738446548581123, 0.7950134314596653, 0.0, 0.0, 0.0, 0.0, 0.0, 0.0, 0.0, 0.0, 0.7884969152510166, 0.4719395972788334, 0.28083980455994606, 0.3082639016211033, 0.0, 0.0, 0.0, 0.0, 0.0, 0.0, 0.0, 0.618090096861124, 1.1479292549192905, 1.6153063215315342, 0.33053160086274147, 0.0, 0.0, 0.0, 0.0, 0.0, 0.0, 0.0, 0.0, 0.03279482200741768, 0.6245606578886509, 2.125082556158304, 0.7125878967344761, 0.0, 0.0, 0.0, 0.0, 0.0, 0.0, 0.0, 0.0, 0.0, 0.0, 0.0, 0.0, 0.0, 0.0, 0.0, 0.0, 0.0, 0.0, 0.0, 0.0, 0.9233562014997005, 0.7084746025502682, 0.16539382562041283, 0.0, 0.0, 0.0, 0.0, 0.0, 0.0, 0.0, 0.0, 0.0, 0.2601983807981014, 0.6888592503964901, 0.2009609006345272, 0.0, 0.0, 0.7334147952497005, 2.255702044814825, 0.7300213240087032, 0.0, 0.0, 0.0, 1.1115838550031185, 0.7064141891896725, 0.4885878823697567, 0.7992807291448116, 1.006453301757574, 0.8826194070279598, 1.221575167030096, 4.974941994994879, 1.0810655616223812, 0.0, 0.0, 0.5141523145139217, 0.733319129794836, 0.0627589039504528, 0.30589165911078453, 0.476659681648016, 0.753766980022192, 0.0, 4.388946320861578, 4.768634106963873, 0.08417818322777748, 0.0, 0.0, 0.0, 0.0, 0.0, 0.1548422835767269, 0.10816527530550957, 0.0, 0.0, 5.366698052734137, 2.958350207656622, 0.0, 0.0, 0.0, 0.0, 0.0, 0.0, 0.0, 0.0, 0.0, 5.516384389251471, 5.4990384839475155, 0.0, 0.0, 0.0, 0.0, 0.0, 0.0, 0.0, 0.0, 0.0, 0.48667850717902184, 5.52884366735816, 2.2086334489285946, 0.0, 0.0, 0.0, 0.0, 0.0, 0.0, 0.0, 0.0, 0.0, 5.438134457916021, 5.243190076202154, 0.0, 0.0, 0.0, 0.0, 0.0, 0.0, 0.0, 0.0, 0.0, 4.433385159820318, 5.49148490652442, 1.2065744660794735, 0.0, 0.0, 0.0, 0.0, 0.0, 0.0, 0.0, 0.0, 0.0, 6.015857484191656, 4.433538224548101, 0.0, 0.0, 0.0, 0.0, 0.0, 0.0, 0.0, 0.0, 0.0, 1.5617854855954647, 4.825704362243414, 1.6480975411832333, 0.0, 0.0, 0.0, 0.0, 0.0, 0.0, 0.0, 0.0, 0.0, 0.0, 0.0, 0.0, 0.0, 0.0, 0.0, 0.0, 0.0, 0.0, 0.0, 0.0, 0.0, 0.0, 0.0, 0.0, 0.0, 0.0, 0.0, 0.0, 0.0, 0.0, 0.03271523118019104, 1.3347693383693695, 0.6000376641750336, 0.0, 0.0, 0.0, 0.0, 0.33532652258872986, 0.4807926118373871, 0.0, 0.0, 0.0, 1.517760843038559, 2.5209119021892548, 0.5401394665241241, 0.11885508894920349, 0.30777767300605774, 0.7849139869213104, 0.8399767577648163, 1.2761994302272797, 0.9931537806987762, 0.0, 0.0, 0.0, 1.0797846019268036, 1.3985258042812347, 0.0, 0.1756594181060791, 0.0, 0.0, 0.0, 1.6979549825191498, 0.0, 0.0, 0.0, 0.0, 0.0, 0.0, 0.0, 0.0193479061126709, 0.0, 0.0, 4.266836613416672, 4.158387154340744, 0.0, 0.0, 0.0, 0.0, 0.0, 0.0, 0.0, 0.0, 0.0, 0.9234572350978851, 4.8191103637218475, 2.3266999423503876, 0.0, 0.0, 0.0, 0.0, 0.0, 0.0, 0.0, 0.0, 0.0, 4.308277577161789, 4.656059712171555, 0.0, 0.0, 0.0, 0.0, 0.0, 0.0, 0.0, 0.0, 0.0, 2.470673054456711, 4.596560925245285, 1.7436754405498505, 0.0, 0.0, 0.0, 0.0, 0.0, 0.0, 0.0, 0.0, 0.15259894728660583, 4.5922097861766815, 4.254451721906662, 0.0, 0.0, 0.0, 0.0, 0.0, 0.0, 0.0, 0.0, 0.0, 3.0679831206798553, 4.703770607709885, 0.0, 0.0, 0.0, 0.0, 0.0, 0.0, 0.0, 0.0, 0.0, 1.148586243391037, 4.996477574110031, 3.920068711042404, 0.0, 0.0, 0.0, 0.0, 0.0, 0.0, 1.4893902242183685, 1.4893902242183685, 1.4893902242183685, 1.4893902242183685, 1.4893902242183685, 1.4893902242183685, 1.4893902242183685, 1.4893902242183685, 1.4893902242183685, 1.4893902242183685, 1.4893902242183685, 1.4893902242183685, 1.4893902242183685, 1.4893902242183685, 1.4893902242183685, 1.6909440457820892, 1.8608036935329437, 1.631612628698349, 1.4893902242183685, 1.4893902242183685, 1.4893902242183685, 1.4893902242183685, 1.4893902242183685, 1.4893902242183685, 1.4893902242183685, 0.0, 0.0, 0.06321486830711365, 0.8197455704212189, 0.6224755346775055, 0.3046802580356598, 0.3046802580356598, 1.2735454738140106, 2.9074343144893646, 2.489888995885849, 1.4893902242183685, 1.4893902242183685, 0.7991552650928497, 0.0, 0.0, 0.0, 0.0, 0.0, 0.0, 0.0, 3.015063136816025, 3.1952451169490814, 1.4893902242183685, 1.4893902242183685, 1.6060257852077484, 1.6761887967586517, 1.16953906416893, 1.1689458787441254, 0.16853150725364685, 0.0, 0.0, 0.0, 0.0, 1.116607278585434, 1.4893902242183685, 1.4893902242183685, 1.4893902242183685, 1.4893902242183685, 1.4926980435848236, 1.5882225930690765, 1.4948035180568695, 0.9716727435588837, 0.0, 0.0, 0.0, 1.418999046087265, 1.4893902242183685, 1.4893902242183685, 1.4893902242183685, 1.4893902242183685, 1.4893902242183685, 1.4893902242183685, 1.4893902242183685, 0.0, 0.0, 0.0, 0.236113041639328, 1.4893902242183685, 1.4893902242183685, 1.4893902242183685, 1.4893902242183685, 1.4893902242183685, 1.4893902242183685, 1.4893902242183685, 1.0484731495380402, 0.0, 0.0, 0.0, 1.4698370397090912, 1.4893902242183685, 1.4893902242183685, 1.4893902242183685, 1.4893902242183685, 1.4893902242183685, 1.4893902242183685, 1.4717534482479095, 0.0, 0.0, 0.0, 0.5601522922515869, 1.4893902242183685, 1.4893902242183685, 1.4893902242183685, 1.4893902242183685, 1.4893902242183685, 1.4893902242183685, 1.4893902242183685, 0.0, 0.0, 0.0, 0.0, 1.4893902242183685, 1.4893902242183685, 1.4893902242183685, 1.4893902242183685, 1.4893902242183685, 1.4893902242183685, 1.4893902242183685, 1.1307776868343353, 0.0, 0.0, 0.0, 1.1844561994075775, 1.4893902242183685, 1.4893902242183685, 1.4893902242183685, 1.4893902242183685, 1.4893902242183685, 1.4893902242183685, 1.4893902242183685, 0.50108802318573, 0.0, 0.0, 0.13335475325584412, 1.4893902242183685, 1.4893902242183685, 1.4893902242183685, 1.4893902242183685, 1.4893902242183685, 0.022405539639294147, 0.022405539639294147, 0.022405539639294147, 0.022405539639294147, 0.022405539639294147, 0.022405539639294147, 0.022405539639294147, 0.022405539639294147, 0.022405539639294147, 0.022405539639294147, 0.022405539639294147, 0.022405539639294147, 0.022405539639294147, 0.022405539639294147, 1.4617539318278432, 2.279690352268517, 1.7143866689875722, 0.4175266297534108, 0.022405539639294147, 0.022405539639294147, 0.022405539639294147, 0.022405539639294147, 0.022405539639294147, 0.022405539639294147, 0.022405539639294147, 0.2067921431735158, 3.2103925617411733, 4.1806643875315785, 3.841547098942101, 3.9800935657694936, 4.215240326710045, 4.342667427845299, 4.400725689716637, 4.206083622761071, 1.6756930025294423, 0.022405539639294147, 0.022405539639294147, 0.464728114195168, 0.0, 0.0, 0.0, 0.0, 0.0, 0.0, 0.6058851750567555, 1.1797057064250112, 0.47155618388205767, 0.022405539639294147, 0.022405539639294147, 0.19634970743209124, 0.0, 0.0012495862320065498, 0.0, 0.0, 0.0, 0.44687431771308184, 3.324152556248009, 0.0, 0.0, 0.022405539639294147, 0.022405539639294147, 0.022405539639294147, 0.022405539639294147, 0.022405539639294147, 0.030051802285015583, 0.0918043302372098, 0.0, 3.487374392338097, 3.165059176273644, 0.0, 0.0015650736168026924, 0.022405539639294147, 0.022405539639294147, 0.022405539639294147, 0.022405539639294147, 0.022405539639294147, 0.022405539639294147, 0.022405539639294147, 1.295955148525536, 3.1781619461253285, 0.0, 0.0, 0.022405539639294147, 0.022405539639294147, 0.022405539639294147, 0.022405539639294147, 0.022405539639294147, 0.022405539639294147, 0.022405539639294147, 0.2154206307604909, 4.03781255800277, 2.980974760837853, 0.0, 0.016616527922451496, 0.022405539639294147, 0.022405539639294147, 0.022405539639294147, 0.022405539639294147, 0.022405539639294147, 0.022405539639294147, 0.017461122013628483, 3.1765626342967153, 3.973470297642052, 0.0, 0.0, 0.022405539639294147, 0.022405539639294147, 0.022405539639294147, 0.022405539639294147, 0.022405539639294147, 0.022405539639294147, 0.022405539639294147, 1.0690616043284535, 3.8491328628733754, 0.6352037461474538, 0.0, 0.022405539639294147, 0.022405539639294147, 0.022405539639294147, 0.022405539639294147, 0.022405539639294147, 0.022405539639294147, 0.022405539639294147, 0.0, 3.0652447612956166, 3.8247655304148793, 0.0, 0.0, 0.022405539639294147, 0.022405539639294147, 0.022405539639294147, 0.022405539639294147, 0.022405539639294147, 0.022405539639294147, 0.022405539639294147, 0.21390759665519, 2.030100670643151, 0.0, 0.0, 0.022405539639294147, 0.022405539639294147, 0.022405539639294147, 0.022405539639294147, 0.022405539639294147};






static const float conv2_bias[16] = {-0.050250515, 0.020903142, 0.10159417, -0.021531777, -0.10945606, 0.056902662, 0.053732675, 0.022986066, -0.046831153, 0.059057098, -0.015402826, 0.0752313, 0.020302083, 0.081602015, -0.008276874, 0.008326009};


static const  float conv2_weights[16][6][5][5] = {{{{-0.06589215, -0.07766577, 0.012049367, -0.01967129, 0.06469354}, {0.041761246, -0.049761824, -0.22805007, -0.07560847, 0.0036283038}, {-0.11436473, 0.08278546, -0.10395727, -0.20408152, -0.04753178}, {-0.11037415, 0.07479707, 0.015244928, -0.16656649, -0.17235559}, {-0.045106035, 0.16288438, 0.14965574, -0.10814407, -0.013813056}}, {{0.07506815, -0.07057479, -0.26636642, -0.0696647, 0.019301206}, {0.11437358, 0.16280082, -0.1454096, -0.24798423, 0.03164086}, {-0.007777616, 0.32564518, 0.17604376, -0.08106646, -0.16942947}, {-0.24200015, 0.16132239, 0.19007196, 0.058056623, -0.115849055}, {-0.20308852, -0.0014182843, 0.11223076, 0.07838077, 0.054616056}}, {{-0.096491195, 0.010674199, -0.14767854, -0.017767409, 0.11599568}, {-0.020955088, 0.048849504, -0.09075806, -0.024973018, -0.057407904}, {-0.1240513, 0.0836099, 0.15104303, -0.02098215, -0.065118976}, {-0.007686781, 0.022075826, 0.20772365, -0.021710768, 0.020955386}, {-0.018410204, 0.044505358, 0.07622337, -0.017229915, -0.05041365}}, {{-0.022803918, -0.0032079867, -0.008535161, 0.00986175, 0.1260223}, {-0.11324355, -0.20554203, -0.25970197, -0.11363567, 0.12281082}, {0.030242138, -0.03224118, -0.22659019, -0.085544504, 0.04765601}, {0.17647904, 0.15590364, -0.12771964, -0.073867746, 0.04812153}, {0.0757191, 0.20754828, -3.784363e-05, -0.08994024, -0.07838447}}, {{0.07440726, 0.0358773, 0.018769257, 0.08125631, -0.09318419}, {-0.007746492, 0.22661874, 0.13203813, 0.09143777, -0.08409682}, {0.0595762, -0.023684034, 0.11021427, -0.018772768, 0.02883728}, {0.0016196591, 0.030877713, 0.14824669, 0.07409699, 0.040668566}, {-0.10755387, -0.20895317, -0.18479341, -0.02299921, 0.032179568}}, {{-0.08847014, -0.019561693, -0.121196024, -0.091147944, -0.07152408}, {-0.16285858, -0.0148579795, 0.12487309, -0.024195427, 0.024683751}, {-0.1310178, -0.16752496, -0.15041679, -0.03591318, -0.12433057}, {0.061014596, -0.09673913, -0.31315753, -0.10371554, 0.0133066}, {0.09062306, 0.119671665, -0.14367363, -0.09088688, 0.08588029}}}, {{{-0.045763858, -0.028552387, -0.12873857, -0.07908582, 0.004441801}, {0.028574456, -0.0021180182, 0.13759956, 0.21505468, 0.10855126}, {0.13075244, 0.26981023, 0.10916831, 0.024821565, -0.20921372}, {-0.14169115, -0.093680084, -0.17199549, -0.22470027, -0.10995042}, {-0.16276877, -0.275733, -0.19536316, 0.007554974, 0.08204856}}, {{-0.07911457, -0.08525532, -0.07668624, 0.05810179, -0.024973182}, {0.043269675, 0.1825001, 0.05291943, -0.04928077, -0.05093995}, {-0.0007605428, -0.080389544, -0.12012996, -0.4157516, -0.2892782}, {0.10088351, -0.07376381, -0.10105643, 0.031555586, 0.08667433}, {0.09800268, 0.038283207, -0.0037078932, -0.004685222, 0.10187159}}, {{-0.014508679, 0.01245114, -0.014713318, 0.17429978, 0.18004443}, {-0.14070274, -0.051424515, 0.13992372, 0.1317878, 0.029717607}, {-0.05857513, -0.10578484, -0.12781847, -0.218267, -0.13963488}, {-0.0744694, -0.1854555, -0.21899253, -0.20824991, -0.011002283}, {-0.003463363, 0.11131893, 0.2289799, 0.14310248, 0.14082043}}, {{-0.008780279, 0.01242003, 0.003854518, 0.099961385, 0.19117403}, {-0.18544601, 0.025017612, 0.17374888, 0.24780793, -0.04226607}, {-0.0748258, 0.0979436, 0.06470241, -0.15846263, -0.27728376}, {-0.26454243, -0.24199122, -0.4372304, -0.19831441, -0.08939436}, {-0.07834005, -0.15787953, -0.0018347942, 0.13929155, -0.064382166}}, {{-0.110576384, -0.05695886, -0.09519164, -0.09177718, -0.076050945}, {-0.14825182, -0.023289688, -0.09041469, -0.030936407, -0.0634361}, {-0.0658776, 0.0020986076, -0.06708575, 0.07259931, 0.1701998}, {-0.035711262, 0.038304288, 0.21322908, 0.16738717, 0.13351113}, {0.003029789, -0.046335798, 0.033592843, 0.09411221, 0.14745021}}, {{0.019929143, -0.021059802, 0.12638749, 0.11263458, 0.14430134}, {-0.05796114, 0.08836154, 0.040205088, 0.014752969, -0.20129013}, {0.05914817, -0.117966905, -0.33364198, -0.039014764, 0.053822543}, {-0.013153837, 0.0701377, 0.15693134, 0.13775206, 0.06147647}, {0.066024564, 0.020163203, 0.058595344, -0.020515364, -0.073232226}}}, {{{0.016044792, 0.06472385, -0.039510533, -0.107794024, -0.20980045}, {0.05537506, 0.029979656, -0.060779437, 0.13353546, 0.07413561}, {-0.1531499, -0.1056003, 0.035044402, 0.10774472, 0.17198928}, {-0.010546431, 0.040343665, -0.043469604, -0.14483573, -0.032752555}, {0.082205735, 0.061243046, 0.03761638, -3.3208606e-05, -0.029407373}}, {{0.051136374, -0.051002026, 0.0049340837, -0.055903856, 0.026932117}, {0.023945767, 0.020983987, 0.15411696, 0.12695074, 0.22812375}, {-0.037971433, 0.030056525, -0.05933992, -0.06824267, 0.062116552}, {-0.089738764, 0.024044668, -0.06577041, -0.14058402, -0.1821948}, {-0.116063155, 0.029889314, 0.09143087, 0.07640786, -0.06392418}}, {{0.017522328, -0.18451394, -0.10716363, -0.3197759, -0.15040259}, {-0.178664, -0.026386073, -0.18262096, -0.18687323, -0.0709488}, {0.12400861, 0.032944348, 0.09808764, -0.0051430087, -0.078831516}, {0.19920272, 0.096638806, 0.10518419, 0.027730213, -0.14854127}, {0.0027312536, -0.09079283, -0.04536616, 0.08179178, 0.19254926}}, {{-0.124884404, -0.15592484, -0.13700308, -0.20802377, -0.16295318}, {-0.17572467, -0.036238577, -0.15011369, 0.08554497, -0.11909619}, {-0.031103972, 0.12711363, -0.020285442, 0.07142119, -0.21150488}, {0.114051595, 0.17069209, 0.015579685, -0.1416112, 0.011495733}, {-0.035401363, -0.02882558, -0.1414765, -0.17309006, 0.011001164}}, {{0.053737372, 0.085306, 0.14102532, 0.12119122, 0.1427923}, {0.08243361, 0.08584413, -0.16536553, -0.29406434, -0.14496487}, {-0.113264516, -0.30755305, -0.33962467, -0.2093635, -0.19581228}, {-0.13237123, -0.25762662, 0.077948205, 0.108102165, -0.045056857}, {-0.013631478, 0.058807526, 0.054095738, 0.042590473, 0.096813135}}, {{-0.14805731, 0.012254402, -0.12076361, -0.041438125, 0.05861554}, {-0.037865687, 0.057653677, 0.065845504, 0.24041253, 0.16674253}, {0.21702483, 0.095419325, 0.05085035, -0.021199487, -0.21408437}, {0.14154522, 0.011788721, -0.053421646, -0.094150625, 0.15900847}, {-0.16049889, -0.28437355, -0.12588707, 0.0019723917, 0.0553345}}}, {{{-0.087079406, -0.04865534, -0.024992853, -0.01912282, -0.04394724}, {-0.1549731, -0.2710168, 0.01035488, 0.0052300603, -0.046685297}, {-0.0664448, -0.1649331, -0.057801776, 0.048565492, -0.062077776}, {-0.20615023, -0.14146304, -0.08290015, -0.013477609, -0.073072866}, {-0.089877374, -0.020448953, -0.05568064, 0.034950554, -0.17316353}}, {{-0.22327352, -0.27596858, -0.10343887, -0.0795515, -0.049101163}, {-0.28822196, -0.13410755, -0.13414975, -0.122014165, -0.08455835}, {-0.16376357, -0.030262314, -0.09512972, -0.18177843, -0.15666586}, {-0.057034865, -0.04926261, -0.0637899, -0.035401467, -0.04265053}, {-0.059959844, 0.07745811, -0.026336508, 0.059105337, 0.019382909}}, {{0.037547573, -0.21052633, -0.08116737, 0.13521391, 0.05573249}, {-0.018668156, -0.09066359, 0.12980777, 0.16473074, 0.051282406}, {-0.09694685, 0.093974665, 0.13476425, -0.032511592, -0.11052375}, {0.10902088, 0.17367612, 0.032532457, -0.13145171, 0.028525703}, {0.044618487, 0.011088134, -0.11771963, 0.036232434, -0.035787895}}, {{0.093296036, -0.13323253, -0.07710058, 0.02230722, 0.13045645}, {-0.25142172, -0.08083697, 0.027393706, 0.18001412, 0.10154853}, {-0.05254504, 0.114032045, 0.1859255, 0.15046065, -0.22868283}, {0.060849402, 0.12661503, 0.057905495, -0.048659176, -0.10847267}, {0.026714813, 0.03921154, -0.17030683, -0.1799074, -0.27627754}}, {{0.1359131, 0.12149801, -0.05523469, -0.11489159, -0.02942111}, {0.14944808, 0.08704407, -0.17815527, -0.042704605, 0.059082318}, {0.09378994, -0.16982362, -0.25279436, -0.11594153, -0.034193203}, {0.027586982, -0.05117605, -0.13625509, 0.064152725, 0.15797561}, {0.04187545, -0.100862466, 0.025412815, 0.02850007, 0.13465905}}, {{-0.13233581, -0.3210267, 0.011346947, 0.058029804, 0.041830577}, {-0.14385691, -0.07105881, 0.15871334, 0.10448504, -0.04408203}, {-0.041252706, 0.15989994, 0.20382947, -0.119745016, -0.17135942}, {0.10178168, 0.055756997, -0.1823738, 0.0066247536, 0.047164693}, {0.1517782, 0.047565427, -0.05153482, 0.080134384, -0.030158415}}}, {{{0.09759347, 0.10612525, -0.08735745, 0.0815518, -0.1591696}, {-0.008350682, -0.16645046, -0.18325293, -0.10482599, -9.500794e-05}, {0.04868287, -0.1020537, -0.14098985, 0.07815951, -0.03189825}, {0.110069156, -0.20015235, -0.20532422, 0.016034614, 0.054328945}, {-0.023234874, -0.20682698, -0.1750176, 0.033062756, 0.1014616}}, {{-0.00848983, -0.08048237, -0.10004612, -0.066831395, -0.10033799}, {0.15182215, 0.0049390444, -0.19453743, 0.08837278, -0.0066965194}, {0.13714294, -0.054050595, -0.18062939, 0.07825448, -0.006225315}, {-0.070089795, -0.26565745, -0.2883582, 0.12761866, 0.0749119}, {-0.10311587, -0.1444545, 0.09123443, 0.029550973, 0.12791097}}, {{0.066053025, 0.052314688, 0.009382479, -0.15575016, 0.05085313}, {0.17312245, 0.023669848, -0.30118814, 0.08969987, 0.12119504}, {0.2339068, 0.08903636, -0.42174277, 0.086992145, 0.12920882}, {0.25557715, -0.056045502, -0.16226888, -0.06584216, 0.14733821}, {0.0028167134, -0.2343965, 0.049061194, -0.03158742, 0.12909612}}, {{-0.06860617, -0.058633257, -0.029921366, -0.04778675, 0.050214555}, {-0.021037258, -0.07725231, 0.03928442, 0.18219425, 0.031796087}, {0.12718417, -0.053430494, -0.026379725, 0.03566646, 0.004908034}, {0.14372735, -0.28260612, 0.059497662, 0.17484385, 0.03448219}, {-0.11704279, -0.22716472, 0.10039572, 0.057861403, -0.050327018}}, {{0.09954873, 0.15107307, 0.077728905, 0.042083114, -0.11111258}, {-0.054152433, 0.16039087, -0.038955137, -0.08011264, 0.0049498794}, {0.06200257, 0.08777152, 0.101527676, -0.025488976, -0.0652049}, {-0.041543353, 0.030786067, 0.1549953, -0.10836258, -0.16417785}, {-0.018965252, -0.004477844, 0.21831721, -0.13125768, -0.113239795}}, {{0.07752971, -0.035076886, -0.0474873, -0.024093395, -0.0058209747}, {0.09043228, -0.074303634, -0.08096135, 0.07751111, -0.14598273}, {0.01521354, -0.22483942, -0.06384451, 0.019178772, -0.2569844}, {-0.20302038, -0.2475073, -0.044898465, -0.16662587, -0.26003605}, {-0.0015490758, 0.037521187, 0.03280163, -0.018384939, -0.2522165}}}, {{{-0.16441038, 0.01842269, -0.041781638, -0.11993174, -0.11225798}, {-0.050621685, -0.029510485, -0.0129573345, 0.018058779, -0.17960128}, {-0.07432789, -0.090657115, -0.11965251, -0.16318676, -0.20025085}, {-0.025553813, -0.10329666, -0.011301211, 0.066915795, -0.04755505}, {0.058850184, 0.13744658, 0.026812052, 0.033365108, 0.106703155}}, {{-0.066933386, 0.005492048, -0.017974762, -0.12350538, -0.1482434}, {-0.10792324, -0.02455981, 0.04696613, -0.062503, -0.065571465}, {-0.06988243, -0.064332, 0.0017151068, -0.037706207, 0.035520416}, {-0.08924651, -0.054099347, 0.047999043, 0.062360737, -0.079032116}, {0.016852612, 0.11185512, 0.08663013, -0.027657842, -0.13837034}}, {{-0.10266721, 0.03998412, 0.24798444, 0.15167426, 0.015519261}, {-0.074576475, -0.026143385, 0.10198685, 0.0027078143, 0.06532927}, {0.108483724, 0.05133016, 0.10048948, -0.03172133, 0.1262487}, {0.042044662, -0.046247534, -0.006579948, 0.11676619, 0.13897842}, {-0.113613136, -0.066315725, 0.1608475, 0.10451423, 0.041733954}}, {{-0.05069551, 0.05296108, 0.059988312, -0.06203206, 0.031958938}, {-0.090970665, -0.01670055, 0.075458, -0.08387241, -0.0038089217}, {0.05467417, 0.023802431, -0.02718071, -0.052171737, 0.07909559}, {0.03100748, 0.020878106, -0.04386298, -0.14290921, 0.14685085}, {-0.0024173656, -0.015497481, -0.06646917, -0.14023602, -0.03837801}}, {{-0.044105, -0.027654236, -0.106734954, -0.059923865, 0.032029767}, {-0.03784051, -0.23310712, -0.22875634, -0.02743301, 0.06614666}, {-0.19316326, -0.45908466, -0.21226753, 0.020006835, -0.12712817}, {-0.18265913, -0.31291527, -0.0949931, -0.24823515, -0.19533688}, {-0.087444186, -0.272186, -0.40191147, -0.4298838, -0.19745822}}, {{-0.06753593, -0.093761995, -0.14901702, 0.047080036, 0.14544094}, {0.057917282, -0.04934819, 0.010809106, -0.03826984, -0.012195076}, {0.17193437, 0.0750063, -0.06988139, 0.03773743, 0.051366307}, {0.012756402, 0.044033222, 0.04146284, 0.12058655, 0.18226616}, {-0.04841118, -0.09503316, -0.08556546, 0.20982999, 0.036969077}}}, {{{-0.086809754, -0.06118429, -0.10603084, -0.13339685, -0.08016613}, {0.10856334, 0.11674096, 0.12402488, -0.05088389, 0.0046196827}, {0.14367594, 0.23918974, 0.26157168, 0.24058375, 0.11798674}, {0.0074724434, 0.026585646, 0.117447056, 0.018157743, -0.04342013}, {-0.25063443, -0.13884422, -0.21185039, -0.15370849, -0.2292872}}, {{-0.07688198, -0.059845287, -0.06344993, 0.043679528, 0.00915416}, {0.12863919, 0.14546081, 0.025941636, -0.040595658, -0.067135125}, {0.09387272, -0.006381753, 0.066804856, 0.12287217, -0.1018425}, {-0.23420937, -0.07561832, -0.11186639, -0.26833367, -0.3321087}, {0.10945733, -0.05314737, -0.032978225, -0.07457299, 0.035309795}}, {{-0.004906641, 0.10570654, -0.09633179, 0.0958985, -0.06945357}, {-0.15114824, -0.06858554, 0.0014126565, 0.090980165, 0.16067971}, {-0.17445666, -0.0859482, 0.052097004, 0.13019705, 0.10037025}, {-0.23456563, -0.1402697, -0.07463248, 0.02964352, -0.09180073}, {-0.030251939, 0.09103748, -0.019862972, -0.1352702, -0.26527214}}, {{0.10758197, 0.10373578, -0.012560306, 0.06408433, 0.013132775}, {-0.029232495, 0.05858769, -0.046213485, -0.04592701, 0.0204411}, {-0.052351803, 0.029117929, -0.015037746, -0.065081514, 0.029012645}, {-0.12978934, -0.036646172, 0.016242772, -0.13999327, -0.47397253}, {0.009968415, 0.021584157, -0.10027091, -0.110822834, -0.08818858}}, {{0.0541183, 0.046010073, -0.13284178, 0.058050867, -0.004657667}, {-0.0568275, -0.11782159, -0.05625283, -0.21179646, 0.037945915}, {-0.08178789, -0.1398026, -0.31460884, -0.26469374, -0.19177674}, {0.12296347, 0.09926669, 0.06900814, 0.0768344, 0.089285076}, {0.16140926, 0.177912, 0.15547977, -0.024828123, 0.092980206}}, {{0.06201846, -0.10381368, -0.11173173, 0.005811047, 0.02451816}, {0.047205567, -0.042928904, 0.047378764, 0.13511622, 0.07062429}, {-0.19029294, -0.18331677, -0.31297514, -0.23016757, -0.29339117}, {-0.11755448, -0.06749088, -0.112168156, 0.0589078, 0.040532712}, {0.11971647, 0.05721812, 0.13641317, 0.17228077, 0.005475569}}}, {{{-0.019314775, -0.020968735, 0.11470371, 0.012992612, -0.052825414}, {-0.18113506, -0.0147820655, -0.013845553, -0.069609836, 0.03925966}, {0.036730524, 0.007813691, 0.03977387, 0.027921136, -0.032625917}, {0.114147216, 0.09610568, -0.06488954, 0.039462715, -0.086765096}, {0.022399414, 0.058253016, -0.06290659, -0.105433635, 0.10412437}}, {{0.10637836, 0.10492195, 0.15610567, 0.18931802, -0.019345956}, {-0.034807384, -0.046756417, -0.06220334, 0.06473812, -0.027245626}, {0.032405786, -0.028289113, -0.13996346, 0.06421168, 0.09345474}, {-0.06692563, -0.18027133, -0.20256653, -0.022495767, 0.09252546}, {-0.19778974, -0.055457488, -0.026295047, -0.08317006, 0.10358293}}, {{-0.21200079, -0.13554294, -0.16520214, 0.022444189, 0.14702684}, {0.028312193, -0.042784896, -0.08494212, 0.12511711, 0.19713832}, {-0.07231889, 0.095724106, 0.03181502, -0.015915867, 0.06146913}, {0.039671812, 0.022237271, 0.025712546, -0.20458142, -0.06950184}, {-0.04151026, 0.027837386, 0.01262177, -0.05616269, -0.12606531}}, {{0.01500114, 0.08774207, -0.08801212, -0.2823409, 0.011198319}, {0.14645213, -0.05454953, -0.1000542, 0.0036955052, 0.026776774}, {0.12516591, 0.09858138, -0.039922647, 0.069086626, 0.03501777}, {-0.045995805, -0.10439881, -0.041235786, -0.10256209, -0.10103798}, {-0.076332994, -0.01927923, -0.060438365, -0.041649997, 0.16855513}}, {{-0.06751239, -0.21956094, 0.047337845, 0.043050017, 0.0350847}, {0.0038818466, -0.026885992, -0.024745716, -0.20522413, -0.18184374}, {-0.054617625, -0.10272342, -0.124444254, -0.118266866, -0.27868325}, {-0.020174142, -0.080790445, -0.010008767, -0.05358911, -0.19720274}, {0.05310527, 0.09340116, -0.09062094, 0.08225154, -0.13329275}}, {{0.062109064, 0.1560868, -0.020969316, -0.09836312, 0.09780895}, {0.10306887, -0.053493533, -0.010141745, -0.06933291, 0.004440868}, {-0.021154407, 0.0666865, -0.042930424, -0.20528005, -0.30906424}, {-0.1797737, -0.1382072, -0.28313935, -0.20038134, 0.016689084}, {-0.1186681, 0.024326604, 0.0074227364, 0.06859818, 0.015995212}}}, {{{-0.085593544, 0.06209426, 0.12051524, 0.15915725, 0.114952005}, {-0.089011095, -0.30439183, -0.19073112, -0.042883117, -0.002999679}, {-0.04791804, -0.000522241, 0.16138597, 0.081215814, 0.03659394}, {0.101396635, 0.029220445, 0.013311531, 0.115237616, 0.10458814}, {0.100823365, 0.009163588, 0.06168781, 0.07458364, 0.10624061}}, {{-0.276238, -0.09410288, -0.10149022, 0.091883, -0.070136584}, {-0.15459059, -0.06912242, -0.15994835, -0.34067672, -0.15277691}, {0.013234183, 0.19072902, 0.18221676, 0.27255273, 0.094828606}, {-0.007962418, 0.05452918, 0.065076075, 0.072651185, 0.11565152}, {-0.13900346, -0.020622816, 0.0738774, 0.035660185, 0.025255326}}, {{-0.18233165, -0.23526977, -0.2789326, -0.14132343, -0.09181792}, {-0.1839638, -0.24213533, -0.17959556, -0.14819145, -0.22555366}, {-0.025200604, -0.10034798, -0.097325034, 0.0012995962, 0.07720439}, {0.13552721, 0.032725252, -0.006975534, 0.091469675, -0.0011916667}, {-0.06768793, -0.036788877, 0.012311686, 0.0015269811, 0.055773336}}, {{-0.024679018, -0.017882679, 0.15069698, 0.13797276, 0.22237955}, {-0.061723445, -0.15336716, -0.22737163, -0.18137498, -0.16266587}, {-0.0540913, -0.14446005, -0.29090372, -0.22852851, -0.08644908}, {0.0806169, 0.13048823, -0.06026704, -0.11880243, -0.043409467}, {0.040151563, 0.10058353, 0.11881586, 0.036127027, -0.06468224}}, {{0.054957755, 0.10733109, 0.10855672, -0.06527879, -0.1435478}, {0.059229083, 0.040154185, 0.045819733, 0.0065616164, 0.024155052}, {0.037821338, -0.10660065, 0.04188079, 0.22715397, 0.261594}, {-0.08611691, -0.1040148, -0.12694745, -0.22545905, 0.15159392}, {-0.07430664, -0.06152535, -0.10724745, -0.04842675, 0.02157802}}, {{0.07145762, -0.15598325, -0.27306846, -0.361012, -0.2270882}, {0.09640341, 0.16884167, 0.19717199, 0.13715132, -0.05983543}, {0.08851706, 0.09794416, 0.06724802, 0.06133257, 0.045592}, {-0.0832994, 0.079165705, 0.0548149, 0.03312318, 0.09359099}, {-0.04889448, -0.07657179, -0.11797967, -0.07176676, -0.22875954}}}, {{{-0.12441888, -0.12118607, -0.13888289, -0.0459427, -0.119881645}, {-0.08223722, -0.09510817, -0.14861588, -0.030016752, -0.03714538}, {0.07874895, 0.1689175, 0.16292487, 0.039920203, 0.11916181}, {0.09818376, 0.20587382, 0.2215736, 0.062046465, -0.06125505}, {-0.069186665, -0.013904536, -0.0915903, -0.17505468, -0.14693731}}, {{-0.0018335843, -0.04023065, -0.08365716, -0.022380557, -0.080893375}, {-0.02153216, -0.028940983, -0.1560586, -0.051118992, 0.061767068}, {0.17639987, 0.24757718, 0.22441702, 0.04377696, 0.056352764}, {0.044987265, 0.12320552, -0.033440575, -0.16980898, -0.1534427}, {0.06055666, -0.04042518, -0.11583634, -0.0487483, -0.06961642}}, {{0.031848457, 0.014219985, -0.12917405, -0.18270914, -0.021300172}, {0.0675917, 0.15623604, -0.08930787, -0.10719089, -0.035959706}, {-0.11220938, -0.053023342, -0.008267563, 0.00431112, 0.103068106}, {0.054664586, 0.0027115208, 0.029022811, 0.096027724, -0.037551664}, {-0.0032081082, -0.05949476, -0.039264333, 0.0015750803, -0.24882816}}, {{-0.010285302, 0.038451456, 0.11276865, 0.1831853, 0.032877427}, {0.042888142, 0.1152656, -0.002299538, -0.02285265, -0.03441921}, {0.020655224, -0.11943595, -0.12780513, 0.16443016, 0.094856985}, {-0.0706426, -0.1394845, -0.03920228, 0.15792955, -0.1542036}, {-0.094530575, -0.17894435, -0.13368395, -0.080404535, 0.007558382}}, {{-0.050556134, 0.011837181, -0.005996186, 0.0349728, 0.09701937}, {0.06586691, -0.032054912, -0.012162521, 0.083486505, -0.11633959}, {0.03340889, -0.022255654, -0.24454683, -0.3477527, -0.2264107}, {0.03878167, -0.04087557, -0.22169764, -0.10838452, -0.04207095}, {0.16139153, 0.042712122, 0.07826432, 0.12683444, 0.061720997}}, {{-0.004687115, -0.013054298, 0.04095584, -0.18644212, -0.19185895}, {-0.0411328, -0.021207001, 0.14312406, 0.1445758, 0.15799794}, {-0.031904265, -0.12875271, 0.107450955, 0.14003709, 0.097231045}, {-0.12056158, -0.2462894, -0.07652682, -0.33926177, -0.24762294}, {-0.19690962, -0.13967153, -0.033442955, 0.12538862, 0.03053359}}}, {{{0.010365445, -0.082091175, 0.08590327, 0.07272502, 0.12688012}, {0.02340465, 0.07406693, -0.06960868, -0.08192133, 0.11530047}, {-0.031189242, 0.100704685, -0.09728041, -0.18282427, -0.0897567}, {0.02235166, -0.0198787, 0.09092331, 0.06764578, 0.059738882}, {-0.09602827, -0.06803267, 0.042843737, -0.055174906, -0.11493442}}, {{-0.008595623, 0.00844331, 0.053212877, 0.12331051, 0.19040887}, {-0.049651343, 0.0669673, -0.18313557, -0.08955833, -0.13664046}, {-0.05789983, 0.10542795, 0.044949215, -0.07787146, -0.19680215}, {0.028069807, 0.07098948, -0.07124219, -0.035376754, -0.0958951}, {0.075189546, 0.13936284, -0.08326641, 0.104754046, 0.10173149}}, {{0.04703756, 0.09892656, -0.01922978, -0.07129685, 0.077382915}, {0.0054613296, 0.11528429, 0.11225158, -0.0029290565, -0.049611446}, {-0.0075161145, 0.108175986, -0.023712987, -0.011418822, -0.033407737}, {-0.028397389, 0.003188073, -0.16429086, -0.051891018, 0.07654656}, {-0.13200694, 0.022128537, -0.0030514617, -0.060950555, 0.014251702}}, {{0.11494804, 0.01745168, -0.1527557, -0.12785208, 0.0675573}, {0.06992747, -0.043606877, -0.1707214, -0.05452832, 0.030733505}, {0.132725, -0.039395705, -0.19384496, -0.08910018, 0.04733614}, {0.13508806, 0.20037667, -0.31163782, -0.08223068, 0.033706628}, {0.18917027, 0.041737255, -0.1104312, -0.023153992, -0.066725954}}, {{0.061650556, -0.019786382, -0.0059389276, -0.04277275, -0.19037226}, {-0.1503844, -0.06725998, 0.03463653, -0.06419838, -0.17903967}, {-0.060391348, -0.06450445, 0.09313762, 0.10906892, 0.018808557}, {-0.17697951, -0.08036978, 0.1350074, 0.05083642, 0.0039034241}, {-0.05413053, -0.20600595, -0.01133934, -0.10497129, 0.039191186}}, {{-0.11791828, -0.08633555, -0.006564918, -0.16190805, -0.10441375}, {-0.15832624, -0.12628312, -0.2586572, -0.2777003, -0.07990859}, {-0.11249732, -0.47437286, -0.09989055, -0.016970288, 0.03150646}, {-0.103805065, -0.31727105, -0.01626817, 0.030256286, 0.009910778}, {0.054623306, -0.0010252253, 0.13636084, 0.17748494, 0.15794326}}}, {{{0.0764926, -0.019533243, -0.095691554, -0.09699396, 0.015337945}, {-0.07078961, -0.20201647, 0.0076753516, 0.034174155, 0.15171294}, {-0.15105468, -0.012103287, -0.019893251, 0.050684858, 0.034731463}, {-0.048169754, 0.09694917, 0.14384127, 0.16307244, 0.027954409}, {0.0511168, -0.10141048, -0.009218045, 0.06540204, -0.07903406}}, {{0.05146378, -0.09055618, -0.07186525, 0.0860927, -0.014251657}, {0.016232798, 0.1327043, -0.015130766, -0.098632865, 0.007636518}, {0.016184896, -0.06475983, -0.046522498, -0.09648095, -0.012644901}, {-0.10087394, -0.022735296, 0.17152765, 0.027730672, 0.0089766085}, {0.24796863, 0.17036484, 0.14845736, 0.054689154, 0.0043815705}}, {{-0.048997175, -0.22091003, -0.18790911, 0.10724986, 0.115403034}, {-0.38666484, -0.084854916, 0.28500798, -0.010053073, 0.021826597}, {0.0074897218, 0.11682196, 0.18257833, 0.051910393, 0.017009355}, {0.13369597, 0.023325015, -0.12601289, -0.03899055, 0.059219137}, {-0.15678087, -0.078551956, 0.037873194, 0.034301788, -0.08257047}}, {{0.0010821053, -0.11124454, -0.057775956, 0.06706145, -0.009208133}, {-0.26074344, 0.005051468, 0.121347, -0.049127866, -0.14306207}, {0.21686827, 0.046854295, -0.032908715, -0.16252351, -0.13898203}, {0.14812177, -0.07170452, -0.15554743, -0.23744488, -0.064835995}, {-0.18764454, -0.16546322, -0.14843442, -0.09645914, -0.07175036}}, {{-0.07654777, 0.017774343, -0.13129883, -0.21805507, -0.13321504}, {-0.040400706, -0.18373363, -0.35058147, -0.24979696, -0.005505668}, {-0.10525622, -0.16797684, -0.1286267, -0.05996656, -0.006900861}, {0.02764621, -0.17524338, -0.07815977, 0.107224956, 0.04780676}, {0.023525888, 0.1329872, 0.09218844, -0.02300908, 0.035372455}}, {{-0.06394673, -0.23161107, 0.12276103, 0.04707713, 0.0038219984}, {-0.0011739889, 0.106365204, 0.17100635, -0.011280407, -0.020266833}, {0.005118305, 0.06643851, -0.24691734, 0.101762444, 0.09296009}, {-0.13863312, -0.2263563, 0.0059153577, -0.030110588, -0.060801595}, {-0.020567205, -0.061551757, -0.048675917, -0.050080657, -0.028241076}}}, {{{-0.10252662, 0.06016314, 0.14264458, 0.11612868, 0.07329664}, {0.0065646735, 0.039726377, 0.13952169, 0.15208426, 0.08640679}, {-0.14042947, 0.047085702, 0.048955057, 0.13974516, 0.13987389}, {0.034496263, -0.12775446, -0.18541928, -0.13766454, 0.050798897}, {-0.0677993, -0.11176758, -0.03394486, 0.018426776, 0.095551744}}, {{0.015304469, 0.09352569, 0.11827495, 0.1622816, 0.059096307}, {-0.07631214, 0.021486651, 0.09614819, 0.21570794, 0.14717442}, {-0.07075514, -0.12856361, -0.11759849, -0.0127792815, 0.097253874}, {-0.1152279, -0.15082979, -0.22460297, -0.16786203, -0.045632537}, {-0.084702685, 0.009412654, -0.05510405, -0.09117609, -0.09147665}}, {{0.10523039, -0.052867416, -0.12496388, -0.014363911, 0.026775654}, {0.010472644, -0.050488666, -0.15004027, -0.13785361, -0.03360089}, {0.19604486, -0.025881508, -0.1787234, -0.20329677, -0.021239799}, {0.029334381, -0.043538075, -0.23020636, -0.07102258, -0.03554724}, {0.058344062, 0.05263475, 0.07690138, 0.14109597, 0.041251697}}, {{0.057615936, -0.07584005, -0.15463094, -0.07013112, -0.13854098}, {0.004054794, 0.012041199, -0.08154876, -0.11383004, -0.23845537}, {0.005114916, 0.060962457, -0.023012511, 0.0031359126, -0.058805946}, {-0.035199333, -0.006635925, 0.015009131, 0.062133893, 0.06810844}, {-0.06442361, -0.0010837282, 0.02161587, 0.007491748, 0.10464057}}, {{0.013100425, -0.003029268, -0.14167513, -0.08891899, -0.03294992}, {-0.039631967, -0.15567316, -0.19464453, -0.30994776, -0.015463138}, {0.10713865, -0.051633526, -0.015873086, -0.11611358, -0.07979527}, {0.07918327, -0.052636053, 0.08356878, 0.0055050794, -0.11504926}, {-0.006637471, -0.07234189, -0.041146655, 0.094140425, -0.14200372}}, {{-0.018712245, -0.0055442606, 7.1391034e-05, 0.08776567, 0.199782}, {-0.0021903215, -0.056311216, -0.0344276, -0.103585355, 0.0043283356}, {0.09456036, -0.034801632, -0.11060256, -0.15778233, -0.10045878}, {0.065683, 0.026986042, 0.05052195, 0.03427661, 0.0845915}, {0.009957897, 0.026180925, 0.09368967, -0.010203095, 0.109587304}}}, {{{-0.09924129, -0.08567735, -0.18066508, -0.12276148, -0.042883825}, {-0.091555975, -0.11181048, -0.1703204, -0.06542813, -0.032370985}, {-0.010600345, 0.019403448, -0.043262817, -0.039076205, -0.028273508}, {0.08965278, 0.25179783, 0.24709432, 0.10528536, 0.0017381993}, {-0.028622096, -0.13632664, 0.09107623, 0.123758174, 0.051804136}}, {{0.06222962, 0.0035698148, -0.00776533, -0.057905525, 0.00030037868}, {0.020091271, -0.089449525, -0.05139511, -0.0031024578, 0.061075225}, {-0.109854735, 0.1798563, 0.14388135, -0.018710775, 0.015645929}, {-0.117798425, 0.07957651, 0.3302813, 0.20385307, -0.0024211395}, {-0.1742019, -0.21043058, -0.20749468, 0.099564254, 0.03507881}}, {{0.04678608, 0.19303453, 0.022322098, 0.016092198, -0.065146916}, {0.013378182, 0.23770025, 0.12799582, 0.008835393, 0.077771544}, {-0.117993735, -0.049790096, 0.18205148, 0.13328867, 0.032475427}, {-0.0033063677, -0.25599146, -0.19971968, -0.0041472884, -0.009498029}, {0.04111859, -0.050668407, -0.21102498, -0.091071405, 0.0036275308}}, {{-0.022469403, 0.017025761, -0.024561204, 0.02209476, 0.034007896}, {0.002580378, 0.082751945, -0.010215774, -0.1011559, -0.12938929}, {-0.06230265, -0.12411904, -0.021784034, 0.031119213, -0.11430264}, {0.088170454, -0.0061342153, -0.23926489, -0.12674125, 0.012450544}, {-0.06049183, 0.060628604, -0.097285844, -0.25498137, -0.15819716}}, {{0.020000389, 0.029849837, -0.09048928, -0.07917952, 0.013123383}, {0.018954705, -0.114367105, -0.112332396, -0.1328933, 0.117549025}, {-0.014699801, -0.044214882, 0.11806806, -0.042933036, -0.05751621}, {0.06020249, -0.10632399, -0.114459686, -0.12060522, -0.13674782}, {0.08548944, 0.16267091, 0.099744685, -0.10016359, 0.0500692}}, {{0.031338654, 0.06538379, 0.08959873, 0.14749154, 0.010907658}, {-0.010300722, 0.00891049, -0.039076976, -0.008653261, 0.06535807}, {-0.06828479, -0.041874964, -0.07182372, 0.08542296, -0.038727608}, {-0.22223546, -0.3563095, -0.30604103, 0.16338226, 0.23473021}, {0.031940818, 0.19409543, -0.09603666, -0.20912541, -0.13386457}}}, {{{-0.07133852, -0.16790971, -0.04660126, -0.0962079, -0.06295146}, {0.047198195, 0.09828549, 0.015389389, 0.044518422, 0.07080199}, {0.22002895, 0.055681624, 0.15990314, 0.1526004, 0.0003464311}, {0.15714087, 0.15382643, 0.13097094, 0.08412318, -0.11086846}, {-0.0003629641, 0.082231924, 0.15266371, -0.04148571, -0.14793581}}, {{-0.058531273, -0.025996577, 0.08748084, 0.08089106, 0.00043298013}, {0.11781881, -0.0020481842, 0.050548557, 0.161805, 0.10016519}, {0.08004745, -0.11834218, 0.008259482, 0.048524372, 0.0113914665}, {0.045369238, -0.14259109, -0.14067227, -0.17569628, -0.17785269}, {-0.21141809, -0.29770356, -0.27563074, -0.18062699, -0.11136665}}, {{-0.15332067, -0.28647485, 0.0005700861, 0.13425915, 0.040241223}, {-0.4389599, -0.47812358, 0.074621074, 0.13677843, -0.0089692855}, {-0.5712334, -0.112669215, 0.12870055, 0.11218873, -0.04823577}, {-0.079910256, 0.11775593, 0.23087391, 0.13807082, -0.13988511}, {0.01461167, 0.048588615, 0.020944674, -0.1382153, -0.18675828}}, {{0.06493586, -0.17723611, 0.045691397, 0.009856243, -0.07939781}, {-0.037517622, 0.0077231517, 0.028513342, -0.0106393965, -0.008471798}, {-0.036855545, 0.0027199816, 0.029122557, 0.035854205, -0.08422929}, {-0.0077395397, 0.015586076, 0.11764425, 0.028004598, -0.11324772}, {-0.009122338, 0.053375605, 0.20632757, -0.2260926, 0.051272765}}, {{0.040258754, -0.015904212, 0.13744856, 0.22259295, 0.11396828}, {-0.10211286, -0.025272898, 0.09120157, 0.17155954, -0.015379481}, {-0.02295351, -0.036823172, -0.22553335, -0.063425764, 0.056896053}, {0.035599478, -0.1109981, -0.23540871, -0.11953031, 0.06469012}, {-0.030623352, -0.09756322, -0.1392607, -0.058751248, -0.069622606}}, {{-0.027189773, -0.050678283, -0.006459343, -0.0769719, 0.025549961}, {0.11759544, -0.028183978, 0.048546635, -0.10028932, -0.103950314}, {0.03445543, -0.07689455, -0.18712986, -0.2508824, -0.29636544}, {0.04893386, 0.019638518, -0.020234289, -0.46800473, -0.1977369}, {-0.2591614, -0.14638513, -0.18023904, -0.21777661, -0.037252463}}}, {{{-0.11916719, -0.119750895, -0.006273003, 0.11952034, 0.037496947}, {0.014794174, 0.107870206, -0.02364332, 0.025583718, 0.2387105}, {-0.14100274, 0.07205436, -0.09761516, 0.0051347595, 0.077265054}, {-0.14930728, -0.015187377, 0.04747541, 0.0537346, 0.05539318}, {0.027733225, 0.12875429, 0.15937358, 0.019977883, -0.018910388}}, {{-0.08721585, -0.010210525, 0.035374142, -0.009403966, 0.10398913}, {-0.029032208, 0.05319687, 0.0035740754, -0.053193673, 0.06689351}, {-0.1632458, 0.042971537, -0.09116725, 0.012393842, 0.020895889}, {-0.039027933, 0.12521738, 0.10838618, 0.060188662, 0.086965054}, {0.122794054, 0.087237164, 0.09215894, 0.011973387, -0.0125193205}}, {{-0.3168801, 0.026371328, 0.074190885, -0.06640409, 0.049652725}, {-0.28357184, 0.14222813, 0.13109322, -0.08037001, -0.03158161}, {0.028331226, 0.03420095, 0.12765285, -0.1103435, -0.03469073}, {-0.06837622, -0.03954739, 0.10473958, 0.006889889, -0.18656327}, {0.029991848, -0.00962684, 0.06616489, 0.08262624, -0.17135756}}, {{-0.07508959, 0.14644124, -0.0136772115, -0.10173003, -0.110256284}, {0.024253143, 0.16342081, 0.02227568, -0.16263762, -0.04652903}, {0.1077684, 0.0940203, -0.18832444, -0.29243836, -0.17312615}, {0.14870217, 0.17388037, -0.09533194, -0.18719116, -0.18038067}, {0.083207466, 0.08731361, -0.1564649, -0.2124353, -0.22886133}}, {{-0.1032723, -0.075461216, -0.16220547, -0.14974102, -0.17742784}, {0.07478301, -0.15097304, -0.225777, -0.17973337, -0.08788515}, {-0.050904807, -0.17720804, -0.0057959473, 0.052879736, 0.09234559}, {-0.15477699, -0.29547644, -0.033299904, 0.06922298, 0.14649002}, {-0.0770804, -0.24382703, -0.07715885, 0.08797087, 0.096961215}}, {{-0.1073788, -0.0036048829, -0.057261422, 0.02194522, 0.16651015}, {-0.0119159445, -0.014564184, -0.28720978, -0.16672859, 0.20704283}, {0.07154578, -0.22822702, -0.27302417, -0.060678266, -0.004218972}, {-0.0715518, -0.31902784, -0.24319932, 0.12395871, 0.05461619}, {-0.21094052, -0.24486947, -0.10672419, 0.02969043, -0.12333058}}}};

